GIS
1
0.0
3
pos
neg
neu
7
7077 0
876 0 1
1555 0 1 2
1053 0 2
1197 1
107 1 2
1409 2
13274
impersonation
salary
pico
exbestfriend
gloomy
girlohth
pict
antonio
picc
compassionate
cdq
yipppiee
birthdayus
bestday
hyomin
yeahhh
turo
bogum
after
staircase
neighbor
aldub
o
ofcmilesstar
sunset
y
z
sisch
awwhhh
roni
goof
painwild
serious
cuteeeeeee
kajol
che
roma
cho
obvus
gona
colombium
tusk
chu
wondermom
unbelieve
wacky
cie
cid
chandlelight
dexter
rope
feste
wowzer
srry
wednite
multiply
nippy
roof
jbeautiesdnmrk
sartaj
gaaad
extraditedand
cancer
pile
piln
flor
majestical
wowjust
pike
gorg
phobia
upwinner
pika
mssvt
windinhairswift
ping
protection
admus
biigang
surname
taller
rosh
ross
intellectual
kristen
rory
coc
cob
cod
rose
gossipingfightinggett
kudos
quack
alden
bruise
pacify
kevvvo
hilary
govt
pipe
actress
cpt
rtfavfollowfollowback
plenty
whaaaaaat
effective
jigwe
roxa
dasss
annnnnd
rowl
fanart
hunadus
follwer
doggie
freshness
ughhhh
giiiirrrrlllll
strut
ctk
worker
cto
oooooh
derozan
undercover
aftermath
cub
karaka
courtney
sameee
hsam
btwus
ankle
pium
styleright
marvin
bbbbb
salvageable
antwerp
congradulation
meboyz
unwatch
yixuan
apparel
squishette
axxess
lmfaoo
widely
cyd
rahmat
thiii
amalium
disaster
waitttt
shore
cambrium
stylish
tilly
disney
penguinful
finance
rebecca
funnel
shippa
karate
yurus
fanacc
obvio
doings
coast
picsu
addison
thennn
lomee
crhoneywaterjm
justthenet
emotionable
oasis
compact
yeeupp
medusa
manila
runaway
dam
leeteuk
yearbut
emptiness
kundalinus
continuesely
birthdayyy
fervor
bussin
uyou
aftie
salubong
burpee
birthdayxx
nicest
bernie
prohoe
joyyy
drdre
dearest
dej
lolit
impact
adulthood
buyer
juliamouse
ellum
treatment
hoeism
dgn
sobtus
elichika
journal
unlike
amedorus
aniya
yayyyyyy
flapjack
piannnl
hollywood
baal
happiest
din
pulakkkkkk
guavment
baba
diy
jjind
lacer
beautifal
yaleenna
djp
straw
beefin
wokus
loishuapotato
toughest
thankyyyyyyyyy
sobra
lolol
virtual
anita
bach
mack
clubjust
jaylum
equinox
length
bournemouth
relak
maar
babu
baek
dmx
sarminus
worrrrrk
viraus
fooln
sametime
dnd
watchu
sideline
himeechan
doplease
badu
meill
shitttttttt
dol
mage
don
doo
thief
portugal
joshus
chunky
alessium
joshua
nurse
comminnggg
woodburn
todayy
bernardo
wallum
leavermc
pouya
sadness
bail
bangtan
baik
dre
maid
lampard
youplease
lacma
twat
twar
innerworking
salvador
tampon
klium
maka
piccy
maju
dub
hobus
beyotch
maje
dvd
tatus
cholesterol
banc
legsit
mame
davidus
mala
male
xestfriend
galfan
cedar
manz
gandaaa
expression
sticker
dedicate
dingdong
mana
worldg
untus
seller
devote
dyu
abortion
wordpress
cripma
nominate
bark
bothand
jamiee
bare
duluda
morestwell
wohooo
countdown
sweterek
jaylen
chummy
kimberlywillobrook
twit
fnac
daycare
unlive
moreee
stew
abercrombie
tfbbm
sheebz
bass
bogar
mare
marc
milton
bash
tatty
tribute
cuteadorablenitara
maus
theora
auckland
carbonara
georgiainclgp
mata
trent
boyfie
mato
cecus
theory
shutup
labyu
thruuu
bawl
dhan
mockingjay
edc
prettydinomite
edm
nidium
inspite
edt
angelofmusic
ukrunchat
stok
yoooooo
fairness
beenest
advantage
peekabuuchan
chicharito
suamus
puuuuute
exception
branch
chichus
brandd
yeaa
silence
fairy
seulgium
davao
community
packet
cocoa
fevah
dimakatso
amiyah
gurukul
ehy
darlingbuena
hgoty
eid
waoooooo
duterte
cede
escka
shirtdress
durkota
cisco
braney
droopy
tyrone
cece
severe
yeay
eke
neff
communion
errand
ugliest
kindle
forgetlive
mayhap
elf
yaaaay
ele
minister
shrek
clinique
theperigirl
ceej
ohhh
realizeeverybody
gangbang
neuter
baesince
ghanaian
metart
narendra
wonderin
moine
moretz
barbie
precisely
profileplease
pickingso
turen
yeahhhh
hippie
unexplainable
nego
qaida
eny
morningwith
alexita
loafer
spousechub
motherfucker
gangster
aldubbtss
gradually
fancya
neil
allegiance
coyote
columbium
beautifulthi
aylum
wtffffffhave
lmiss
era
looool
natelove
ohno
lockhart
scriptwrit
selfmade
spice
trial
guailan
eta
homebound
below
acoustic
allnighter
yell
tribe
nelz
noooooooooo
joseph
amusement
belanger
eus
yearend
retweete
wigflip
eva
rukudzom
atrium
evn
wahaha
chore
silento
bigbrody
bestesttt
evanescence
phonograph
globeholiday
bestest
himself
hellooo
pinnocchio
mixer
yazus
netw
kibum
imissyoumore
seulgus
drunken
lineman
shinee
classic
succ
destinyrose
grad
foam
suga
dimey
lollove
furniture
schick
eradicate
trumpet
femily
snowboard
gaucho
next
creamswe
snatch
summit
mandalum
caspar
nobake
urban
favdrtd
mbtc
reginevelasquez
faf
akyrek
fah
suka
synonymous
fai
suju
fay
flexest
fbc
uncontrollably
bookish
blizzybear
hhhhhhhhheeeeellloo
hump
youngest
clueless
julie
faccio
thotpocket
dial
grin
grip
tornado
continuously
hula
pleasee
festivity
carman
hulk
economic
dice
dicc
sunn
provoke
alreadydamn
ziam
davey
mrning
rightthere
outside
darkest
perceive
faith
remark
txst
damnea
peanut
macklemore
diet
yeeee
butter
rebate
augurus
kerosene
radford
irina
halsey
carmen
fic
greeting
nahiius
renee
cristine
shayar
addition
surf
amanora
ac
fambam
ae
prachus
natalie
panic
extend
ar
unanimously
wantus
ay
ello
takeover
bg
bj
handcraft
elli
bn
bo
br
bu
shukrium
popularity
waduh
cc
ce
cf
ch
cj
cl
cm
cp
flw
susu
cv
cz
dunya
dd
ezenza
scarf
dk
eveeve
ford
aaahhh
dt
dw
dx
fahlo
creativity
ee
woodsh
coldestyoungin
huwe
aduuuuhh
ey
fe
hitso
teary
gabby
fl
fou
mustache
ding
fx
oily
alert
beutiful
heartbrokenbut
gb
plasterer
ariarie
gh
gi
potion
gm
gp
ziko
rhythm
roadie
gv
fork
gy
lovato
fort
hd
hh
hk
decorationssantaclean
hp
hq
holyyyyyy
adelaide
welfare
hv
hw
hy
four
elsa
ii
dint
io
schemer
dino
audacity
ir
distraction
foto
elrb
bautiful
scoutmagph
fetus
jh
ji
jj
oversize
bossing
jm
jn
jr
strooooooong
majestic
russium
jt
ju
grader
kd
daddddyy
kg
delight
ohhim
kl
iyaa
kn
kp
plss
kt
ku
cecile
lantern
overprotective
tebal
ky
lb
wooden
li
ll
fur
ohhoo
vergelyke
lt
thaank
lv
ly
locker
laudable
second
morgan
md
asexual
mh
plum
mn
xmass
vipdout
panus
icebear
xmasn
elus
mx
cheerlead
entry
fwd
dish
nc
ne
noble
nh
disc
panty
sorrryyy
nk
nn
gurgaon
synnara
ideology
fwy
cutus
nz
oius
oc
od
oe
of
om
diva
op
or
ot
headset
ringtone
buuuut
pasadena
gurujus
dium
fye
pe
pi
taeyang
pj
po
yrssame
fyz
followdm
plzz
qa
gracia
hhahaha
danceee
giveawayus
ziva
consciousness
kindah
ra
rh
rl
serenity
belly
ru
rooney
ohgod
sf
sg
sh
robichen
lecture
werther
sq
sr
relatable
su
sw
sy
td
te
yaaass
tj
alfie
tt
tx
sissy
backstreet
norminah
wayward
bcuz
sista
ambiguity
uk
tvradio
maitedisney
ut
uy
vd
silaaaa
galbius
vj
vk
waterb
quake
sisus
birthd
sorority
kissma
gab
wc
wd
menope
gai
kepada
gal
wk
natira
cringe
nyommo
gat
thatkevinsmith
wt
amiga
ww
wy
tyme
nevermind
xl
choir
typa
electrify
gurujiu
bossso
ye
april
yh
djay
yourselfphotograph
forbe
lauren
za
iyou
choco
ooooooooo
gdo
zo
scrooge
emotionless
jozus
pakaus
tyra
gea
gee
gem
snape
gey
barber
omaigod
suspect
monetvillarba
aquanaut
massive
huarach
itnus
panda
harbor
kissso
pavilion
rockin
criminal
joburg
tysm
nuisance
replay
nuttin
crease
gif
scale
scalp
gix
iceberg
niceeeeeee
shrill
rhiery
aeril
ounce
siwon
resemble
pmln
tdawg
rehearsal
gma
camyour
heather
tosser
gmt
teedie
mdawwwg
syedzk
laaa
snazzy
kenneth
pearlclsd
nattychamp
tylascrownjewel
goa
gob
ailysfrenemy
lookgreat
epitome
correct
lade
got
imitate
ranagh
avery
gotham
dvdvium
lace
internationally
shiniest
gpu
cutieee
sociable
regional
djor
magoogly
solelimgwv
againnnnn
jinrisul
wrestle
cellulite
soreee
claudium
gro
govitality
grt
evolution
wada
redemption
kanye
boiiius
reindeer
mainedcm
magconfamily
gsu
knooooow
gothen
usher
hneed
gtb
gth
englanda
kolkataus
mughaleazam
firdaus
erotic
quirino
loveteam
namyeonhee
renovation
aajo
magnificent
dahyun
tutti
accordingly
gonne
kwazakhele
emus
breathtake
inconsistent
almost
flipdm
dvorak
charity
booooooooooooooooy
macbook
xmasparty
tiffanythe
swap
hahaah
alviko
reciprocate
watford
fletter
ether
ethel
wana
marissakalaw
indulge
lester
hansol
lang
shampein
cyber
jewellery
wale
thnku
alllll
raithe
decay
yguy
revamp
hohoho
helen
championship
badgalcc
mankind
clapback
wank
fedile
amantle
kennedy
swea
wand
trendingash
kaalus
gtfo
ward
againt
rted
khaus
alina
bdub
christ
intimate
religion
westlife
latney
veryyyyyyyyyy
smbellax
guysss
goods
retweetskeep
lynch
wasp
bedford
hal
hat
meetup
hay
hansen
lainee
hbd
beomg
measure
swig
prank
lawa
soulwish
weapon
lava
tearoom
genrev
cocktail
numeral
waus
laur
jualan
chron
obinna
kanin
alike
lykfan
delightful
mende
seungri
lapland
offtime
heh
hen
befour
russian
passenger
skreetz
wavy
boleh
bruno
worship
waze
everysingle
okee
linguistic
hgv
mozzarellum
yodit
campground
reverse
multus
menggay
courageagain
char
chap
engr
beam
fiction
baelemme
christmasfeel
hallum
bluetiful
prayy
therus
hereeeee
fanpage
straighten
enid
square
westwick
bornday
maybelline
commute
babyg
jacksonwowhi
shepherd
okie
beca
debut
parisianshoe
portuguese
restore
baeslyfe
thoooo
alalay
styless
chea
babyy
letto
pedestrian
madrugue
alphabet
meee
beeb
advance
chic
rapehurt
frikin
jouneyphotoshootshootingpremiereparade
beez
bleach
hne
nakasurvive
tecyx
honeydo
ennaifar
christine
hny
thanksgive
hof
lineswoman
shiver
meanest
inspireble
liquor
hov
iswhite
eeeeeeeeeeeekssss
lurcher
blast
addsnap
domingo
rhyvr
listener
brasil
okok
meim
hiroshima
diggin
monterrey
comingyay
stargaze
dolphin
okno
hrw
abeg
enrg
mego
pappu
snoorin
tbhhello
enuf
choc
shoelace
shameful
goooood
tuition
vhsoul
gthjust
reweet
adventurous
kitten
khaki
allllllll
abit
papus
belt
gomna
hiphop
lmfaoooooooooooooooooooooooo
mamimiss
agaiiin
chihuahua
blair
ppoooooo
benz
menh
meng
lizquencdo
wooopin
jurrasic
jaeyoung
ilysm
menu
teddy
mend
maintenanceit
hyu
engulf
british
avidlizquenatic
geographic
international
churro
mepl
girlmandy
pnya
meow
harvard
preshyyy
best
kharm
proprune
beth
mese
beta
calgary
mesh
exoluxion
celine
ngihambha
hippiecasual
aimane
besh
jewerly
moodbooster
baebek
aldrinpaulofficial
trina
groupduoband
nefsy
nickykhandi
beus
partiesxma
rudu
alyssa
hereit
rude
meti
ethan
jumbo
abus
mermaid
iam
overdue
rugg
godbless
retaliate
fred
ydaythankuu
wooooow
reaction
iba
procrastination
actually
woooh
oldest
woooo
musica
ibu
wooow
daydream
instinct
shrug
meyh
icr
icy
nspcc
idr
gulo
detect
aahhh
rula
lepaskan
poem
torous
frig
checkout
dramatic
krinderellum
trill
olaf
jariiiiiius
crazymofo
sturdy
inicio
cuteeeeeeee
dresser
karachus
gump
spectrum
emperor
annie
olga
anniv
diner
seize
lagalaxy
nick
niska
seohyun
blaze
papag
bethdidnt
olfa
dinda
vishon
bellomag
emmanuel
wenowantagain
preferably
roman
sivan
zaughty
pole
iko
blooper
dawin
ikr
frog
laravel
classicsplease
bench
alamak
tinselitus
rhyme
manufacture
frnd
ily
dinah
hahahhahaha
kiddo
adornment
pona
folknem
nigo
christina
omaygagh
ina
value
annex
ine
aahan
whooaahh
polo
mandem
carrot
daychearrr
dutch
shochan
persona
excellent
jimus
pooh
ragan
ahhhhhh
absolutley
aggressive
knobhead
iry
prezzie
klaine
grocery
isg
liswhat
acceptaman
itb
ita
nina
posh
itl
pose
mrslindysue
steeler
itu
suffolk
article
enjoywith
port
hesitate
gameplay
income
kiefly
audus
production
savedus
rttalk
fansign
striker
sidekick
citizenship
damian
pout
almosttt
yink
soulja
thehopethat
olum
looker
property
minista
shorter
goalssssssss
zambium
slade
fouquier
pwetic
ragil
nitu
bubble
sweeeeeeet
haituesday
resto
achille
bubbly
cristy
fillet
cheeseburger
internship
simplyyandy
quicklyso
banhakyung
jckrjrz
tisoy
nium
therealblainepuppet
erthang
panorama
saaad
blimman
friendssee
seulrene
musically
saying
poshmark
topher
chilllllll
louboutin
batman
deepart
unemploy
browntone
actu
chawal
followtrick
angfunus
jar
gentle
goodness
jaw
thirlwall
jbh
beautysexy
constantinople
itmind
belieber
hymn
cryingggggggg
obrigado
abevzqz
haaye
waraney
colourful
roughdrumnoise
craprapperthi
castle
jee
jek
jen
jem
ombr
overobsess
jew
purest
wyooo
edinburgh
significant
gladly
calligraphy
oman
haaus
bishopmyle
focusoberano
wingate
againwere
elizabeth
hottie
luccus
gargeous
jih
carpenter
jin
jim
jio
durban
julium
waitt
jjk
epic
jjp
tinder
waist
songrequest
australian
nstruction
cbeeby
fsog
dazur
hyun
mischief
festively
giggle
winther
parkour
zurus
adam
castro
draymond
joe
flocka
jon
maddy
awaken
mouthwater
hyyh
addy
greatful
miracle
tahapp
deboout
jpn
bongz
likethey
maddo
beckett
maroon
maddd
vellapally
asterisk
maceo
replyingever
kloss
housegirl
buttercup
jre
gilinsky
oklahoma
loadsxx
molly
metropolis
hindus
jro
selfy
eastlegon
fayaaaa
omqq
civic
ashlandx
founder
juh
jun
hardwork
shaelynnstyle
parth
holiness
igloo
joeyeahh
fridayor
omre
adjust
jwe
akhern
hoorahhh
macho
selca
usesave
goose
ashantus
homeward
minhoya
drunkjadee
decor
helow
percocet
historic
friendthank
fragrance
jusmarielopez
fulfill
mechanical
feedcuddle
bailey
jikook
couldent
okaaayy
nutellum
alium
janoskian
paparazzus
tournament
waifu
cameyou
guardian
kame
bundle
smhhnext
awius
kall
thorn
rajinimurugan
jaejoong
syrium
antisocial
goooo
prillver
natanium
diffuse
brennen
cittaslow
likaho
kank
disruption
gwen
misbah
warswhen
crore
kane
recipe
mgwv
ablut
kak
murnial
loser
thoma
kar
kay
thong
morniiiiiii
drill
crossfade
seguidore
loversssssssss
stumble
aphrodite
specialty
goinghappy
dayyy
alhamdulillah
strengthen
humanitybut
spirituality
badge
woohyun
atlanta
yehey
ken
tanuja
crunchy
jaunt
launch
cricket
kath
napaka
hasard
metimeagain
declare
quest
mattyb
khb
athlete
ammmm
carpet
firststuff
onga
kissobviously
worlwide
kix
coverage
fleece
freekick
kaya
chilot
specially
bipolar
feedback
satguru
periscope
pulau
tighten
paperdoll
mobwife
between
collar
juvenile
kmg
forwardslashusa
wahus
bgether
kml
leah
applaudit
leap
jilly
neymessus
elegance
sunlight
knw
rulesh
koa
workwork
kom
lect
kpa
wurtzbach
shuck
gayjay
gigantic
toyama
leel
parin
kiefer
balloon
rethink
fearful
accent
masarap
kry
kst
would
rabbit
albayastrodome
kth
wega
successfully
ktm
sniff
kolinda
latino
moore
olibriusvintagedeluxe
dadhus
left
sparkysgirlx
tickle
beatty
kup
kuy
midway
plush
zombie
wabantu
isabellum
address
pluto
cnblue
lalum
kwa
lele
onus
miamus
bandana
tonightpm
polonium
wayyyy
lombok
onsy
kya
ilyyyy
grandparent
grabarkitarovus
niagra
kyu
disco
cauple
patiently
puorc
shembe
explosion
automate
pioneer
rainy
lovee
leon
destine
binary
wenn
irony
katrina
wally
aese
phipp
produce
coolin
overly
delhus
lingerie
ragret
kashf
lad
wesh
raise
lan
spoon
lovin
surfer
wery
less
finlay
werk
redraw
condition
lbj
improve
daejunfirst
ndiwe
teehee
lamba
bryce
lamar
menfessotomati
coincidence
tyfriendship
ldn
quen
quem
allyn
dreamwork
expedition
budweiser
hehehe
lei
uuuuuuuhuuuuu
webtoon
ahaha
pree
prep
erghh
ley
bagmy
courtesy
sabog
downus
prdp
ardent
jiminnielion
dfruit
doea
ucheoma
hahahahahahah
sayaaaanngg
freeeeeee
clay
promote
moody
fuke
fukk
clause
quiz
karma
brynna
naddict
preopen
beress
surena
shelly
giovanna
thewelfarewhether
quin
pluck
quip
medical
dogg
gotcha
predebut
source
gotcho
mamasomo
kbye
lim
prim
liv
goalrt
karna
skyhigh
homer
ballad
eric
gudeven
maddie
overall
glydel
erin
muhlez
lufan
resistant
mica
throwin
skriver
defoliationh
oohh
xian
xiao
kulit
hugggie
clem
funn
clifton
omojuwa
bieb
lmk
whoever
mooka
macaan
doublepack
homan
boydate
lng
shopkin
daaaaaamn
mich
shuttle
shibucho
elliot
greenville
madden
lob
soffer
waaaaait
teaching
angelo
loo
guyong
lov
lou
ferrero
lox
prom
prop
fuss
slidell
prob
doll
wildin
varca
beforeafter
clip
nutrient
dooo
doom
tunein
newbanger
hyunsik
oooh
autoenglish
curiosity
dishu
prague
dong
rainbow
aamir
bareface
surety
dony
superman
gaffney
mika
adrianneho
andyoure
nelly
zoot
ninasherbet
zoom
jtown
sabus
oooo
quus
lub
interaction
unbelievably
luh
luvskus
mimi
booba
charmfeel
lve
prevention
sequoia
milf
arabium
whichever
dork
milo
afie
imizwililus
bilf
mill
humaylord
fuxk
duude
direk
reaaaaddyyy
bior
allahu
nickcannon
kagabus
blezz
monta
hahahaahah
princessbeauty
adriangoony
hannie
ootw
ootd
everyonesssss
chennaus
mino
ideky
salken
doud
mina
onscreen
lyk
paralyze
ndhnd
azakerr
clue
club
fookibg
mitchy
beason
hennessy
chuff
misa
lilibird
gakenal
birt
retro
bish
unconditionally
niceeee
sephora
punny
blackberry
delish
coment
mira
boyslet
saber
switzeriand
bellows
fanta
charisma
division
haahhh
proudly
jollof
juliet
wilderness
evaluate
ooze
whoooooooohooooooo
mai
legally
mah
mak
lexie
leisure
maw
mav
max
casscass
saudus
tilljannah
unseen
residency
snowman
opera
mahalay
trappe
sabar
wright
mch
karen
ffffff
residence
comedy
caroline
bangkok
lexis
getup
mde
frappe
alkus
aquagem
millie
yaaaaaa
skincare
blend
martian
shiiiiiddd
meh
mel
meo
antman
physical
titus
bizz
structure
wakey
biscuit
mga
baconwrapp
blissful
mgr
resident
outer
loveeee
ryme
miller
athena
mic
piawurtzbach
contagiously
mid
association
gymthe
koreanaccent
monaco
abowt
mil
greece
hermione
aubreona
breanna
heavenly
wamuhle
allus
mismatch
brekkie
berry
waitingwave
invest
wonhoe
project
greedy
biitch
semua
coincidental
foward
allow
ninong
lizquengil
malangizo
gesture
indiretto
indonesium
mnd
tedaknius
superlady
moa
euphoria
botswana
mon
mop
maemunah
mor
tareya
beatmy
helpin
obstacle
mph
greeky
adforev
signature
churn
essa
believer
beatle
antalya
mrc
include
medley
ymail
aaaaah
celho
lotsa
inbox
msd
shipper
allen
pstd
float
beltin
itttttttt
jaan
makaylum
titan
dirge
alley
tegur
cortez
mtv
sequence
mississippus
mua
rckstr
habol
celeb
jade
jovial
foxin
cmon
joonyoung
dessert
deewano
yuppppp
crappy
dewayne
kaleus
mxm
seriuslyy
bronze
mya
guest
fungal
dolpin
memess
sleek
particle
hahahahahaha
sweep
fourfivesecond
voucher
saidtypedwhatever
hypnotic
wanan
webcamer
cenang
bonfire
daaaaayyyy
kdog
rotus
funchal
rapist
nuexroslus
kdoe
cockroach
itwait
insafian
jakr
scissors
shinkage
weirdness
ukforestwake
career
moral
janu
eeewppsss
jane
nat
merrier
nax
naw
barnett
hotpop
titanic
roller
steinfeld
memeke
crude
mornin
nci
chardgel
youuuuung
piccus
pkiexplain
kaylee
helpsee
patagonium
jark
sweeetwet
bronny
neh
bipolarism
lindsay
faggot
ohmygaaaaad
neo
jare
cable
ney
woaaaah
markus
sidorkina
godlike
stussy
nfl
franklin
nga
mblaq
ngl
snitch
abram
frontier
stylemic
kaylin
yaayy
mapera
hahahahahaus
giftlove
kneeso
gallo
cabello
java
rockstar
songpmbe
ailyskatrina
sneaker
pearl
jaus
farus
brooke
bucku
woodydo
mahal
ajith
bliss
malaysian
babyboo
babyboy
jawa
colorshylink
bestiemy
noreally
erika
swerve
hqphoto
lhav
herme
sofinigo
nme
drool
stripe
portland
chubyness
whack
modelus
ylonagarcium
jutsu
jayz
letizia
mentally
alott
decrease
hacktivist
rollin
nnt
reopen
cermin
lowry
string
simplicity
non
perfume
clubmate
blimp
delivery
pinch
rylynnwe
conquer
gooodddd
yaaaa
erick
timemannn
innocence
mustang
fireproof
aokino
gould
fwus
brooch
abdevillier
kendjus
clifford
prevail
quarterfinal
grandpa
keef
ahhh
fahmialmaarif
follllllow
modern
windowsorry
eksena
veda
ayyyyeeee
herey
comical
completelye
stiletto
kaylum
jaspar
crust
sexiest
etsu
tinkerbell
nuk
acura
fockin
ptus
hennessey
sizeless
imarissapadillum
sweeten
carente
veer
nvr
hysteria
market
keen
markel
timeee
droid
along
lizquenpaudalab
dialogue
lykactor
tmary
respire
lanus
arthurian
chosss
nya
yonghwa
borom
claud
nyo
yoriver
nyr
nyt
caroler
bartender
vein
nitara
peach
canyon
competitive
azbaycan
whle
leslie
frank
whoo
brothel
playsuit
prowhateverthefuckmakesyouhappy
extinction
contestant
brodiesangster
unlove
pamore
gabbie
fanaccount
expiore
clarify
ditch
madara
catrice
seduction
koolaid
portray
awesomemano
celebration
condone
squeal
theregood
refrigerator
soulmate
wenzanus
kena
frame
indie
gracielum
princethank
burden
lurkin
oau
supermart
clare
obe
clark
buatt
potterv
unlucky
carpool
assign
talldream
prosecco
seulgi
heartmeltingly
kesh
whtz
oct
kero
wouldntyou
metal
papajus
traditional
shelby
kerb
pinokio
gypsy
somto
keus
knowxxx
digest
barbara
whaat
somus
vest
drax
thissss
uglyaf
afrojackstave
hahahahahahaha
rollercoaster
oga
chronic
missuniverse
azalea
tayyyy
amazon
puff
headquarters
moooorrrrnnniiigggg
hammer
victoville
roswell
namibium
blah
bether
madame
sadie
selfless
oreo
lovly
woadie
beatport
kpoppper
estimate
drip
noel
proposal
orgy
kulento
recreation
endrium
oll
cody
coex
honeydew
janana
vaccinate
meshe
youuuuuuu
islamabad
kindheart
bleh
ashish
lifelong
mprill
yoga
pune
cabin
oml
aanya
variety
thompson
toblerone
revan
craziest
abnornal
dealer
pulp
neman
gdtop
girlnever
ook
wick
shockproof
thisshe
smokey
aich
opd
opp
coin
pura
rosch
learning
directioner
troye
org
ori
yippeee
honda
lovedenise
dealin
amazin
osh
jhoonnavy
competition
conf
puth
aseeeeh
ost
congratulatewould
boracay
comp
yolo
oth
comm
betsy
nonrelate
roshe
bmoooottt
betta
youdinah
holidaygo
leather
sampler
otw
baeuty
bieeee
purp
nationwide
cranlemonade
messe
gamboa
our
yoon
yooo
noon
bette
jungculturenew
jumpman
debora
coop
putt
bubba
insecurity
owe
sorryness
grizzly
tonightttt
farhan
corn
drum
owt
owy
ayyyee
bahay
mesut
naaaa
ofclan
messy
core
beardy
oye
prefiere
ahyrenik
lind
hearty
indore
florence
jooongius
caroller
lima
cuisine
policefirenh
tuesday
cote
yongguk
orus
soman
lily
cosy
wile
weloveyou
oogly
punaluu
morphe
remote
yous
assassin
rider
flappy
simulum
simrndrshn
kimxx
likeretweet
cous
noui
dedication
baker
duzny
notv
contestsclimatehappinessnew
finallyy
xmasus
itmbftell
wink
sylvium
yellow
heidus
robitussin
hinaenglish
aise
itzel
wipe
overwhelm
pocketbook
xmassy
niiiice
broadway
cozy
briquette
futsal
litt
wthhzhan
paa
yoyo
pag
exceed
pal
pak
staaaay
lite
grievance
pam
gbevucious
par
pat
pav
bakal
invitation
paw
blvr
voglio
malhotra
wire
chorong
revise
ligue
emerald
whathappy
stevesmith
wius
bayanihan
instrument
appriciate
pca
jcow
psychology
sweatsuit
kawit
youspirittt
daythank
tooooo
pea
peg
ailysdonttouch
thankxxx
pep
silicone
oakland
mewha
rappel
pinnochio
violence
phd
santit
pia
pie
selfdrag
rowdy
esmus
pix
guysshabba
motha
andwork
xman
unpack
garlic
messagessuch
pli
cuankus
pll
mossus
velvet
osge
antidiscrimination
payne
unproductive
lmaoooooo
recycle
lawrence
uglyy
pusey
weakkkkk
pnh
recognize
hahha
rover
pob
realist
pon
mmff
ubenosuku
routine
pov
shekinah
marion
morninga
granolum
ppp
pamilya
superhit
mavuto
fyus
hippocrate
smite
aaptard
cadburry
gemineye
eeeek
chiseungcheol
prd
marathon
hoshizora
pri
widium
unstoppable
wereitd
comfiest
psa
udah
jethmalanus
inshaallah
tirelessly
pst
minimal
psy
bravest
officialafc
winfry
pta
piper
lapot
sinaman
olamide
bibir
bakso
shomus
gateway
haitian
redtour
pug
notorious
bibby
pun
xmla
goofiest
prexma
mmmmm
dekho
happnd
chainedup
phhhoto
ajib
nxgga
osum
prechristma
helmet
bmot
mmmm
antiquity
foster
cyborg
happpy
havaaa
ganda
solihull
flatter
gatsby
homeeee
secondhand
marian
mariam
annoyingjk
ypur
percent
infront
eargasm
alleyoop
eternity
pussycause
nostalgic
encounter
adhurus
msgthefilm
praiseworthy
cooper
ashland
tahu
evaluation
lizquenlau
lloyd
prayfor
knowledge
prime
festival
combo
nacho
mucho
appetizer
worldyep
breadfruit
comer
babyyyyxxxxxxxxxxxxxxx
rican
alonzo
brotha
superfun
actlikeyouaintcatchthat
yaaasssss
serum
yaaaasss
chinese
hustler
modesty
algerian
talm
tall
rafter
planet
shonebitch
galyy
pwet
squre
todayall
tang
qtime
backspace
pwee
alpha
tank
cepet
rembrandt
hometown
idiot
mlive
complimentary
broskie
pious
insomnia
prettiest
winget
tengok
tame
charlotteross
tama
shannnnnnnnnnnnn
otak
intolerant
sparkle
melique
ricky
bbglove
varsity
sclub
qha
bosco
salamat
syalllll
underground
wifey
sparkly
epcot
nextyear
adress
greasy
tarr
stsunderstand
broskus
allege
harvey
graduatinglove
iheartradio
clayco
serve
reptile
drown
backward
gmorn
tate
otha
seriously
painter
transit
nepal
valley
tass
tawa
pembecengan
phoney
discountmacklemore
fuckingbut
leadership
asalkan
prius
sophium
bhonkk
villa
friendddd
deeplyso
homesweethome
testpack
greener
elianto
proton
uplift
taxi
pyaare
symptom
funeral
himchan
growglo
rontrell
outline
agame
perspective
kapoor
kellan
klandawo
ingat
haaaaay
tayo
jsone
khan
kilig
meune
hibbert
budge
viataetaekookie
neeeighborhood
jhope
jokeeskiee
celebrate
juuuu
powerbank
festivus
qty
que
squat
lalujus
waterpark
louisxx
hellou
wantp
moron
timeespecially
hellow
summary
freshyyyy
alvarez
compo
kenzooo
sisterrrrr
bigtime
wanst
hoseok
newdey
sonicecstasy
jeff
jefe
prick
schumer
hungover
otto
gamer
priate
leggings
mainlove
kanina
cherish
dancer
bosss
andame
protector
truebut
jobcmon
kelliu
niklaswatchwrist
maharlika
agency
awardsinterest
crclash
teleb
birthdayyyyy
soojung
thump
comme
bibimbap
roxyignacio
astronomical
tbfh
jeje
minority
yellin
hahahahah
healer
swedish
morty
fothermucker
winslow
fossil
fixture
comfy
budak
arrival
interact
membership
fasho
nominee
smtownengsub
lasagna
oncam
maine
nevada
nanana
pecah
serie
samaritan
sophie
photoshoot
building
friendzone
exbf
thermal
rag
raj
jena
rao
bulgarium
exam
shadowland
ayywe
nashagua
slimy
akus
rcy
iquenotwa
scoup
shallow
scout
jerk
dubz
punanus
mahathir
demar
ref
myeasher
theyyy
maggus
scone
nafsa
krystal
jere
ret
butthole
buhahahahhaha
peacefully
grazie
jesy
laser
snoop
jbeautiestagum
succe
northeast
helpfu
jess
ryannnnn
rhe
kartey
rho
sanrio
rhy
popcorn
ekhaya
movin
ric
hislop
motorride
yesaction
rio
telepathy
exid
swiss
duet
moonback
byjiezus
duff
tolum
roselle
sophistication
retail
yoona
duit
kualum
btsrun
terrace
restroom
mamaw
bobo
meditation
royal
theyre
warse
naomily
alay
tbvh
closure
modo
asfus
postar
xoch
sizzlum
rnb
nesha
tacil
rnh
moco
delusional
rok
moga
ghandus
ron
gloss
regeton
roy
snowy
maggot
exok
iwould
backgroud
swirl
dull
exol
kissessssss
accurate
catfish
oxford
gnight
protein
demus
poverty
prezzy
flyknit
yessssss
herenadine
zuma
boho
zulu
eddie
dublin
blanchett
envyus
malik
patience
itsmebailey
stitch
boyband
rtd
thoughtful
vick
famdamily
princehe
grabe
fuccin
serena
rug
experimenter
skert
ouse
rus
ours
viet
younow
moly
tristan
durl
noomf
flashy
croc
dayday
duru
boon
booo
bool
sveta
mook
playstation
ally
vinyl
lovedit
introduce
messis
bong
situate
valentine
bracelet
bond
savior
tokyo
momo
wljd
lidell
obviaaa
kika
bhadd
bora
truly
elevate
hahahahaha
trunk
ouut
mooo
marteen
plzzzz
alms
enthral
damage
sorna
compton
mose
pattern
selfesteem
sewingtrim
admirer
kilo
junmyeon
lebanon
vile
inaccurate
shmoneydance
dammmmm
unilab
kampret
icey
pleaseee
ponggay
bigbangfight
armaan
barszcz
percentage
readycheer
hyper
moti
innocentakak
ayyyy
both
klyde
opsdinah
affection
dribble
incheon
pranck
alto
daejun
seung
awsum
sam
sal
rtfav
sav
toetrim
favor
arguement
boyz
mackerel
xoxo
bulacan
alus
nasrus
globe
aaron
applause
kirb
kira
fundraiser
toranna
icon
horan
khurum
governorate
vita
kindsss
litchfield
seo
sen
painfultruth
suben
baliw
haylee
sample
sfc
balic
kita
balik
sofium
kiwi
sfy
ranus
vivi
hesistate
exploreexplore
smoothie
franco
egerly
othman
sha
dohya
promotein
sht
tomlinson
supersizin
ballerina
forgive
parade
collector
sid
kiya
ysbh
jasmin
sin
ballon
gooshh
oven
bound
drinkingim
cobbler
tabag
stroke
parada
congrate
setup
entourage
franny
ska
padillum
julnigopixer
thanky
recognise
thankk
sku
yoneeel
arkonmount
bough
garmin
ombre
smf
sml
halftime
atleast
hopefully
narrowmind
yesall
standit
sergio
amat
dejame
mjeww
salman
shuffle
critter
eachother
northern
boatcar
sop
vinny
gutirrez
soz
feisty
onexx
thankyouu
spj
amby
chanel
gaisss
colder
updateoppa
ridaaah
lmbo
malay
behind
jeydice
pricey
shadey
okeyyy
syracuse
polaroid
redvelvet
frightful
srk
fightin
imdanielpadillum
alrdy
sry
outawesomeie
sse
fermin
ponder
putih
putin
jgak
geography
pilcoup
mushroom
alcohol
tonite
stg
ayyee
sto
glory
horse
frenemy
themselve
sub
jitta
sui
omffffggg
sup
sur
copper
mamamoo
mahima
svf
manager
maker
slipper
tenaa
warmheart
svt
depths
amit
folowback
madlang
sincerely
ovum
lukin
dirank
makin
xxxxxx
eddyday
beaver
cming
inloveeeee
unaid
ocean
unair
whatttt
sya
syd
syg
amng
coppin
otwol
mortal
splurge
problemsbutngatus
bestsell
microwaveable
rishus
flute
lsarendatu
balus
balut
christforce
selvus
sach
frizzyhair
children
amor
efficiency
idem
rebond
haibo
kintu
cockburn
hopelessdiva
climax
junhoe
congratulatory
makna
token
needsomeweed
longlast
crouton
moonrock
byron
tab
yippieeee
taj
tal
tan
tap
currtt
primetime
crybaby
taz
tay
tba
asfff
ailysbaeby
marlous
auntie
safa
sojust
marriage
jiyoon
albert
plzzz
hahaggaaa
topper
hain
uuuuuuuu
category
caturdaycatcafe
hale
kjus
gulat
janplease
tee
teh
hebanourr
tek
ten
sake
ter
clicc
orlean
require
neeson
waterbury
jadinester
newspaper
tyshawn
humanities
tge
hana
btsygartistskhh
soneul
ayalum
helium
kritis
thr
weaponthe
thx
witcho
trippn
tie
blogg
bestieeee
dolan
chalyner
bellaa
litliterally
owen
aside
peppermint
sano
stereshc
thalembong
laurence
sara
rrrrrrrr
tkn
fluffy
etcyou
tky
kelvinkeegan
chrimbooooo
mawakin
tweep
isabellaand
romance
fountain
sinahus
fallon
sask
quran
gainee
compatriot
tmr
sass
sasa
sydney
pochette
anal
anak
tnx
ande
tumbrlish
toh
soonest
mickey
frankly
scrap
hava
tot
shorts
tow
izolo
famous
haus
asian
sarcastic
shidddd
regard
academic
tonta
uglyass
hawt
ailysconfront
boxin
dpromise
tru
metabolism
shonesyou
kaymein
cuteeee
sible
taeng
tsc
awesomely
scenery
backstab
jello
haze
timeless
alcoholic
indecisive
taeny
highscore
haye
hoehoehoe
kinilig
canton
unfamiliar
premogotthat
tun
tus
stats
lovable
tesstehlou
rishabh
loveable
bellum
sooyoung
opposite
kutta
cuteness
manje
stereotype
meitll
dooong
boyfriendgirlfriend
haloo
jalapeo
humour
dwus
thankyousomuch
latus
underage
platoon
zenpower
tya
yoherdat
manny
anne
anna
greyson
reflection
campus
misunderstand
hallo
balikhaha
indiafor
kathniel
tadus
lizascome
teen
matroyshka
pokoknya
jerome
stash
downward
walkyou
jasmine
warmth
pressus
udhan
spatula
anth
aldyden
pongal
anti
cardigan
xanax
manus
erone
haley
muccchhhhh
uba
ube
realtalk
svtglobal
bloop
bloom
friendma
arikeyboad
aliaaaa
ucr
format
geekin
forman
anuj
dengan
youththe
sheldondb
comedian
uea
tend
sixteen
teng
anufam
subscribe
fellowship
diamond
ufc
wireless
maroooyaa
gurrrl
uft
rubberdom
cube
railway
ugo
grate
solstice
tomoz
grati
winfrey
teow
sippin
diwalus
transparent
endhoevemberbut
bram
grasp
moodbreaker
tera
kinikilig
deadline
babeee
uit
ahhhh
staff
bottomlessice
hyundaus
penguin
spotlight
masterpiece
happyday
ahhaa
murray
latex
margaret
cuff
savannahus
uku
amazingly
possibly
parcel
tess
barton
brax
grape
popsicle
feast
ispylizquen
ull
paradise
shittin
loan
birthdayawww
loaf
bree
tahrim
tommo
madison
nightsweet
tommy
mockeryus
unc
unf
lovatron
unn
grann
malalum
gigus
jmelton
aodd
zlaay
lock
latin
isabel
lobo
stall
bhaus
plethora
videonya
kymelli
amazingso
surround
yesss
aaarsenal
raphael
crazyness
ittttt
singapore
songaj
sexygirl
yumm
use
nuna
lunge
jeonghan
logo
oxygen
thatss
utd
cume
santaclause
grafton
bumper
jicz
manik
heehyun
napkin
uuu
tearfrom
mania
exitin
thread
yung
vlei
mango
witness
weldon
threat
bowie
brok
uwe
babiessss
broh
chainsmoker
cure
yamrus
reassure
darkside
revoir
boxer
august
smalls
fondant
waittt
unique
waitta
ifttt
safari
hotus
scan
uyy
kasellso
ahahahaha
controller
unassume
lolz
wolf
wole
yuri
lolo
callin
leegikwang
lolx
mamma
tfff
qupid
woot
wooo
lool
angelum
arent
bernice
loox
bornfreeoneheart
beiber
scar
converse
brus
lifelife
revoke
denus
politician
scdf
layout
dewasa
sinetch
caribbean
msaco
ofcourseeeesssss
washa
cuzz
val
pastranaharry
hahasuperb
aunty
kaaldubarkad
wout
wour
armyss
tfln
granddaddy
jeydon
christyersrealofc
woul
verify
nayeon
flashback
lotr
insult
broooooo
klum
minion
tonightsteve
baguio
smacksble
tomar
gonzaga
veg
mamus
ver
defamatory
vet
wahhhhh
unspeak
vazquezsound
pimpdrug
moviesmake
maasha
turnout
siomay
gangstervivica
posure
bhutus
instead
irwin
sideeeee
kuntagotho
anticipate
demarion
babexx
reenactment
pierre
vie
nadine
vii
kayleigh
najwa
vin
vip
niamh
banger
kathryn
jius
verbally
samus
nver
least
rawest
sugod
pleaseeee
macaroon
bihhh
cinammon
secretly
taireek
dainfinitetide
raquel
thanxxxx
dyka
skittle
askfm
ifwy
jizz
jiza
georgeous
doesntwell
supergirl
shade
collide
often
hidup
apam
tarlac
pogus
motorboat
jeffreestarcosmetic
magcon
sugarman
inbreed
vol
von
intentionally
vot
bullet
vow
iqueno
longerus
nelsoncanla
jbaebiescanada
jumpsuit
linda
applique
horizon
calmness
sungyeol
lindo
tetap
donat
arielle
palvin
newly
bravo
explode
brave
islandep
decadence
tagum
shape
mydeeryo
specify
thankssss
compose
giraffe
charming
saffron
singer
aaliyah
jjay
marcke
transplant
selamat
elegant
shark
shari
zyon
netizen
mybebeloveofficial
walahiius
dstalker
donegal
finery
mexican
loolololol
ciara
pekat
jenny
taprevine
okaye
jaylend
ethika
okayy
brass
hugot
merlin
inspirit
baaaad
gumball
saaaaame
phonetablet
dreamy
singin
vodka
meltoooon
igbo
mabbuffaje
examn
transport
pencil
boytodaydate
shanx
choreographie
redrose
angelene
hiatus
abegale
myselfsorry
shoota
apne
joyful
sequine
vmin
barby
deposit
continent
zolum
guarantee
rumah
miggy
nuttiiiiiiinnnn
appy
waterfall
everyoneporkyslondon
griffen
sheryl
yaaaassss
bodyon
remains
kodie
gooood
cousine
innnn
gabo
hilton
haaiiss
iggy
superb
ovaaa
nevva
tryin
aaawww
lupus
yeeeaaaahhh
waa
pogba
backyard
depressedbor
factor
wah
greek
wak
race
qtpie
greer
gade
bapriborn
fobby
voodoo
eyebag
classmate
sainsbury
enchantedtrade
omaygad
tglc
mooney
ahhaha
wcw
sammm
donte
sammy
lawak
sugga
heechul
shaam
raha
whumanityheart
anggrek
smeagol
wew
wey
electricity
vegan
howre
statistics
gimmer
seesterrr
changkyun
hanin
thankfully
heyyyyy
mindlessjunkius
embarrase
igor
helloooooo
cereal
gait
jholaand
raid
ngyekele
samir
prettyy
yoonsunny
wig
hospitality
cassidy
soccer
gale
upnormal
tweetheart
apachephp
administrative
dweeb
jinkus
luckily
pinkie
gaon
salsa
peoplekewl
selfconfident
admire
willy
thankuu
wmy
toous
biggy
quicker
sunflower
boyyy
salut
nuestro
woe
observe
woh
wot
michel
liman
mcflurry
toooo
thickest
tomorow
marble
tykium
btfl
ferina
gard
elephant
smore
hover
desktop
lizquensg
divide
whiting
syrup
childlike
kiska
poland
divina
divine
anjelica
maturity
wta
rave
somebody
shanghaus
literature
wus
wut
wuv
haaaye
abyss
trinium
plzkeep
shahid
sedapp
geminus
rawr
akaylum
terabyte
political
ferien
mercedesbenz
patroclus
emmaop
than
yaarian
thad
foodie
ihaw
rekindle
flyer
expretion
gaze
feeellll
cosby
aiman
kodak
thanksss
underarm
mingyu
ririiin
milesocampo
stefanus
lmfaoooooooooooo
hving
youuuuuu
yeeeah
vnim
whilst
godstart
indeniallady
brehhhh
fdait
salad
trippen
bigup
flavourly
madeira
throughly
thee
hamidah
pickmeup
mitchell
veggie
divium
viraj
seed
seashell
mybebelove
seee
wilhelm
seek
fixate
minguk
iguana
bircen
sould
samuel
rarey
medaya
starter
dominatrix
thankseu
proff
jkjk
separate
tbvhstar
btwn
catewalk
taeta
noticefollow
sega
transgender
thankkk
xan
usual
xam
groupie
untold
ncono
makatapat
thin
brake
aktar
organise
babygirlheino
exboyfriend
muchly
hopenriquegil
christmaselfit
heyyy
screw
macalindong
twitterworld
pedigree
godiykosav
xdd
accessory
kilometre
myungsoo
ender
beyond
yuhhhhhh
positivity
nalang
conclude
insight
tooke
claire
hiiius
belive
promi
thor
yugyeom
sally
workaholic
alwaz
nyore
silang
mingle
afterschool
thoe
chemia
yostin
costa
depok
heol
midwife
arround
headass
muito
toohm
security
connaissent
naise
maribel
sinclar
confidently
buat
zomwezus
domme
magical
warmness
cmaaaaaan
brady
anthem
arau
buen
basta
marame
xxjadexx
twink
stalium
youus
audience
excitedd
bummy
berbaik
chapter
dessy
helena
bouttaa
humidityproof
xox
union
suite
wurst
buff
cibele
shammy
footless
gbogidaev
dominate
yeshua
annavicente
jakarta
torus
multitalent
sewa
eleanor
awesomeness
henebeyen
bohatttttttttt
aldean
minecraft
seyy
youne
muka
electro
brday
singaporean
buko
sobrang
manway
bassy
heyy
complaint
jadah
sext
smellelove
wrist
mmbangwa
rebible
cameo
bigghomieeee
classroom
tyatta
timewith
intelligence
bulu
strongly
bull
faveee
brandondiallokendall
mumu
muna
conjunctivitis
xxl
choreo
againeverytime
coasttocoast
tide
yondius
namin
equally
supernatural
hoyee
basis
ulet
janellum
cranmango
winnin
jehovah
combat
lusso
melihaa
unity
murk
youve
pursue
choreography
zooom
nothig
murn
woahhhhhh
satoshus
twitr
kehlanus
plzcome
bura
slowest
janelle
aaaaaaand
besday
bury
mourinho
koko
burp
beetlejuice
hamarus
cxxx
dustin
kona
lurrv
mute
zquad
buta
kong
input
perrie
ulit
booooaaah
christmassss
mckenna
muss
ayaashus
fanmily
grandstand
uliz
arth
comate
bestvine
marus
yaa
peler
overreact
thinkk
yal
yan
snupe
yap
refresh
dubaus
kool
jacky
yearold
charr
haitus
nicer
halfchuckle
arwa
nicee
georgina
champ
wheeeeeey
blocklist
nameeeeee
leche
grabcar
acappellum
yehhhhhh
cheerful
starlight
jolus
chant
ohmygadddh
ting
yeh
tina
yen
yey
cuddly
ooooh
jdnsksja
youll
siopao
floral
swoon
slope
loreal
engin
yhu
nicky
tourism
nalum
layer
youit
letterbox
torre
afrailoveyou
siomaus
efficient
freakin
yix
vernon
sword
ulta
earnings
gimme
tito
tita
elounor
resist
jehnny
twice
costco
tish
dzaady
swoll
lifesaver
swole
immer
bedhead
tive
audrey
attachment
lifemy
yna
motherf
barry
yoh
musthave
nyil
normalchicshop
markbam
saveable
crpyus
corpse
loooong
popper
mascot
softie
hoursminute
dumber
tought
zimbalus
crangrape
sandara
incall
dhandhansatguruterahiaasra
granpa
barun
amazzinggg
guysssss
ignoree
richard
ohhhhgod
twitterworldsweet
hugfrom
gilaa
beginning
yuh
yun
yur
marie
looooooool
santo
seeker
soften
kper
asic
pokemon
asia
spectacular
sirajnoah
kyungsoo
kikijt
maggilicious
victoria
aske
zendaya
freshlezinto
undercut
marin
tessimistin
afford
explorer
mastizaade
afterstate
tiiinn
shield
bedmatic
gluck
merida
deliver
caleb
obsession
jaydium
definily
therell
ariel
ridesss
cheaper
sinyile
ebonyshantel
scuaa
jolly
drawnout
dentist
kejriwal
softly
derek
transform
lentur
juljeabaeby
advise
genuine
nextt
gday
anniversaire
sexology
ancelottus
reggae
notre
woohoowe
blockbuster
melelupe
editz
ummm
babyany
nappin
zac
ludacri
underdog
zak
morrone
nigggga
zay
concur
funyun
joyeux
respectable
ahmad
itsmile
zcc
indecentlatina
honour
shazy
iloveyou
evolve
personalitysh
congratulation
marvelous
asus
awesomeberry
ratio
jobbut
norbit
tiffany
zee
chocapic
keeper
yeeeaahhhh
shaun
worldie
broccoli
belove
smarten
urwell
smarter
fahh
wolverton
glitglam
shave
sando
christmaswhat
indeed
icnbkk
staywithchan
stopact
umus
dming
zil
efore
momken
cityyy
kennelsa
selfieroompl
underneath
vincere
snowball
keepin
steel
calus
competion
kangwoo
sleepover
mwah
homework
mwap
excel
gutter
instafoodmnl
arius
highschool
calob
hiiiide
holida
lambert
doooo
nowfave
theater
fank
croatia
busena
replacement
baymax
hyuna
aayat
powder
hyung
zoe
zon
steam
gerardus
hairthank
truwop
hgtv
cyrus
untung
medusabut
growth
agirl
mfbty
laterwill
grief
partyyy
bebelove
fate
backkk
spiderman
milan
vegetarian
lovelee
alllllllll
zarina
megafancydress
yieee
yanno
wanksta
merryxma
eventhough
meribel
denden
blonde
deactivate
blush
zus
shelb
educational
rhankyou
rewarus
faux
qasmakavelus
mastizaadefilm
wallace
pertama
peaceful
lempang
somtime
solano
jaylinty
gurgoan
niggah
yanjj
clone
niggaz
pledge
ikea
jerry
sickkk
happily
miley
adoringsvt
oluhle
blessing
bristol
mngunus
maury
busyily
kelly
jithanku
courage
maselum
grabeee
polar
curriculum
plushy
exquisitenatty
chabelum
commonplease
pinwheel
sardine
hihus
saran
dickcember
gudmrng
touce
followbbbaaacccckkkk
clock
cartonner
monthly
collect
crwhiteshadowjm
ditunggu
meghan
jbeautieslaoag
wallpaper
irresistible
thecooky
colleen
shep
objectif
shey
octopus
skyyyyyy
aisha
shin
takde
annual
mistah
pregnancy
aspen
reek
demand
shko
acquire
awwwwwwwwwwwwwwwww
penis
taker
boyzzz
detection
instagramv
hayden
birthdayy
bahaahahhaahaha
setter
levina
either
herring
tkpe
obrosey
braaus
rapunzel
marquis
olivium
bconnect
gecko
senate
hiraikotsu
reid
parker
moisturize
whiskey
unus
spastic
trueeeeee
gelo
buzzin
ctfuu
angolum
prmarth
lovelyz
lavaca
unta
muntu
truthonly
takbo
rahsium
penny
karlie
frost
takky
canvas
understatement
tiffanyalvord
showmetwerk
gene
violet
bhaktafter
remy
hilariousand
kingsman
grill
fosholo
lollipop
trisha
hassle
unya
daisy
sundae
architecture
onward
lumrah
pablo
comcert
peshawar
luca
rajpura
housewife
finessin
marshall
addiction
daebak
disciplinary
seungyoon
sponsor
captain
vrai
billion
trisma
sheen
goofyfuncrazy
sheep
quntar
hollie
ress
wenhan
grier
afternoon
puppet
midget
obesssion
joan
sensational
wedge
canon
camren
woady
songzzzzzzzz
shxt
comelec
preston
reva
awayall
kimmeh
tequila
kimmel
plant
canny
plank
gorgeousss
sailor
earring
joce
tweetyour
incorrect
beamer
boysssss
chiennaticsofc
luvvvvv
happpppy
nance
detention
defamation
meremang
plash
nanay
loveeeeeee
wussy
stormtrooper
bikin
trainee
luna
weddy
nando
lump
ishalyssa
tenderness
unacceptable
frndz
wreath
breed
makasihh
expert
nangi
katabus
longlive
sice
compulsive
yamus
blackk
costume
director
sangster
hiba
itsenriquegil
sial
gooooooood
beatsipad
seehear
aura
kadang
clavier
brielle
affordable
bread
tlga
restaurant
vogue
jooheon
respectful
mikey
jojo
wasssuupp
sige
lament
trainor
jona
irenic
hotbox
yayyayyay
youuuu
andyka
lush
joll
lurn
omakase
morocco
scorer
birthdat
pacitan
momofjoakim
karaoke
joon
bundu
console
alisha
control
armcandy
acknowledge
lobby
gettaa
fitch
elbow
mummy
beatiful
intercourse
behalf
jork
emesh
myyyy
sklounst
daesung
goosebump
luvr
xxxx
laughtrip
condotel
chirpygenocide
poreber
simp
himm
bookstore
joss
freexxxchatvisit
canttt
silent
supermsg
jose
lumpur
josh
confirm
krus
appoint
hallelujah
fourth
ignite
atrak
jonghyun
gareth
fallout
changeand
jaybulfa
ganesha
viver
shawarma
happynewyear
sink
taiwan
sine
vivek
chonce
sina
sinb
jjongie
hire
toooooooo
soyou
nighty
blues
fckn
bouncer
yolanda
virtue
muchthank
coffeebanana
happythirdmonthsary
vryl
bretmanrock
gentleman
react
effortlessly
kstar
friendsbest
banker
joya
handedly
ilyt
ilya
prilly
hius
ravus
sith
barista
sausage
armchair
surprisingly
darshan
jannatul
flabbergast
christmaaaaa
vershara
bigggg
tandem
glitter
cansa
arsenal
mylove
kingsley
yummmmyyyyy
kmart
rewatch
psssttttt
theseus
britanus
biggie
vivoo
hiya
stanley
prepare
mince
schindlerleave
discourage
oversea
inqent
tongueinadisc
satan
gottus
wahshtinus
eonnie
cooperative
imleavingitin
kaayu
rejoice
cornesh
infinite
suffice
cuzzie
ahahah
lebronjame
imax
handwritten
shuhada
ankara
marizsorium
infinity
surgery
reimburse
violent
girllll
greygirl
jrrfilomeno
ponce
primark
hendrix
society
nowhere
kindest
matchy
minho
agnst
splash
wishin
kenny
thatd
kenna
plweassssse
wonwoo
badder
lohanthony
daylight
bbbyyy
machlus
humanitywhat
gangsta
carousel
bikini
litus
thaus
whatchu
yeahsure
behindtheback
witch
tomorroww
traveler
swaierah
isang
crawl
warunk
puberty
tower
minosee
minnn
heffrondrive
kokol
bingo
bitchy
arizona
khairina
normanton
idccccc
bittersweet
ateneo
elation
marshmallow
flawless
wouldaaa
circulate
pact
ilacad
girac
each
burgh
stevus
thirty
armpit
polite
perfectly
cempaka
godmother
hardrey
builder
asfffffffffff
breakyou
stuffer
greaaaaat
thirst
octavio
withdrawal
morrrre
tyson
michaelum
raraju
outtie
happybirthdaytakuya
baddie
jjang
appeasement
tension
picsno
mpaka
kuraseba
awal
awak
inshallah
tweetthankyou
purchase
equal
silicon
gravity
mawar
krtay
twittea
imyt
omggggggggggg
elena
cordav
badassery
sweden
swimsuit
queenofpopney
hardware
poppinenjoy
oricon
falcon
likeyou
unconcern
pang
beforereally
centre
razzle
fellow
awee
hunny
ggta
diabetes
giraldo
dodger
wonderfull
galore
combination
boobear
banana
pycbunny
hatta
ease
parx
heartwarm
paddle
para
pari
thabk
tider
economics
tothom
housefull
doodlebob
smiley
honeymoon
fantabula
gsmarena
spectre
indy
nataliethank
whove
luvmy
moschino
eave
inch
fisica
sclose
liiive
goodie
tzuyu
dumbasshow
pawz
wonderfuel
senpaus
xxxxx
effectus
chillen
pawi
squeeze
whore
plantation
safuwan
knockout
kuwait
jessa
chillllinn
talum
jesse
ghad
tnfl
chisme
assalamoalaikum
soreeeee
supplier
nakakastress
daaaaay
majeed
reactivate
appreciation
footballromy
youuuuu
awsm
gayle
rukhsar
skip
recur
phyno
taman
melanie
kemon
insaf
girlllllll
louiss
sweety
heartalway
louisa
sweett
grizz
rahein
vayrynen
boczsxz
omgggggggg
moisturight
yaous
ahahhahahah
inmy
romain
ikium
vagine
awwh
chuckle
messagin
handsome
ooohhh
skmh
hiius
fives
lorelaus
vampire
caaantttt
fatstripper
sillyfunny
lodge
footydezign
beaut
uncontrolably
candlelit
hakuna
papreekah
grindin
kiyaa
milne
sincere
glance
terbaik
stiff
diary
mandana
misssssss
subhan
dcyoungfly
talal
aegyo
varrrun
eonnus
haahaha
inus
skrg
gospel
drowsy
newstwitter
rutter
patrol
laaaaang
skta
ultimatelqfanb
incredibly
ecstacy
oblique
arctic
quiero
skort
resemblance
humom
hyominnn
looooove
divinaursulum
sweeet
fest
naturally
skye
chiefilomeno
rhus
gusto
swallow
monroe
stink
fess
lefty
alexander
sleeve
schmitt
kuch
sharma
fback
pleaaase
butcher
thisit
olive
paranoia
kuey
feus
captivate
craig
ellingson
chillshe
looooooooooooool
command
doodlebop
metiste
savea
aswell
barcelona
bojack
mayor
science
lambus
neveeeer
utility
optimistic
observatory
swagadelic
yesmanus
jereme
canine
faaaa
todo
slam
shizz
panasonic
twowe
silva
republic
cutedash
perfectstyle
squuad
cummy
sleg
bitawan
togo
fitness
umagang
vuma
oovoo
cutely
blazer
gather
hairstyle
sharron
gian
damon
chimney
baggage
hangout
johnna
rico
krishell
ahhhhhhh
illuminate
rica
dakota
rick
slfl
ioil
riska
ilovemakonnen
jrpg
evelyn
hedgehog
munchkin
adultswim
login
ugghhhh
musta
mhmmm
busta
anchor
whitey
toox
belate
barker
versace
parody
tooo
tool
unbeatable
boundary
kuya
hurtly
viaggio
pregerz
kimberlin
cuteee
define
sloe
egypt
constance
seaweed
gild
mandaue
simbu
rink
collage
thiiiiiii
shifu
migrant
refeed
adhan
tote
adhau
shoutsout
spearman
mechb
bdayy
pettiness
dhatt
hooligan
babysso
iowa
ayaw
yearmix
friendmentorfellow
slss
weibo
loveyou
ripe
fghting
rion
gnomeo
bbpilipina
weteep
mybieberfire
leium
philip
rirus
arzaylea
belleville
segment
tayloralison
aguero
hairrr
attractive
crockpot
shidd
elisha
lodharan
bajiraomastanus
hamburggermany
macdaddy
rashdan
royale
shiet
breaky
ronald
ayee
josev
kemana
goodvibe
slurp
bakersfield
farwaniyah
wgood
flair
screamau
explicit
offcam
minimise
giva
lyfe
lyin
bastard
femtoxic
corazn
afnan
arvind
suchhh
livin
shirk
markelus
silum
lovvveee
charlie
pemily
schizophrenia
halloween
orlando
sumedh
godhi
visible
eagle
pancit
kraynack
globally
necessarily
acabou
matluthfus
wyln
harlem
harley
shiny
vacay
horseman
reese
promoter
sooper
thirdy
lyna
shufflin
steven
goofin
perdu
endlessly
labourer
bayan
eyecatchingastound
xboxlive
padukone
yooouu
innovation
themthey
kristine
amazeball
enchant
becky
decipher
girly
saintlena
sekalian
japanese
shaaaar
khaled
aaraha
terfavourite
perie
smfh
acolyte
buuuuut
feliz
harryus
whybut
burst
brill
belladona
origin
kolka
perez
venus
mosaic
updatethe
spanish
dalle
amelium
pewdie
nagpapatuyo
perli
completo
carol
lizzie
aborrecus
beomsil
maxus
conservation
mecca
loveeeeee
shirtless
friendslove
ewwwwwwwwwwwwwwwwwwwwwwwwwwwwwwwwww
slump
finland
waitplease
avatar
miniholiday
bribe
timesss
dippin
blurry
plantain
brian
narry
hawaius
expand
hateful
edey
bride
carly
montep
uyazike
ollie
brightly
ailyslabanka
keyboard
leina
recover
determine
phoenix
kokorin
zach
zack
carlo
duncan
reece
calculus
pleen
edmonton
litzy
minus
okayyy
fresher
muthafucka
pattya
stormy
sentosa
unnie
shhhh
discretely
frizzy
goodafternoon
triller
christmasx
excellency
sooooo
mamshieeee
wisheshopefully
misadventure
kenzo
santaus
pauwus
kathbernardoow
christmasa
blueberry
gotheeeeem
deceive
retweetslike
freshie
destination
ummhmm
pittsburgh
brighter
graajkumaar
closish
ziall
dame
feelippine
anthony
kwey
daph
method
batasomethe
innovative
johnny
newsat
jorel
dara
makeso
mural
jellyfish
torenzo
waldorf
darn
witty
wehhh
montse
sighting
potterhead
edible
yipeeeee
ssssssssssssso
meansus
vibrate
shibuya
yooouuuuu
development
spiritually
guyssss
zafrel
spontaneity
reusable
relationshipseasy
ground
serenade
britt
moonlight
kaitlinkingstone
robin
busylet
bernardoford
confidence
thankyouuuu
happystay
kahanus
accra
faceaass
becoz
sleigh
ecatherinehi
kidnap
whimsy
youngyou
jihope
pompom
daww
exposure
historically
zaus
chirp
jewelsbarretto
somethin
benteke
follo
marnellum
nazihhah
whiteside
dayx
dayy
kwon
dubsmash
liberal
kzone
luckiest
andrea
eyooo
inquisitive
andrew
smilehappiness
external
circumstance
fanfan
creature
kersh
chino
yunno
dessydwp
pear
treasure
skythose
eyesmile
dbag
outstand
vianaa
africa
proceed
ekiikus
cheapskate
soldthank
brobiee
arrvd
thinksay
bhora
doughnut
chanyeol
accolade
tonightphoto
fasholly
kickin
eeek
girlcass
pastry
bougie
activesorry
nugget
loooooooooool
bambam
retwitt
membera
eehh
mineral
smtown
mahogany
shoneeeeee
olord
retwist
snot
cause
despise
chuuuuuuuuuuuuut
snsd
shinichus
kyuhyun
disssss
breadcrumb
jessica
relegation
wohoooo
facett
mediacorp
liberty
anezruth
meeting
ambirthday
ikonic
nunus
aemie
kashus
gymmmmm
chitchatt
coaster
theee
stobart
overalls
hairdresser
kocham
butane
peng
trillion
cupid
velasquez
hailee
smartarse
eliza
juan
chinstrap
refkus
neutron
pepe
honestlyus
thighsss
hayee
pinocchio
perr
capsule
selekeh
pero
anaheim
newton
perc
callfacetime
perf
hopedont
rotation
sjzbsbsgz
cosplayer
lovemelight
typical
hailie
tray
dominion
assassination
program
chiya
feveer
pete
kathnielmeoww
tarzan
tram
tran
iraq
insightful
endingseorita
samamvera
infection
lightless
letterkenny
deidara
shugummy
juga
ninang
jugg
booooom
rocher
hopekookah
peus
miranda
ayyyyyyyye
deargreat
rookie
artium
jalen
kierah
yunho
wishlist
replace
youwhere
thankyouuu
worldwide
arrianne
chiso
eclipse
soak
riddance
howard
iiiit
bayern
iiiii
lelee
mashallah
facin
furikake
thdecinside
phoneus
muscline
sorrynotsorry
hoga
irit
victorium
july
venture
baecation
trid
aaaaahhhhhhhhhh
grlsgeneration
jakie
jule
flexible
bruuuh
danus
creme
webstore
teenskiky
pupular
interestingly
fizzy
wedding
spare
cletus
cuntz
dante
closehope
sandra
jung
santuario
konka
glen
compete
duhhh
niken
beautifulyou
fido
danny
erryday
abbie
azizah
rachael
daysso
soml
diego
yasss
troy
yeshagany
rediscover
sole
girrrrrrl
spank
trop
spanishish
yummm
jakol
sensuality
iron
meeee
ayeee
rehab
senjaille
ennih
royalty
hooo
sporify
heartless
python
lovingcare
beefy
kihyun
gloria
konse
blowingheart
buchanan
creek
sinha
austin
youback
natty
crossfit
soph
hahahaa
writin
goooooood
hahahah
pisces
satanic
ellwyn
pahhh
bowler
ilysmlifesaver
hota
follback
practically
soso
faammmm
odelnick
host
sosa
jaewon
irve
breeze
mindblow
laughter
yippee
dangerous
godum
goodeven
summat
cachapa
confetti
videoke
fink
futomakus
hystericsssss
copain
logon
rugrat
ariiik
happyholiday
contribution
jammin
jammie
youstay
handmade
pentagon
takeus
janurary
howd
jorion
howl
decorative
thday
psychotic
taketh
pesto
poppy
izzie
jewel
fist
beyonddddd
peacefull
mcdoanld
wonderfully
songwriter
guyzzz
glus
abandon
suprb
reputation
genesis
restrain
telleth
hahahha
fium
saraaaappp
campaign
conflict
hugsss
boulevard
every
kygo
littttt
ouston
kadus
oooooookay
wisest
consist
monogram
grammar
ohana
kuksthe
andrra
enjoyment
enjoyable
wantttt
dreadlock
tgweem
californium
spain
osaka
wbadc
kyle
violate
clarissa
venise
inhabit
coloredwith
anonymous
spao
sagittarius
stephanie
terenus
backkkk
tight
isha
arrange
fanfic
depart
commitment
mrnobody
loooooove
frenchang
publix
shokichus
stepbystep
minhyuk
tracy
walahie
trace
simrn
norwich
kanzus
crepe
isis
trader
ambassador
spew
fuuuuuck
vyrl
slanger
robregi
learnlaugh
alaska
iqbal
sulfur
maafin
yaaaaass
tightrope
achus
everyonewish
kyra
yaaasss
aaa
essence
aaj
heeey
abu
robber
pothu
saddle
mackenzie
tatay
yuhuuu
potna
grammer
yearbook
moustache
sheldon
tamika
nottttt
adj
adn
giroud
sssssssssssweetheart
aldubim
girrrlss
behow
janth
ariadna
vivica
aff
embrace
tagabitbit
usall
aquarius
awardwinn
yaar
navidad
lense
orourke
yaaa
defect
aha
aldenrichard
snappy
melody
trilogy
fckin
wendy
spear
omayghad
icarly
seungrus
ajl
delvaux
cack
cade
backthat
yaay
movement
fishie
meatball
rating
ridley
toffolus
brutha
venice
metronome
favourit
ameem
ameen
grandmikey
aly
contemporary
ame
amd
anywaay
nahh
amo
amp
brendon
ninus
youngin
ann
holdin
ant
anw
comentario
uhaus
lmaooooooooo
aoa
yessss
brokethen
adlib
foody
waaanrnt
bigbang
fllbck
sweater
tummy
littlest
egoy
apt
hezbollah
yaaaaaay
atomic
sekaus
tasty
nantsus
yaku
ari
aro
dillion
nako
meteor
likelike
naku
beige
asb
refill
lolraecito
cant
waygfy
mitch
unmatchable
nana
palace
goddess
camo
auc
icecream
defamationnotice
neighborhood
aus
jande
nape
newborn
hudgen
irene
alvord
jollibee
janet
cart
piano
axl
bancus
broad
greater
carb
walang
cara
astaga
gurupapa
itey
pepperdine
carl
ayu
wetness
differentnot
hijabi
nate
handbrake
kuthenus
cate
yemane
toomuch
waaah
navy
gnda
supportersso
hemsworth
pronunciation
amsterdam
muslimah
sayang
designdiamond
insert
touchwood
dhonus
ohhhyour
itll
yawn
vauseman
nawe
waaay
bad
sanstagram
shitttttt
baf
digna
bal
bak
bam
hamzah
megan
choudry
kilapa
phat
cuuuuuuty
lolwalk
yaya
bbm
bbq
caylum
bbw
greatly
ABC
scheme
affect
bck
gutierrez
battle
angus
diagnose
beb
bea
bee
beh
thaaank
deck
loveyy
ber
advocacy
bey
baaaridr
suspicious
phee
unstable
soompus
bfw
deedeepmelissadsahenettebfl
alain
beautybypaisley
lizascom
juliaweloveya
litterly
scheie
caesar
ehhh
deed
babyyou
await
emmmm
sheeran
mehndus
valerie
bht
aizel
presley
bib
observant
shraddha
bij
husky
cuppa
darkyou
bit
thaaaat
yoruba
winnipeg
detone
defo
spleen
leaderboard
tortellinus
mista
iverson
exclusively
hahahahahahahah
viewer
prophet
weakaf
angle
stange
likewise
winkwink
instruction
abowww
beldevere
bandung
mislead
roger
anger
bmw
tasha
deli
pagibig
contagious
sequin
babyyyyy
nupur
aaaaa
susie
sunnah
lahore
detailsor
likeaint
bou
simran
dene
wowowow
tattttty
lembang
ailysatlastfree
yeslord
johannah
posse
angie
zeke
closest
partynextdoor
imissyou
alchemist
pleasure
armando
bsr
derp
kakamiss
pretttyyyyyy
burapha
offensive
cartoon
sanitary
shannondanee
draya
bub
twittermay
jungshin
bue
bun
stoke
gondrong
advocate
bodyy
happybirthday
deto
tomaaaaaaaaaaaa
coordinate
looollll
ooyee
nautica
tube
desh
secal
divinity
bww
jonesboro
brazil
qning
coldness
usfreebandz
pitajus
zaynmalik
successful
zeta
hisself
giftcard
tulip
cantonese
stone
pahingus
kesha
humility
onlyjustjulium
kombat
cheerio
croker
smallus
mooseblogtime
roar
bianca
vidsss
aniston
flag
seasonal
aurora
taylum
wheeew
flan
loveyouu
friendsma
eveninggorgeous
hossuinn
loishua
robe
fandompromise
jogger
misic
obsess
ardenne
camilum
besssssst
escalate
roel
mishu
gallll
cologne
ayoooo
notebook
instagood
posen
bouquet
rhamberry
jamie
tulog
hangingwyou
herself
handshake
caf
lovess
heeeeard
tune
cal
tiina
limitless
cay
welln
raggedy
motion
joggin
fattooo
tulo
response
pretend
energy
protective
skype
e
huhuhuhu
beckham
creepy
gosh
imysm
hilang
pint
pimp
cop
harness
piss
yoonmin
cus
starve
kitchen
ingredient
assume
marvel
wallet
dan
daw
cuter
dgaf
cutee
gingerbread
ded
def
del
den
dem
dey
shock
compare
desert
strap
balance
maco
dod
curse
macy
doh
ellie
dom
shone
strip
streak
bald
anime
bana
fanboy
childhood
mane
bath
twin
europe
jackson
lmfao
stephen
egg
awful
loool
near
ridiculous
cocky
stud
yeen
stub
yaaaaa
looong
kantus
chooo
cena
harden
sheffield
gomez
remain
insane
gram
describe
bruhhh
huhu
window
greg
couldnt
tragic
hunt
fangirl
effect
politics
crucial
ratchet
sehun
roomie
honest
favorit
ad
diff
an
as
au
az
bi
bk
bm
by
maaaan
fml
dr
du
eh
ek
el
en
ew
fa
foh
foo
dine
gl
jaitley
gr
tease
hm
hr
fetty
if
kc
kk
ftw
lo
dirt
datum
ny
ow
ph
choke
qt
rv
sb
belle
sm
tb
tm
tu
tw
ty
military
va
preview
we
fandom
xd
yb
yr
force
geh
typo
alexa
gig
emma
bruhh
gpa
lack
halfway
ultra
coolest
swag
land
circle
haa
secure
han
weight
impossible
engineer
hed
before
hip
grandfather
bean
psycho
hospital
bebe
meek
hoo
chin
mein
blame
fudge
president
hun
envy
chop
anatomy
strike
trigger
lmaooooo
runner
christian
galaxy
afraid
jumper
oldy
ihy
poll
pong
srsly
poop
poor
pool
pony
shortly
irk
michigan
insecure
its
ache
guyz
kardashian
fucker
fucken
powerful
dilwale
productive
pasal
jaz
turkey
everywhere
omar
whatsapp
trueee
tribal
hype
fancy
purely
hoverboard
mexico
baddest
mature
jog
yassss
momma
truely
eyeshadow
anxiety
gfriend
false
outrage
kat
scene
intake
once
leak
hemming
queue
leed
latina
fifty
lego
postman
bloodline
tutorial
lepa
butthurt
shorthair
fuel
employee
lah
lap
thirsty
piercing
generous
lex
muslim
situation
clap
blender
fume
liz
develop
lexus
doin
fund
computer
zone
bihh
pause
lrt
mike
jealousy
apartment
lvg
dorm
relative
mint
grateful
fussin
habit
title
rewind
fvck
ughhh
mag
laundry
mam
mar
mcd
mcm
ideal
pressure
exactly
patch
playback
itune
flood
mii
nicole
emotionally
mmm
bitter
immature
britney
oppa
ashley
mvp
jack
mwa
meredith
colby
jake
sweat
vanessa
nak
darkness
nay
fully
mattress
effin
jazz
genuinely
grandad
ahah
inspirational
metro
whet
nvm
skate
alone
pergus
nye
claus
actor
clash
very
odd
minghao
ofc
kathy
jinhwan
saucin
omm
mcdonald
liam
cryingggggg
punk
rosie
oss
cont
popeye
disneyland
sexual
yonc
reveal
fuuuuck
everybody
cost
wild
apparent
wing
blur
pan
lium
service
pen
pet
marium
pit
saddest
escape
realise
smith
surroundings
pup
lately
bottle
jinyoung
funniest
protest
socially
health
grinch
pleasant
complicate
global
affffff
asdfghjkl
pride
thumb
lightskin
iconic
calorie
network
expensive
comic
kangaroo
rat
raw
saint
swing
helper
duck
ren
rey
threesome
sorry
crab
ouch
caption
tacky
decline
craving
rumour
alam
vibe
english
where
retard
mouse
eunhyuk
larry
alll
truck
hoshus
rye
anxious
princess
scooter
crus
noooo
weirdo
most
assignment
abuse
kium
sef
responsibility
sem
shy
jersey
football
thanks
ski
thanku
reduce
smoother
creator
shades
highly
nature
hubby
str
embarass
passion
ranch
fambromy
ughh
bmore
emotion
salmon
smooth
racist
upload
idol
quickest
ted
grumpy
same
tgt
tht
tit
sand
frustrate
harm
hart
conceit
propose
tok
toy
spirit
andy
laura
jelly
frankie
tub
attach
speech
purple
easiest
penang
stare
borderline
golden
destroy
randomly
timezone
angelic
cuba
pancake
uhm
brah
advent
possible
highway
occasion
expectation
wasnt
ung
niggahomie
uno
pitch
nonton
combine
benefit
kendrick
dwayne
indian
marcus
grave
manyoo
laptop
vic
niall
sprint
liner
vry
milkshake
chanbaek
another
florida
donut
omggg
central
samba
wag
wan
wap
greet
wax
wee
kremlin
rage
topic
whn
oyster
headache
btch
rape
breathe
woo
never
speechless
jennifer
subscription
conscious
while
skirt
wyd
rescue
they
darkskin
theo
seat
email
apart
dickhead
closet
closer
curfew
beyonc
omfgg
braid
trippin
ashame
nightmare
hero
buck
tyler
lmfaooo
german
youuu
arab
pervert
timeline
wrap
clearer
pocket
channel
entire
approach
buss
accident
chart
hyukja
yee
yep
buzz
keith
tiny
stubborn
garden
active
sweetie
eyeliner
march
waffle
michael
repostapp
sensitive
cough
sooner
header
belong
bromance
lmaoooo
presentation
grande
snuggle
diesel
weave
fart
beanie
shelf
behave
khush
dumbass
shem
headband
pregnant
shet
semester
whitney
shhh
geez
devil
hollum
shon
friendzon
nervous
lucy
billboard
customer
bunny
plastic
client
missin
corner
majority
twitty
joke
comfort
hide
nowus
decent
niece
stripper
hill
donkey
impress
should
siya
thang
whatcha
roast
cheap
cheat
intimidate
teacher
necklace
pillow
maintenance
contour
prayer
filipino
chest
doubt
pimple
palm
pale
pitbull
sassy
earn
paul
redefine
blanket
reynold
chillin
upset
goodbye
background
nonsense
breath
myself
diana
crane
sucker
recently
colourpop
cutest
discover
desperate
urgh
urge
overload
headphone
badass
stretch
negativity
potato
logic
babygirl
whisper
rina
scorpio
slut
rite
handful
user
league
faithfulness
felix
knife
edge
foreal
youtuber
garage
pandora
dang
damm
slander
capacity
emily
davi
brium
these
graduation
kylie
flipagram
wisdom
sperry
texter
birth
volleyball
verge
stock
design
password
givin
pointless
guilty
peru
lmfaooooo
appointment
gross
general
juju
hurry
hangover
samantha
peter
batchmate
fifa
rubber
preciate
some
juss
material
sone
cream
yoongus
longest
glod
payday
amber
filo
trash
horn
sore
decoration
anyone
kylo
substitute
iknow
gmfu
younger
throat
yeahh
spin
register
fleek
ada
exchange
label
username
spoiler
ahh
aku
ang
thought
anywhere
asl
engagement
atl
yourself
atm
camp
android
awe
awh
yang
yard
item
finesse
yass
transfer
sandwich
simply
amanda
angry
bby
drain
river
jakell
bff
sayin
eyebrow
bih
model
someday
noodle
bln
bom
boo
mental
animate
brb
bre
horrible
morning
hustle
btw
buh
brutal
flaw
apology
bethany
selena
cam
can
cap
filthy
alarm
cancel
pick
goin
roll
turn
result
selfish
flip
a
b
c
d
f
i
k
l
m
p
r
s
u
v
w
good
faithful
empty
root
multiple
room
dummy
flow
order
remix
pink
woman
question
picture
cos
coz
christmas
chicken
cry
beautiful
cup
cut
cuz
dread
think
thing
shoot
actual
glass
memory
short
creative
cutie
barely
inlove
dab
dad
dat
jordan
goodnight
day
dec
attitude
business
quarter
die
dig
dip
journey
finally
back
houston
relax
babe
baby
thick
dnt
dog
emoji
dry
ball
make
due
duh
bake
instagram
bank
mama
mall
sober
remember
relationship
star
stay
dye
inspire
stan
progress
treat
knock
stfu
speed
apple
admit
interest
mask
mary
step
mark
base
trend
ashton
followback
secret
ear
eat
facebook
juice
opinion
trynna
spend
year
yeah
version
stop
flirt
immediately
neck
stunt
need
loose
http
end
screen
trick
eve
harder
exo
eye
gray
black
suck
grab
christmassy
news
grey
play
fan
fam
far
fat
fav
plan
comfortable
suit
study
fever
fck
stuff
dick
section
personally
fit
fix
ab
grow
sure
af
ah
aj
al
fold
at
aw
folk
hurt
ba
bb
bc
be
bf
bt
fool
foot
charge
food
cr
fly
da
dc
de
di
dj
scare
dm
language
do
dp
scary
damnit
em
ep
ex
piece
ff
for
fr
ft
content
gf
go
gt
form
ha
he
ho
else
easily
id
ig
ik
im
in
it
fry
iv
ja
jb
jp
ka
ke
ko
la
le
fun
pants
diss
faster
ma
me
mf
mg
mi
mo
mr
my
license
na
nb
dream
nd
plug
fwm
kendall
no
student
og
oh
ok
on
oo
pa
pg
easier
pl
pm
pt
rocket
extremely
recent
rd
adopt
rn
rt
sa
sc
se
si
adore
so
st
decision
ta
monster
tf
th
tl
to
tv
commercial
uh
up
ur
us
snack
wo
gay
previous
teach
xo
ya
type
yo
yu
phase
wouldve
get
bryson
dress
curious
earthquake
purpose
regret
bday
station
follow
virgin
glo
god
gon
murder
toast
prolly
lady
understand
disrespect
heaven
lago
million
gun
wait
queen
gut
guy
gonna
tonight
wake
earlier
carter
gym
lake
accidentally
extra
lane
walk
lame
nipple
want
goofy
hashtag
feelin
anymore
late
school
ham
wash
warn
warm
swim
video
wave
yesterday
early
shitty
her
hey
okay
lesson
starbuck
asshole
lazy
alien
smash
chat
small
him
hit
beat
bear
deserve
meal
mean
meat
hmm
beef
hmu
appreciate
beer
hoe
hot
how
nowaday
chip
meet
answer
reply
htt
huh
hug
meme
hus
khale
melt
bell
blake
chri
radio
present
mess
lmaooo
annoy
ian
free
invite
ice
ruin
lookin
spill
idc
idk
rule
bestie
breakfast
church
nice
culture
perfect
nephew
ill
emtee
ima
death
imy
paper
ion
airport
charger
mfer
nike
fuckin
workout
jenner
post
respect
jeans
ive
nickus
number
nothing
city
today
minute
jam
letter
worth
jet
worry
worse
bleed
longer
jimin
worst
description
street
tissue
omfg
style
freedom
stress
totally
job
daughter
mommy
unlimit
joy
stupid
offer
drive
jus
contact
party
lucky
depress
crowd
drink
hello
goood
alive
freaky
world
split
level
kam
savage
cross
whataburger
episode
key
kfc
kid
kim
snapchat
hahaha
seventeen
wear
weak
lean
leaf
lead
week
weed
quiet
throw
spoil
ticket
expose
well
hilarious
fuck
bhus
matter
noise
lover
pray
lag
biggest
function
west
lay
floor
doctor
sport
leg
homie
let
press
havent
lyric
surely
lie
smell
lil
lip
bias
full
season
lonely
lol
tumblr
oomf
lot
low
door
quick
experience
merry
dont
bike
someone
allah
shoutout
record
chicago
mile
milk
bill
adult
mine
mind
outta
london
down
month
miss
bite
henry
universe
cookie
sense
mac
mention
mad
man
bless
mercy
animal
believe
min
mix
booty
dirty
though
open
proper
money
moe
sunshine
mom
tongue
punch
msg
unwrap
excite
mum
guess
sleep
deadass
sweet
female
jail
responsible
swear
swaggy
nah
nan
nap
wanna
driver
pajamas
jame
remind
honestly
honor
net
imagine
blind
color
blink
not
now
what
nooooo
payton
when
crush
grandma
hoody
direct
confuse
nun
nut
nus
whip
notification
whale
keep
almighty
cardus
nyc
vega
puppy
peace
brother
humanity
vent
random
personality
class
practice
drag
issue
sadly
draw
off
daniel
code
fight
pretty
coco
gotta
old
omg
one
pull
ooh
ooo
oop
drop
cold
pure
life
honey
wide
facetime
problem
wife
scroll
smokin
come
otp
iphone
push
lift
nope
out
copy
cook
cool
magic
drug
blow
massage
like
note
aint
line
link
nose
challenge
sister
clutch
wind
flight
ahead
achieve
blue
wish
wise
pay
list
remove
live
with
invisible
pee
period
slowly
ever
obama
kinda
monday
pic
pig
everyone
tempt
friday
follower
plz
convo
reality
prize
pop
thinkin
funny
receive
ppl
realize
freak
funky
put
junior
light
apparently
travel
listen
major
pussy
taco
absolutely
request
wifus
clean
account
happen
loyal
soooo
talk
take
cinnamon
potter
tape
member
positive
smile
turtle
hellum
task
delete
fuckboy
outfit
collection
squad
father
again
finger
lmfaooooooo
jealous
performance
round
score
quote
rap
dollar
photo
red
finish
swift
mutual
trust
message
emojus
crap
truth
dude
movie
rip
system
uncle
crew
vacation
boat
future
body
rob
dumb
row
indium
legend
dunk
alex
grade
grace
vice
kick
rub
strength
run
view
crunch
mood
book
boob
bone
target
mouth
trump
slick
phone
slide
protect
more
anytime
kill
morn
bore
alot
bout
bous
vine
king
kind
sad
move
say
spread
kiss
delay
strong
sea
amuse
see
montana
set
sex
beauty
france
she
vium
sip
sir
sit
fresh
tomorrow
crystal
weekend
smh
lmao
table
change
soo
son
chance
baltimore
friend
unreal
idea
figure
sack
seconds
review
idek
feature
haha
tag
tak
tat
ugly
bouta
tbh
hair
february
really
half
hall
tea
click
hang
hand
tha
blood
straight
the
sale
tho
til
tim
tip
laugh
gorgeous
motivate
patrick
hard
tweet
block
hate
save
toe
ton
top
too
shorty
have
try
direction
respond
state
battery
moment
tear
attack
team
watch
house
start
fries
manners
survive
tell
island
water
entertain
build
ugh
wednesday
hotel
right
stage
later
test
final
nude
woah
ignore
schedule
lunch
doesnt
stalk
text
texa
stand
ure
likes
waste
waitin
stair
curl
cute
long
bother
cuss
wood
surprise
wont
look
thatll
lord
bruh
disgust
van
work
lose
finna
tattoo
word
love
sooooooo
loud
loui
winter
sweetest
vid
visual
empire
learn
spring
leave
special
share
everytime
notif
shame
tryna
white
clothe
green
war
way
african
decide
gunna
double
chocolate
gain
older
wen
goodluck
wet
great
monkey
arrest
rumor
rain
sugar
game
why
win
wit
attention
visit
parent
gang
prove
pickle
sudden
tooth
salty
interview
justin
wow
skill
gate
wtf
wth
freestyle
that
limit
feeling
heat
careful
sean
tiller
head
hear
cousin
heck
brand
them
then
single
teammate
hehe
this
know
deeper
hell
proof
exact
sell
thou
brain
alway
help
self
onion
sound
proud
send
here
smoke
daddy
xma
thug
much
youre
kobe
area
success
young
focus
write
lebron
musical
alright
xxx
basic
unite
busy
bust
burn
marry
walmart
difference
butt
chase
anyway
yah
yay
till
basically
arus
effort
yea
stronger
vote
cuddle
yes
yet
time
happy
tire
chair
lockscreen
condom
asap
point
killer
you
court
promise
poppin
santa
yup
notice
bloody
action
killin
difficult
forget
cover
something
kpop
shower
saturday
fact
fade
face
awkward
please
reggie
fair
fail
fall
fake
first
steak
steal
advice
zoo
close
fast
fave
choose
soooooo
college
handle
tough
local
shed
sarah
read
touch
real
gear
disappoint
blunt
milly
reason
ship
photography
shit
debate
unfollow
shop
attract
show
shot
pizza
arrive
shoe
sibling
grind
bounce
sunday
cherry
harry
settle
shut
luck
important
daily
highlight
clown
compliment
sheet
bieber
rest
original
front
plane
gettin
luke
aunt
dinner
sick
join
john
december
everything
side
break
sigh
sign
high
lurk
bunch
birthday
total
social
tamale
available
guccus
sing
reach
childish
place
bigger
expect
person
ready
player
match
thank
check
romantic
cheek
cheer
crazy
nigerian
retweet
imma
traffic
crave
avus
mountain
night
pack
screenshot
page
away
motivation
painful
pain
center
twitter
means
inappropriate
part
park
crack
pass
past
profile
easy
whoop
exhaust
human
feat
fear
jesus
skin
addict
feel
legit
terrible
feed
nigga
orange
depend
character
stick
quality
middle
everyday
internet
sleepy
incredible
forever
insta
voice
music
shouldve
upgrade
google
hungry
slay
weird
slap
ride
irritate
mistake
rich
family
gift
release
slim
judge
holiday
slip
nasty
intense
media
super
shift
cheese
shoulder
dance
amaze
slow
flash
maybe
silly
ghetto
tour
town
girl
rise
catch
give
didnt
strawberry
wrong
shirt
board
ariana
constantly
shine
bring
carry
trouble
literally
hmmm
camera
edit
activity
cupcake
makeup
country
suppose
support
damn
asleep
exist
ghost
dark
dare
date
sunny
dash
youtube
snap
prison
dawg
zayn
harmony
chill
selfie
conversation
child
there
american
peep
chick
girlfriend
snow
fruit
struggle
awhile
january
pakistan
stomach
group
tree
sleepless
process
sock
glad
trip
lowkey
jump
soft
emotional
june
hold
train
creep
session
midnight
holy
solo
home
explain
subtweet
sooo
hope
soon
song
hood
heavy
summer
together
rlly
return
fine
find
film
heart
true
glow
soul
sour
hour
scream
ignorant
fire
people
jungkook
inside
hunger
update
agree
favorite
event
space
public
track
isnt
spit
couple
act
add
ninja
happiness
age
ago
spot
aid
other
air
speak
all
already
weakness
and
ano
taste
cake
nail
arm
curly
call
calm
asf
ask
ass
mother
yall
name
defend
aww
case
aye
card
care
simple
talent
amount
enough
guinea
awake
bar
deal
dead
dear
bed
beg
bet
complain
deep
lemon
bid
big
thankful
bio
phil
boyfriend
office
relevant
bob
box
boy
switch
facial
throwback
bra
bro
netflix
current
store
bug
bum
story
but
bus
buy
desk
normal
bye
road
weather
goal
rock
flat
argument
drake
bestfriend
taylor
bitch
indirect
aware
drama
car
cat
clinton
wolverine
role
gold
pier
golf
g
h
j
n
t
x
tupac
better
pill
flop
coach
women
honesty
cnt
thousand
coo
con
cow
muscle
squidward
sketch
japan
pita
cum
shout
creation
mistress
thigh
workin
jacket
pizz
stylist
lifestyle
enter
gallery
cameron
bright
gracious
dah
average
baap
brown
capricorn
distract
pound
company
maam
attempt
chloe
kindness
curry
doe
peeptoe
curve
dot
stream
crime
mail
edward
main
arrangement
pabebe
credit
fulfil
duo
commit
bang
band
seein
stardust
korea
mass
common
mash
apply
disagree
relate
exceptional
matt
mate
convince
math
foundation
existence
spell
platform
baekhyun
sanctuary
boston
wouldnt
stun
chaser
els
kindly
yeezy
decorate
turnt
peyton
err
strongest
cent
etc
supportive
martin
vibes
yess
xbox
thailand
huge
gomax
button
suho
kyrie
fab
shawty
completely
duper
arabic
feb
elementary
lawyer
hush
foow
fkn
cd
partner
dl
criticism
ed
ohhhh
eu
needa
fb
fd
abhus
fm
fo
fw
plot
gc
gd
gg
gn
ht
il
jk
jo
lodhran
ability
mixtape
lm
charle
seattle
communication
mj
contest
mt
mv
talkin
ng
np
bcoz
dunno
nw
ol
oz
nation
pornhub
freeze
bridge
rm
forreal
sl
sp
ss
calendar
sz
ti
tn
um
wa
gas
compensation
aldubnation
xx
power
alexi
yayyy
create
gin
brownie
bonjour
giveaway
gne
freshman
subtle
gta
thesis
gtf
guh
gum
egyptian
stewart
lana
lamp
wall
goody
align
hah
hap
brush
last
abuelum
colour
watt
smart
beyonce
his
chef
emirate
beep
preference
hotline
hop
australium
hum
america
soundtrack
impression
professor
chus
master
puzzle
meus
intention
household
frfr
ifb
jason
hittin
erase
guru
gurl
from
rush
properly
acct
porn
yike
frus
ish
communicate
ist
pasta
casual
silver
confident
universal
jan
jay
catherine
those
delicious
distance
suddenly
jimmy
vehicle
hotter
innout
jst
medicine
jadine
rerun
repost
crown
sentence
russell
bacon
report
download
different
oregon
squadd
kan
earth
cancun
taeyeon
accept
audio
dynamic
kik
collab
kno
only
greatest
solid
kus
troll
pressy
product
reminder
underrate
holly
lab
burger
law
adventure
lee
leo
idgaf
wetter
graphic
dodge
quit
fashion
detergent
erik
gotchu
destiny
harryego
glowinthedark
manage
metallic
realest
log
premium
cheesecake
prod
ballin
hahahaha
dope
lui
luv
bind
lesbian
involve
bird
monty
chuck
custom
fiend
mium
field
baseball
cheerleader
map
hannah
henna
mbf
mbl
bonus
merch
equipment
colorful
wicket
titty
about
gassin
height
wonderful
boost
dhoom
eliminate
butterfly
suitcase
mmk
bedroom
mob
healthier
academy
mug
jada
perfection
landscape
malaysium
detail
refuse
website
anniversary
volume
praise
classy
similar
nee
nem
new
homeboy
korean
lanez
automatically
supporter
whatever
aloud
nod
lipstick
bling
statement
nuh
uber
hottest
giant
search
nickname
thunder
fujus
image
actin
proverb
bradley
william
library
pudd
claim
ohh
coat
oil
cock
oky
ole
omf
george
cinderellum
liar
pump
ona
assist
lick
solve
cole
succeed
liverpool
osu
lizascominghome
connection
presence
ous
apologize
owl
own
blog
isaiah
will
york
your
youu
lion
wine
pad
pac
pap
germany
perform
winery
even
rapper
liza
pin
evil
fantastic
bible
marina
poo
pot
latest
fridge
evry
pre
pro
receipt
psn
anything
pub
shadow
hahah
muddy
festive
clear
innocent
series
print
favourite
position
haircut
coconut
hopie
wonder
madness
aight
price
jeep
uniform
buddy
spree
thankyou
bottom
comin
accuracy
rad
ram
ray
snore
scott
prevent
exit
mode
swipe
abroad
maggie
mount
pathetic
hmmmm
rachel
bomb
bold
boom
negative
boot
duty
slice
moon
jungle
boss
munchy
bowl
sab
patient
san
also
snapchatt
clinic
scc
personal
sec
fastest
awesome
petition
craziness
panties
hayley
chipmunk
little
vixx
pendant
unfair
over
brilliant
avoid
sky
aman
snr
soc
wheel
guild
std
mission
sum
sun
express
swt
voicemail
horny
higher
ampm
hack
nobody
guide
motto
range
submission
tad
safe
village
satisfy
fault
wreck
triple
nahus
connect
salt
corny
november
sana
xfactor
mashup
ctfu
hash
tom
hawk
saya
tue
concert
concern
tvc
twa
probably
two
congrat
participate
fallin
ctto
donation
ultimate
mannn
concept
refollow
climb
tweak
friendly
josephine
ugg
brag
term
brad
brat
umm
load
schlong
grand
grant
bumpin
stamp
government
forward
usa
subject
cunt
starwar
stain
reckless
bullshit
happier
brow
palette
loml
cuty
hotty
arena
loss
vlog
rappinagainstpoverty
woww
basketball
slightest
handy
vietnam
yeeess
naughty
official
airplane
shake
finest
kitty
shane
couch
dumbest
comeback
microsoft
ight
gaal
rack
quickly
wed
explore
wha
embarrass
option
who
wid
rant
rank
outlet
cosmic
ozil
rare
rihanna
vocal
rate
contemplate
bathroom
announce
gayo
nosey
knee
btob
razy
mistletoe
essay
heal
clever
thea
viral
heel
wassup
flower
carnage
argue
thnx
deeply
south
north
promo
course
precious
thot
ihop
cheyenne
cuddy
youth
sesh
weekly
weeknd
seth
yours
standard
samsung
sexy
magazine
naman
bump
loyalty
winner
champion
documentary
army
twist
nothin
mancave
yam
charm
attend
avenue
gimpo
jacob
lekkus
webcam
tolong
history
granny
yoo
opportunity
kimoji
mirror
sweatshirt
marco
celebrity
count
incase
bedtime
lizasoberano
trailer
steve
steph
adorable
waaaaay
shawn
vital
killum
guitar
comment
safety
calum
boiler
fame
error
roommate
sweetheart
bicycle
resolution
graduate
farm
primer
chemistry
touchdown
tshirt
fabulous
brenda
preach
helpful
ikon
michelle
disappear
rebel
rent
cloud
england
violin
takin
geazy
cinema
national
jingle
salute
trainer
nancy
maiden
italy
alicium
cotton
officially
candy
playa
philippine
sike
lighten
taehyung
wayne
hillary
playin
degree
hint
mybe
bluff
sist
sight
regular
site
danielle
excitement
adele
size
temper
police
irrelevant
hater
university
craze
supply
entertainment
polish
windbreaker
pair
studio
tellin
primary
husband
papa
congratulate
east
path
bucket
senior
info
endless
prince
beach
discount
bollywood
grudge
melanin
inna
awww
repeat
breast
appear
beard
recap
beast
ungrateful
healthy
achievement
still
enjoy
hockey
capture
andor
photographer
rice
dhaam
ummmmmm
tone
whites
around
risky
ring
cheesy
tory
absolute
refer
risk
flame
goodmorn
ipad
unsure
rocky
fella
robot
jcole
alternate
ribbon
apink
dalla
french
cheeky
vintage
complete
brotherhood
investigate
iquenotwait
spotify
regina
dank
brighten
darl
heartbroken
eminem
dave
humble
photograph
reunite
snicker
strange
chile
peak
china
coffee
playlist
victim
chief
merchandise
reunion
excuse
pend
friendship
continue
medicate
hattiesburg
zimbabwe
premiere
orgasm
judy
trap
hookah
artist
theme
desire
bambus
choice
trey
glam
highkey
sometime
enthusiasm
thursday
komentarnya
represent
correctly
trail
underwear
homy
just
owner
yummy
sony
hook
hoop
heaux
robert
bobby
machine
girlie
sort
fill
petty
soup
online
fish
lmaoo
definition
mansion
vader
spam
prefer
reference
terrorist
trade
aap
abt
acc
ace
sleeeeep
aim
aka
ako
cage
cafe
amy
ana
louder
any
resort
app
toilet
art
esteem
ash
nake
donate
atx
aur
edition
itch
leader
cass
cast
modus
cash
subscriber
ayy
exercise
display
yeaaa
cave
package
inspiration
album
increase
bae
bag
bap
bay
underestimate
deaf
ben
lemme
select
begin
angel
sushi
bon
bot
bow
demo
county
paint
deny
autumn
storm
bud
lovely
natural
goat
recall
suggest
verse
award
cau
flex
taufik
q
chm
chunder
bayelsa
motive
qlon
whyre
junhwan
dannnn
stressful
leicester
youngday
twitteratus
picky
cud
shoul
karang
flashlight
workim
sirrr
budget
hsbc
thankchu
heartmerry
cianna
earliest
wretch
traine
omfgggg
candice
werent
exotic
plushie
deh
elsword
wenza
hoeish
borrow
dil
diz
peewee
baat
hideous
heavier
anytimeplz
hurtsseriously
socal
jelous
hardcore
gemat
moreay
hamster
mehus
seizure
tgeda
nooooooooonnnnnnnnn
tatum
comman
reminisce
looooooooooooooooooooong
soldier
agoooo
elchapo
grabeeeemay
lippiesshuda
seent
qismaat
fuckn
neat
cebu
nefer
quarterback
kantor
buttad
faint
ekko
elm
vaughan
lauryn
underappreciate
tegasadil
loove
eng
pettiest
forum
whoohoo
pronounce
epi
epp
birthdaybirthmonth
perception
yeoo
whutttt
chord
appetite
needle
bhaktus
horror
such
olivesbahh
neva
rokus
kalau
bruneian
huft
realistnonbuddhist
conclusion
pleasechristma
sugg
moviestv
theirselve
horrid
islum
lolteach
ffa
gruesome
pedicure
candidate
extent
escapade
assumption
porcha
fomo
reaaaaally
manger
scammer
bd
fook
ck
co
flu
fmv
nunsongyee
eb
needy
eo
er
dike
busiest
fox
ge
gw
facebo
frm
talker
connor
fse
othersuch
freeso
km
shitand
fuh
somehow
os
dito
walnut
pb
pn
pr
discipline
lanjiao
oqale
tyga
aquus
whyyy
tq
ua
bathsalt
failure
gam
azealium
lmfaoooo
snail
tpain
ohhhhh
hiccup
kiehl
wtffff
wack
gov
swaywhy
gsc
surtout
yearswow
debit
swan
bewhere
ethey
shoooock
fakin
drift
ware
homealone
haz
harrison
trapper
warp
tipsy
aswimmingwhat
omgggg
alice
pituelum
doubleo
okaaay
layf
chan
hiv
ponytail
whatthefu
chem
chew
maaan
kampf
abah
boboyfriend
lolololol
migraine
niomus
hrd
ratlinson
kamus
virginalbride
woozi
htc
hue
hur
barbecue
malfunction
syddy
singlehandedly
ganggg
negra
lucero
driesst
negro
groupchat
mcfallen
lawddddd
rhyan
parthhh
kaman
unattend
wbut
wylin
idi
banyakan
sneeze
iga
nettle
bihhhhh
kehlani
loooovvveeee
bfff
balvir
boruto
nairobus
konawaena
nino
itd
itv
cuzin
plsss
badum
yine
tvinternet
sadlyp
wajib
nito
urghh
jinan
lashay
qualify
krass
bomus
do_not
ehhhh
nivel
dutty
difficulty
jgh
jhb
reaaaaaal
pushup
omgg
jit
hyuk
triber
georgie
adan
cougar
nonhle
lorus
plague
originalmanthat
joongie
laaawrd
spider
western
candid
amonte
laite
vain
cycle
urgent
sanjus
anywhoo
loooooooooooooooooool
helix
babymomma
mastiff
collin
spongebob
teens
recite
hypeman
jennus
beenvery
kio
kit
pomerian
ballout
longlivebrandus
overhear
elgato
kor
burrito
kenyan
onny
mightshall
ktr
mhmm
millena
ouuuu
illiterate
lens
duvet
snivel
seoul
stupidity
episodekagura
laa
bugger
lbv
chinatown
lexa
baller
wewe
austrium
karlo
clan
lif
omgwalang
boutta
threeyearold
stubbornness
pallet
funeralokay
teyana
provide
panaaasssss
emsebenzinus
cellphone
alliance
miho
snowmelt
patty
amnesia
prego
signal
gyal
egoistic
permission
cheater
bium
merce
broooo
looksthey
naughtynate
fuhhh
authentic
beater
beisuen
mlm
reliably
mot
lgbt
invader
umbrellaand
noher
detain
ariska
highlighter
sonnn
eharmony
jolisa
drawstr
cruel
cabut
bedbath
frfection
literarily
cashew
nailery
forgiveness
nje
allergy
cnco
advertisement
nenge
sophomore
ignorance
fliflirt
jeeez
bastrop
nog
noo
pseudointellect
erich
hardship
youngnel
fagget
overflow
tomorrowthisboyi
threaten
rangerforgot
breakup
marker
shippear
mediait
ukraine
consideration
shambles
deduct
temptation
gajus
swanepoel
runaaaaa
precaution
leonean
xxxmgwvxxx
puck
dependency
bauble
noah
naapp
yorkshire
wookstan
apologise
eachevery
liat
oppress
omw
caution
ong
puma
oon
opo
flavor
janard
fiesta
ora
urslef
unconsciously
cone
puss
duuuude
firefly
kasus
instrumental
indoor
teenwolf
burghley
nooo
seaside
betul
fraud
lina
ling
katrice
journalist
tyger
fatin
shonda
staaaap
toddler
evan
lisa
witt
revive
pew
snappin
nobayan
tswaf
earthly
astaghfirullah
botch
shepard
qyou
ajak
marine
espresso
taurus
pss
pawpaw
dudeeee
dayenjoy
pur
pyh
loonnggg
fluketeerapatl
involvement
pistol
crazzzzy
eeeeeekthen
tale
eatingshitthi
tamp
idina
vibesplease
mosby
irrus
tase
hayatus
kimba
prospect
wrking
blanca
muttin
bonang
spray
tengah
nanase
misslove
simulan
compa
beforehand
ihateyou
ailicec
leavin
ewww
makinig
whereeee
riyariya
demolish
viola
rce
inviteit
editbackup
awayyyy
clipper
rib
disappointment
michiba
cryin
hairy
bitchass
tender
yoooo
moan
emojinot
fastttttttt
mock
dump
unnecessary
ughhhhhh
boil
juskolordgoosebump
alek
tractor
aboutta
tahjee
rum
rodriguez
bonz
astaufirghullalazim
ryt
generation
cryyy
borr
kikn
cruz
mouf
nerve
crampin
micky
clingy
frozone
concertmc
sct
djmerlon
cryyyy
thowonder
groundus
jobless
wordplay
zimbus
princeton
maryland
sie
sil
lovebug
slo
reconsider
neighbour
unbearable
dixie
snd
cupboard
elevensixteenfifteen
sob
soy
heartfilium
mammoth
spm
spy
loudest
peeve
sss
tagalog
wellington
meatloaf
saidim
vince
habi
otraholiday
tac
tao
sail
technically
crineeeeee
scratch
greatttt
cliff
lmzr
prettier
obvious
slurpee
haru
provider
whitehead
tlg
tmm
tmw
jessie
tonus
pardon
obligation
tss
khona
tum
ezus
warrior
lottery
mochyp
shitbecause
pitus
sakit
speedy
bretman
ajose
formal
dengar
banky
influential
ukm
wateryyyy
shelton
petrol
una
invincible
maaamaa
verity
cuhz
manan
brid
mandu
amwhy
grail
redtube
inform
sceneus
miscreant
thyme
doesss
micheal
agent
mrsm
llssf
fllwback
aoty
denny
wous
ifnt
tellfeel
recitation
pissy
cubao
fontbonne
estoy
pfffft
newer
dyke
shady
companion
lizard
billiard
moommm
lingo
contradict
noooooo
submerge
hawhhhhh
biiius
financial
shann
ikeja
worldstar
garrett
sarcasm
antiblackness
unboyfriend
impose
gurujiplz
wat
niallspata
buhariyya
denial
weh
berhemah
donna
wgm
drawnnnnn
hahahhaah
fondness
happenin
undraft
cutehow
predictive
plunge
horrific
salon
terus
argent
wtp
whiny
melatot
thermometer
postpone
sundown
seal
depan
filmmake
salah
expire
knob
accesso
pierce
teenager
dumpling
privacy
slight
guyhad
fussy
norte
scupper
krizzle
tripple
dupree
prone
kisah
brace
metapneumovirus
thaaaann
whatsoever
femaleversion
rightttt
maseu
torta
foolishness
shiddd
buhh
siesta
buka
phoxad
argo
fuuuhhhh
aria
dismiss
costly
consequence
bung
raven
associate
anywho
tick
dundee
owalum
outchea
resign
muva
arse
yaz
thingy
korb
batch
laundromat
yer
timb
tambay
headus
chubby
haaaaaaa
sonium
mulum
careless
layin
therere
yop
marah
asff
hibernation
easter
cannnoooott
yuk
trickle
umay
collaborate
shiekh
naruto
nalga
waaaaah
brudder
citizen
nexus
loooool
marow
theatre
umma
blackwell
linny
bleargh
sanay
omdaaaizz
propaganda
calculator
unanswer
ijst
insonium
sctop
daija
itbut
fatz
wynterrrrr
billy
overnight
harem
shah
oneseven
moveon
lukewarm
oppressor
keokus
shaderrium
unhealthy
finale
swisher
redo
pattyanong
shid
reet
geek
nanna
accuse
boredt
pudding
kmatty
ngwana
gunshot
tonsil
harus
severely
waaaant
rely
smother
sickkkkk
missus
nieno
akyar
canterbury
germ
bilum
complex
cuhhh
chambana
tminus
illest
lmfaooooooooooookooooooooooooo
sierra
legendary
hiiiiiius
lung
plate
twitta
nowor
rindu
kroo
ungenza
mikky
nevurary
hike
edibles
henley
saltwater
tendinitis
sino
allegrus
shakara
sighh
dahlia
woahhh
justice
individual
riothuge
sociology
jahat
avix
xavus
wardina
versatile
reservation
inter
vlogmass
allergic
capital
yahlus
binge
unwant
heartstrings
industrial
glisten
document
yodelingpicklee
eunjin
principle
assfidky
lastminutebholiday
ohmygod
apartmentclothe
judgemental
gtbank
payment
yooooo
louisville
pmsing
intro
sarawak
ehehehe
fuzzy
earr
wthhhh
asylum
thoughtwhere
oatmeal
ishopp
arrogant
beddddddddd
devon
init
woulda
condolence
vagina
allaboutmycakeimtrynamarrybettycrocker
superhero
barley
insa
famewhore
module
keshium
consistently
roster
thisso
menzel
despicable
backstage
binay
uncircumcise
humor
leftover
cramp
chamorro
cambrus
godddd
foreva
descend
caaaaaaant
lowerta
shite
thothat
breakdown
knuckle
chooosquad
shouldnt
pagan
shiiiiid
acrylic
toot
outlandish
ginger
haven
gisel
buffalo
engage
aston
noooooooo
giso
likewhy
niius
beenus
solely
surpass
mayne
fuuucck
beckyyyyyyy
venue
akhonto
bakeeet
nooooooo
ayus
geezy
khalid
daaaaaaaay
precum
adblock
remotely
virginity
smol
toxic
stevie
malibu
haeunda
carmillum
skrew
injurieship
carlton
twelve
smth
christmasy
dale
wardrobe
sleeeeeeeep
dane
withe
haahahaha
eletsang
fanbase
beckenham
azim
jtbc
simmer
activist
jtfo
dogsss
snag
explanation
goddammit
rupture
eraser
sharper
mannnn
unhealthily
roadhouse
hopeless
bummer
porno
skunk
abscbn
sizzilin
ronaldo
huhuhu
matthew
farrer
italian
plssss
putain
offend
ialready
langgar
pheasant
langkawus
peso
hecho
disgrace
allahoakbar
trek
prescribe
mullah
vodafone
youndaa
junk
bundlesthe
juventus
themorn
tennessee
againlove
cercant
yayyyy
brunette
uuuu
astound
hose
personjust
writer
stromtrooper
tiger
dummbbbbb
errday
cranberry
during
redwill
hydeium
tylenol
currently
isil
ummmmm
nampak
pgdc
popasium
humiliation
taylir
bursitis
naaa
ahm
bruford
nada
humpback
municipality
fcked
alr
commentff
exnfl
taylar
llama
yupin
nalu
arg
orale
thitus
itam
ave
nonstop
stupidly
ithought
magulang
trollin
heartbeat
yase
heelp
releasedtruly
nasa
nash
riiiiiight
depression
bbg
creeper
taser
ellicejapar
hayus
bhe
byahe
biafran
deff
itus
bop
rashaud
stool
depa
adkin
duuude
magichope
stomp
drought
deul
shishishaww
lemah
craazy
kingston
baratie
unyile
backyardigan
soothe
hallucinate
versa
selene
rogo
froget
cbd
kevin
confession
beirut
status
dwn
stab
priceless
esp
couldve
fee
david
ap
cn
dh
ga
jd
toaster
gah
yt
nyquil
haidar
stingy
unlock
disease
wizard
kiddin
bend
hypocrite
vocabulary
pour
slack
badly
softball
maccy
spaghetti
hoodie
fatigue
kate
spoky
lewi
slave
chelsea
scariest
cardio
research
cruise
tomato
lower
eventually
cope
errbody
suspend
tail
homegirl
hardest
rough
nursery
distress
poster
rig
nighter
dollum
retainer
instantly
cameraman
tattle
tweakin
nomore
stack
passport
advert
whyyyy
numb
sharp
enemy
gary
quickie
trinity
lightn
mobile
ritual
bitchhhh
bush
asda
aries
heartbreak
punish
animation
joey
matte
dislike
brooklyn
advisor
crash
grammy
technical
perth
conference
sander
adida
broadcast
donald
ale
awk
naww
bat
demn
burnburnburn
bogus
turk
resume
reaaalllyy
adrian
rona
peakkkkkkkkkk
fakeketchup
memphi
oldtown
sonakshus
mediawell
rogelio
dendrophile
puget
fraternity
pantyhose
gown
representative
unbother
teresa
pitt
betterrrrr
shove
torture
workhomeworkhomerewind
houseful
planner
seewhy
bemyjustinbieber
irongiantjake
unexpect
chauffeur
followbackeveryone
drarryfeltcliffe
brozy
der
redefinedsunny
leone
neverrrr
bajrangicr
lolly
bada
ferry
badassgoodnite
wttttf
sheesh
maan
anium
petale
baer
dmv
cigarette
darth
practicetop
bakk
yashpark
highest
crayon
mann
ranveer
alumnus
techcrunch
toomanycomeback
vlogma
khylin
incentive
nickitina
dustcart
eal
mfckin
oopsie
africadec
temporary
exhale
nashville
albius
halaaaa
shred
boius
neha
vibrantlymundy
kagehinatrashcan
runescape
dammit
aspire
messenge
cell
tshwerus
unauthorize
spinach
quacker
estate
ferrarus
islam
berniemw
flick
neph
livest
lovesick
harmain
hugo
briefs
archus
submit
kaleb
fac
rosyluxe
boyega
thebestoftumble
turmoilto
hule
fed
strain
taskforce
inhale
quintuple
spittin
goalsdo
oclock
metaphorical
av
foll
spliff
lorennnn
emmagleason
cx
dy
gaben
fob
paycheck
fg
dimu
mcavoy
digital
doinnnn
giftedme
paysatha
ic
iz
celsius
soundcloud
kb
kh
mentality
ld
certify
swagger
mb
mc
glaze
schemin
gryffindor
schooler
ou
ov
intelligent
rocker
qb
mathilde
naughtyyyyyyyyy
rb
re
rq
muzik
doctoryam
renell
tc
tp
banallequinesport
uz
chukka
silhouette
vx
gaa
wu
verrett
lardprao
gbn
xt
dragon
yg
jayrdashootah
yusuf
transformation
giz
intend
shemale
tpayne
ngga
rearrange
caffeine
wade
brohave
loveinterracialsex
miself
girrrrrl
gtg
todaystop
hundred
gothic
messenger
wahh
sneak
tutor
lamb
discussion
achievementbhuntress
hwfg
anyboul
drumstick
caramel
anonx
rattle
steady
pratt
hereaction
tomang
hep
brumm
trappin
gucciho
naasty
goooooooooooooo
menlovetit
glizzy
dasielol
inbetweener
battlefront
ceiling
cher
hml
sistrthnx
earphone
okim
elizabethhopium
clouard
chiz
bein
beij
vision
okaaaaay
catchphrase
fleetwood
joelhuenink
hve
ssssooooo
eight
smack
solution
regardless
guam
maale
fran
arzak
paintlett
babby
reflect
likeeee
amateur
prebattle
hotshotsofcum
preparation
ign
eurosceptic
iii
allfunnymeme
newonly
roadshow
mysterious
annnnndddd
shipton
bowden
leatherwood
forsake
rust
yuuup
catchin
beingwell
figgity
akatsus
nudityandnerdery
watafawk
darkskinnedblackbeauty
spankbay
pasty
catholic
resum
hyde
hamilton
fiddy
crypton
saaba
bigeast
vulnerablewillingopensupportive
lustanddaus
thehorsewife
rainboot
olivet
besssj
besssm
chopper
lifetime
reaaaaaally
llmgwvll
tatoosandboy
uggggg
uggggh
madrigal
stranger
foundinghouse
zaybo
designate
shirsa
summerdiaryproject
tellmethisisnotlove
pple
hatejust
cocksuckingslutx
jom
defiantly
ourselve
garbage
ahaaahahaaaaha
chixtape
kaho
youkeep
warranty
jocelynn
dianita
cocksandjocksallday
flieeeeeeeeeeee
candle
champagne
kano
singerdancer
vamp
peraquum
adrenaline
vape
kal
backk
chasity
mansionlike
kart
thebedfordkook
chilum
tobio
kee
whaaaa
unusual
femicash
technology
expedite
ccindydccruz
hablame
onit
crpdk
nipsey
kwony
onna
hotfattygirl
onow
thotty
kut
kouple
reupp
presenttttsss
upprotection
kwt
timreyo
thenikkibellaat
pilot
welp
fiestatv
buggin
gadget
muffinpine
nuncius
latian
consular
quite
employer
revert
thomass
len
asslvr
qooraxdus
spencer
district
thialf
bajiraocr
cabbage
deputy
solar
weeeeeeek
sourcebous
holyy
synonym
browser
bookkeeper
selangor
booby
mili
dose
sched
flyyyy
engineerdeveloper
kcin
minh
emergency
sleeeeeep
importance
preet
blesser
fattest
physically
tastefullyoffensive
may
casino
teenage
ritsuka
melrose
afrobwoy
hotmulattabae
yoevery
men
lalaa
mize
ryne
courtside
snapsexyk
mho
harmonizer
transportation
osubatsona
ikercasllla
hatersss
alivekick
habus
moo
slate
esok
decorator
liban
lotta
daysofhotjock
este
aggy
skywalker
imanus
mwf
educate
mxn
ashshafiee
songz
sonic
skyrocket
rebind
concussion
smolfandom
minutescashout
purify
sophalofabread
wasgoody
tenderly
nba
finnax
ebonyaesthetic
carwash
ineed
bestdailyharry
professional
zaaaamn
detroitb
shrimaan
luhan
jaya
baise
sadus
rollie
ronron
oscinegalaxy
npg
battlee
godfatherkhaus
mrcrab
whit
pinky
recital
andnothe
reagan
herbo
strive
suzuran
pictwitter
rythemzroye
foolin
maintenant
india
grannyperfect
whut
betch
espoide
onair
whoopin
lifeeee
transaction
ogg
minxzyy
platinum
baaallin
blac
lychee
familya
chapsteeze
pornsecret
portable
intelgency
capuccino
offline
sincerity
corrin
quimper
mcroosa
euro
coke
chainz
lighthead
eyelash
squahhh
ovo
bearer
turncoat
oxo
devion
wimp
cafeteria
lipo
bangock
airb
hague
jiwanna
ridin
woodmill
ellery
alldin
tommorow
hectic
fijus
tokeeee
studcock
beautywoman
pandastic
malaork
candylady
bygones
albanian
qatar
crimbo
ajay
pmo
poe
por
oldman
adrienneville
tweetin
rempong
yesssssss
raman
thicker
ganja
batsona
pusha
hahaa
thiery
capuccinus
testarossa
arduino
taan
funall
pistanthrophobia
interrupt
foxhatart
eyzaaah
cleat
rally
paysavey
brothr
piston
stallionwencher
cepat
daaammm
dwyane
perhap
chyna
genocidal
blowin
smirk
scruff
fullcharge
tatt
specialise
helluh
qna
comon
bathathe
kageyama
thermos
mcothd
photoshopp
ballgame
pokeball
practicework
lesliee
copie
sorta
espex
thugga
subtweetin
reb
peraquumhuvafenfushus
morrow
rem
rep
vsvpmobdeath
heardseen
exec
wizkid
sidereus
rin
rim
algorithm
gtfoh
boba
glove
postgame
territorial
horus
bidness
sucka
crib
corruption
ceededsantha
timiya
monstaxma
dusk
newest
crow
absence
outt
mong
demon
awsmmmm
disorder
bowt
snapchate
enquiry
eyez
timberland
ser
sew
visa
fighter
buildsecond
stroll
followtrain
savagest
naeun
lifestream
large
kristykilling
clearance
constant
spa
eldritch
murphy
prollus
amek
trueeee
roadtrip
opportunityonly
insanely
stl
kinky
democrat
weallheartonedirection
tday
greatness
doink
lmob
nikkicim
tengo
mscgstudio
scarface
greenwich
villain
vitasha
threehour
yearwonder
sleeeeeepy
idle
alute
newlypolish
yahan
wmyb
thu
trippy
garda
bloodus
olympic
flannel
winehouse
bloke
haggard
illustrator
hatr
blocc
sast
corey
sark
twerk
satx
cahaya
assday
coral
slippin
soreness
skinny
anectar
daaaaamn
vocaloidpic
anon
nahhh
lunchable
supportlikeshare
priority
dolly
stackin
themthi
blovv
uce
everxx
flirtation
homebody
unthinkable
stacky
stackz
tweezy
philtrum
yuan
tolerant
whatashot
ukr
skygogh
hiself
congleton
abusive
priest
crewneck
loco
brew
blackwall
nuke
bbqan
legitimately
brom
observer
drawing
broo
yupp
bachus
lone
scam
industry
shandrel
galileo
murderer
bridget
recording
jill
providence
registration
jacquee
loub
woodmeat
kinqdanny
youdontunderstandmom
sickest
feelingsbless
macaroni
resignation
jongin
sprite
lethal
brazy
flashcard
lustful
private
lineb
mytumbacct
joker
charter
hisher
guygirl
amberrage
baaaby
relieve
requirement
barat
pivot
wavey
zealand
narsis
kisus
avionna
verinisa
robtheoriginal
mcgreggor
thuggin
desirethe
birdie
raad
raaj
afrouus
kmsl
seahawk
kathleen
portion
bompton
wer
featureswho
reduction
gant
rting
gane
familiar
byzantine
wod
gemmaastyle
deanambrosedaily
haswill
geneva
memorable
samsungmobile
veganism
travus
themlike
wym
ixima
merkel
fakeanimesub
wander
toptag
tioramon
knou
avselection
examination
argus
befriend
revolutionary
henn
bonbbphoto
interracial
txtcall
pickup
wilda
ikoyus
deaddd
thro
revitalize
hanger
angbang
thth
kyungrus
without
arch
crimeeric
diadus
fromyo
arie
instant
bund
folklifestyle
jaden
yxngtrxll
rupee
nationaus
fbchat
muse
nizamkrishnagntabhishek
luther
automatic
namja
backfire
burr
overhype
uption
tigo
critically
avenor
perrin
knight
currency
puhlease
yar
shovel
bringin
ayeeeee
bagnostian
bookmark
chalk
settling
tint
ferdian
niiiight
skinhead
hattin
tootsie
zquil
rebound
bromay
yik
yiu
tity
potential
lounge
pwease
toothpick
alternative
byeeee
looooooove
coulter
depict
ofthegil
youngblood
mydadatthestore
karlum
yta
yum
affff
asis
mario
jolie
sartorius
koalafranky
jockvideo
torch
tempahstormzy
womangmorn
sterl
magnitude
antivirus
asvp
temperature
thrift
berardini
whenever
handlebars
vanilla
nawdah
oreostuff
wenger
youthe
privilege
mustfinishwrappingpresent
steer
atsara
repair
shaker
wtch
zte
distributor
fass
shakin
mauly
rural
acclaim
nelspruit
sweatpant
mistressteresamay
angelina
hardy
scumbag
realllly
acquaintance
shaw
hesonfire
playsu
memorex
heatherchandelle
jacksontran
theranest
unkwn
milestone
prettyjessicau
reem
mobility
devin
rusticate
reno
bearnake
okele
christianluna
dilwalecr
influence
lube
callate
fromu
kingdom
forsure
timothy
riddim
badmon
mateo
confirmance
parish
villaflor
simpson
lulu
sneezeand
ikreate
facepic
umrahseminar
carlosamigotw
fereal
faithfully
biiiitch
stereo
dissolve
accrawesthill
exchangesorry
hidd
cheesier
woahh
fashionista
jong
strongkageyama
wura
silverbird
matty
munna
gaytofugame
benadryl
squeegee
vibeez
goodlook
cactus
lighter
conversate
buzzfeed
stoner
sexuality
reblogg
nightz
msacker
mariagmv
namur
justify
sium
putchaaa
brahdah
divert
regent
knowspart
overrate
imam
toolbinary
yesung
sleeper
upim
kabah
redrs
slutty
holidayday
tmht
chargerrrr
mindset
minny
stunningpicture
dough
pace
peekaboo
burberry
swiper
silvium
wheeeeen
pepsi
reedit
summm
jewelry
gherbo
larrystylinsmut
chiharu
importanter
renatdacunha
fullerton
zorro
gooden
ahorra
kimojus
legal
hkbp
goodit
humba
podcast
nigerium
themadicarson
bruuuuuh
sket
tamad
twenty
insan
feen
acejoke
djfuturedproducer
skit
bitchmob
ebay
cityboicoop
lilyfell
oursassy
germaine
highlowofficial
centralplaza
spraang
thegit
nword
anaya
collaboration
saucind
unolike
renaissance
prodcue
pucket
aprstin
daaaang
daaaamn
elder
psych
temple
matthewdedio
barcelone
gramma
selection
clitori
forest
onlythickman
streetartglobal
didit
descent
trillestg
animeloveblue
kupo
sensuousness
inconsistency
cumin
olympics
bearrrrr
cassy
iont
grasshopper
tony
weirdest
slot
gile
yeolime
boshhhhh
rejoicement
clvtcht
slug
jdienxjsmdhisn
guwap
jugger
philly
sprayberry
charlee
charley
babysit
flake
butch
shithere
larrie
philam
andre
monsta
cheeto
malium
cagedjock
designer
twotone
sauce
guurl
lynx
essential
tudung
snapazcardinal
publish
jmetinie
ipod
geeza
cleanest
picsup
fyexo
igxsamrahx
annualteen
painting
province
diploma
charlotte
upton
awareness
omnus
turtleneck
haveabighart
hattrick
trekkiee
rayanna
utah
warmonger
montsa
nosleep
gainesville
aybeeberano
trusttake
realistic
cartus
mannnnnn
dongen
collerbone
oats
dignity
allison
victor
chili
audiobook
coffeebreak
prisma
smartwatch
paige
groupme
totalaccrawesthill
rbbitch
neuronal
granddaughter
oochie
chico
rarely
doyoutravel
pubes
pelo
neville
groovy
rooftop
teentop
giver
feelinga
organizationjica
cautiously
unchristmasy
rustic
artruby
generic
aileen
bbbbbound
damper
wangmin
yosemite
brodie
their
soda
sofa
fantakenhq
spark
medicationgarden
vanderbilt
beneficial
misscarlum
somo
tablet
boutique
dissin
bobat
corgiaddict
britain
myuntamedmind
mzbel
hotd
fatherson
mique
ortiga
nakhre
wndrful
plumber
finn
badger
starcinema
doorbell
gulftgm
srgay
natal
arsene
tearyey
doriwainwright
abigail
atwell
fullfill
hydrocephalus
navigate
welloff
abe
parsec
cheapdesignate
daysweek
aga
agh
fisher
laidback
menuju
meadowhall
ripoff
skillet
ain
tayler
prototype
snapooooooooo
gachibowlus
seasonget
unabash
folllow
puhleaseee
cair
nair
harhar
wilson
hussle
canteen
ast
ata
cann
pangit
whatarethooosseeee
napp
invstandsucceed
hairlighten
whoaaa
riveraa
aggravate
philanthropist
forbid
depiction
footwork
fleme
mentor
ban
draft
givingplease
hippy
sponge
shalhoub
bcz
deco
debo
chrome
susan
malabar
playbous
bin
beautifu
surface
anymmore
artofliloujay
rafael
blk
onehundredandonebook
patternswhat
bmc
toothbrush
lemur
jumpstreet
bol
buildin
phon
boothy
dynamics
sumthin
shooter
dera
frequency
tuck
dese
xmgwvx
airway
sekaligus
strudel
advertise
robb
machetty
deusay
retrogamingblog
homecome
filter
byatt
hopeful
shootah
ahealthblog
gogo
overthink
5.303304908059075
5.3033049080590775
5.3033049080590775
5.3033049080590775
5.3033049080590775
5.3033049080590775
5.3033049080590775
5.303304908059075
5.3033049080590775
5.303304908059075
5.3033049080590775
5.3033049080590775
5.3033049080590775
5.3033049080590775
5.3033049080590775
5.3033049080590775
5.3033049080590775
5.3033049080590775
5.30330490805909
5.3033049080590775
5.3033049080590775
5.30330490805909
5.30330490805907
5.3033049080590775
5.303304908059079
5.303304908059075
5.3033049080590775
5.303304908059077
5.3033049080590775
5.3033049080590775
5.303304908059075
5.3033049080590775
5.3033049080590775
5.3033049080590775
5.303304908059075
5.3033049080590775
5.3033049080590775
5.303304908059075
5.3033049080590775
5.3033049080590775
5.303304908059075
5.3033049080590775
5.303304908059084
5.3033049080590775
5.3033049080590775
5.3033049080590775
5.3033049080590775
5.3033049080590775
5.303304908059075
5.3033049080590775
5.30330490805909
5.3033049080590775
5.3033049080590775
5.3033049080590775
5.3033049080590775
5.3033049080590775
5.3033049080590775
5.3033049080590775
5.303304908059075
5.3033049080590775
5.3033049080590775
5.3033049080590775
5.303304908059065
5.3033049080590775
5.3033049080590775
5.3033049080590775
5.3033049080590775
5.3033049080590775
5.3033049080590775
5.303304908059075
5.3033049080590775
5.3033049080590775
5.3033049080590775
5.3033049080590775
5.303304908059075
5.3033049080590775
5.303304908059075
5.3033049080590775
5.3033049080590775
5.3033049080590775
5.303304908059075
5.3033049080590775
5.303304908059075
5.3033049080590775
5.303304908059075
5.3033049080590775
5.3033049080590775
5.303304908059075
5.3033049080590775
5.303304908059085
5.3033049080590775
5.3033049080590775
5.303304908059067
5.303304908059079
5.3033049080590775
5.3033049080590775
5.303304908059077
5.3033049080590775
5.3033049080590775
5.303304908059075
5.303304908059079
5.3033049080590775
5.3033049080590775
5.303304908059075
5.3033049080590775
5.303304908059075
5.3033049080590775
5.3033049080590775
5.3033049080590775
5.3033049080590775
5.303304908059075
5.303304908059065
5.3033049080590775
5.3033049080590775
5.3033049080590775
5.3033049080590775
5.3033049080590775
5.3033049080590775
5.3033049080590775
5.3033049080590775
5.3033049080590775
5.303304908059067
5.303304908059077
5.3033049080590775
5.3033049080590775
5.303304908059075
5.3033049080590775
5.3033049080590775
5.303304908059075
5.3033049080590775
5.3033049080590775
5.3033049080590775
5.303304908059067
5.303304908059067
5.3033049080590775
5.3033049080590775
5.3033049080590775
5.3033049080590775
5.303304908059075
5.3033049080590775
5.3033049080590775
5.3033049080590775
5.3033049080590775
5.3033049080590775
5.3033049080590775
5.3033049080590775
5.303304908059067
5.3033049080590775
5.3033049080590775
5.3033049080590775
5.3033049080590775
5.3033049080590775
5.3033049080590775
5.3033049080590775
5.303304908059075
5.3033049080590775
5.303304908059075
5.3033049080590775
5.303304908059065
5.3033049080590775
5.3033049080590775
5.3033049080590775
5.3033049080590775
