GIS
1
0.0
3
pos
neu
neg
7
812 0
99 0 1
80 0 1 2
146 0 2
246 1
49 1 2
512 2
1944
half
siwon
highlife
your
halo
xma
wreck
satan
tea
solid
click
davy
moore
protective
chapter
tribunal
youre
gold
neonicotinoid
alkali
quiet
j
s
prodby
x
thank
z
god
yours
wrap
discuss
liberal
broadway
resolve
reader
gon
kerry
wish
luckiest
weekold
exceed
tin
gpa
bandana
par
pat
tix
strange
tjo
wacky
child
sara
wisdom
samsung
live
chimo
cheer
versus
better
swarovskus
service
tweep
there
well
hilarious
belongings
peg
cameo
write
musical
loyalty
felicity
heaven
intelligence
even
bull
disgustingly
mason
noise
product
cnn
retweet
bund
spirit
pimp
snipe
produce
picture
phi
underrate
con
marinette
imma
cow
pic
pipe
gravityr
ceremony
gous
hawk
woozus
machimiya
unity
playlist
land
nothin
walk
yearperfect
payne
concert
supply
lee
beautiful
state
want
cub
reality
circle
perfectly
toronto
reside
battery
marine
pon
moment
reissue
ankle
creation
funny
situation
latest
receive
team
speech
clan
chart
jinwoon
ctto
deterrent
friendship
attend
lib
shovel
smell
secure
han
school
hav
realize
erik
hay
glass
chest
arun
merit
pro
warm
easiest
psh
effort
pimple
wave
refollow
perf
early
appropriately
allworld
infrastructure
moderation
baantique
climb
her
golden
enter
iran
creative
artist
bright
headup
computer
wholesale
tire
dikembe
wealth
survive
efficient
lately
chat
door
dehair
pakistan
merry
otherit
crislip
goodnight
carddddd
rankbrain
marian
migo
wifus
fuller
pordalabget
hospital
ddf
bebe
sodb
ufc
allah
appreciate
lvg
nichkhun
easy
route
flexible
adult
fico
treatment
hot
kcin
grateful
retailer
elude
stage
glee
masterpiece
celebrity
dip
promise
club
legal
journey
finally
vision
acceptance
month
jusy
tanu
additional
title
hone
pound
wasnt
company
nuclear
nigerium
holy
solo
monitor
babe
home
michael
spectacular
iron
hug
explain
dieat
sooo
tablet
feat
victoria
appreciation
sense
jesus
afford
field
government
surround
twenty
meng
health
positive
bless
mbf
singapore
smile
strip
fine
regardless
textbook
ideal
barge
exhaustivepost
convenient
kejriwal
ebay
adorable
stair
blend
fidelity
ball
hour
beth
genuine
master
nenescolanoahmbah
ayagwa
bake
duo
duz
woodward
danger
reassure
uplift
myself
holographic
wonderful
benefit
intention
goand
kpop
funeral
boost
suppl
cute
long
augment
free
mix
face
congratulation
heartthrob
open
woon
treat
independence
barn
groban
jean
moutehaslem
countdown
please
offshore
idk
campaign
father
rule
poem
interest
niykee
checkout
every
qvc
killum
recently
incredible
mary
artificial
bash
tribute
base
hoseok
mob
zia
cassiopeium
ferg
phenomenal
agree
followback
shotgun
favorite
lenovo
perversion
lorainn
enjoy
boldly
buddy
include
agency
nice
first
voice
prefer
perfect
msm
float
reference
poky
tokoto
lowe
vet
bottom
excite
combustion
winter
seemingly
daaayuum
russ
pissy
okafor
maine
advantage
blacksilent
dunaemi
jack
comic
photoshoot
vic
music
corinthian
ram
mutombo
endure
porn
bombshell
chemistry
acer
learn
fuckin
ridiculous
sweet
brandy
alkaliform
post
finish
mitomus
swift
add
its
vivaldus
article
canada
rolex
trust
gide
von
happiness
ive
end
special
yeezy
gift
decorate
shouldnt
release
theyve
aspire
obedience
rhinestone
brave
handle
wanna
mighty
other
aim
city
air
nunavut
nejus
holiday
rights
share
speak
eovhplg
powerful
slip
cristy
governance
mexican
finest
runway
nfl
collect
bitty
amp
favour
around
ngl
chachachachus
irresistible
super
jannah
semester
vibe
accurate
taste
oxford
zealand
dance
allergy
presentin
letter
skillful
iowa
comeback
otter
worth
tactic
rejoicement
popular
triumph
describe
genuinely
drool
slut
yourself
museum
reid
unfollow
aus
lallus
android
simplicity
street
arrive
jambalaya
elizabeth
bracelet
wat
way
target
window
flame
fab
rent
modest
cast
bouncy
crush
fam
fav
understatement
viii
epic
moon
tinder
comfortable
style
purely
powerpagkakaisa
boss
wed
waysuccessful
goodluck
display
great
hulk
statistics
stuff
feb
talaga
simple
nus
ptus
orient
king
kind
viasehunownsme
market
important
unfavorable
darkest
daughter
who
andre
sponsor
selfieshot
faith
inspiration
cardus
wid
txst
cashier
cheeto
miracle
compliment
politicize
rest
wit
enough
spread
nyc
shiny
front
user
gaon
kiss
ban
fix
yieeee
ad
extend
xilion
av
raydio
peace
drive
compression
repoll
strong
homeland
bk
daishus
bookie
guuuurl
amuse
whoa
fool
by
nickname
willy
frand
seo
ca
innovation
awesome
superstar
maestro
essential
bed
bee
dl
thunder
dp
startup
woo
wor
ed
image
en
ep
celebration
carry
vium
selina
frame
lucky
abhus
itty
shy
clash
yeysy
fr
getaway
jersey
client
gb
digital
unacceptable
pesticide
gm
jaitley
beethoven
setup
bradley
fresh
bid
he
waiver
entourage
heheh
ht
hv
vessel
latifah
model
crown
sky
matterhi
large
maturity
vera
john
viewer
alive
nerdy
wut
everything
belief
side
vest
gnrd
off
lo
montreal
sign
angel
northern
that
pagibig
download
soo
edge
overpay
entry
expand
nd
ng
birthday
brightly
box
heal
reserve
ok
hear
rescue
highly
oz
easier
hubby
prophetic
discipline
fermin
aldubmaiden
bra
brand
deny
edit
them
secondary
meaphyscal
rn
atlanta
minus
rt
forreal
yoga
ferragamo
sm
ss
confucius
decision
josh
flower
unconditional
tl
makeup
stoke
buy
ua
ritchie
up
pangnirtung
opa
ensure
roselyn
va
ocean
smoak
support
coin
breakthrough
idea
kid
cole
pure
gam
similarity
dang
allstar
wu
successful
prestigious
normal
montesano
inhibition
superior
succeed
aldubnation
shampoo
humility
conf
react
type
flatback
hack
natural
zane
contract
profitable
exist
insight
daddyish
gilgamesh
underwood
gem
impress
bukminster
lean
get
leap
thor
belen
bigger
salvatore
kno
help
expect
asset
queue
grizzly
incanto
bahay
tab
sunny
tan
prestige
jamie
safe
arround
everybody
cam
security
award
bday
ready
limitless
emil
satisfy
february
match
overthink
ounce
pretend
c
aldub
conversation
pay
list
success
charity
christmas
extra
cry
chase
congrat
page
full
happy
twitter
hey
light
choice
beat
point
deserve
clean
glad
past
profile
opportunity
meet
hold
htt
baby
hope
stand
present
remember
star
celebrate
allow
lord
comment
mark
breakfast
word
love
event
spend
google
respect
fucker
tendency
media
ang
reason
exclusive
app
amaze
art
asf
white
book
defend
news
completely
gain
protect
shut
win
offer
suffer
deal
search
actor
interview
beauty
deep
legendary
join
if
tomorrow
drink
world
december
joke
hide
expansion
dream
nation
story
this
kim
goal
power
dare
lead
emotion
blog
send
daddy
hand
m
p
check
hard
tweet
order
ever
fuck
obama
guy
top
direction
night
think
thing
video
house
start
time
lol
lot
tell
hit
day
dont
right
talk
back
action
song
dog
feel
find
heart
nigga
make
relationship
people
update
eat
year
photo
leave
http
rich
read
today
call
shit
ass
run
girl
yall
what
play
fan
give
more
game
be
food
do
big
im
issue
it
break
me
na
boy
pretty
chance
friend
us
drop
life
yo
cool
car
lion
much
zayn
turn
d
f
h
i
chill
good
lady
understand
alright
crazy
wait
woman
queen
matter
have
question
gonna
tonight
biggest
girlfriend
stats
let
cut
pop
ppl
watch
shoot
vote
put
smart
desire
listen
part
you
happen
mind
die
take
bite
doesnt
goodbye
stream
man
film
true
fire
shower
fact
stay
inside
look
admin
money
forever
mom
fair
work
secret
fall
yeah
stop
guess
niall
sleep
saint
fast
couple
female
rice
truth
swear
college
future
screen
body
all
real
and
exo
gently
enemy
arm
black
ask
suck
mother
color
mood
show
perfume
now
election
case
phone
harry
wrong
dick
attention
bring
dr
she
class
ha
begin
change
fun
level
student
storage
head
pa
extremely
bro
omg
sum
liam
manager
one
confirm
th
ur
know
sing
cold
snapchat
teach
ya
wife
come
wear
out
brain
haha
reveal
sound
justice
taylor
proud
bitch
person
hair
follow
clinton
investment
result
l
the
subtle
blue
thang
w
y
googlewmc
krainboltgreene
torgue
tonne
romance
tmc
daredevil
million
hundred
too
syndrome
raven
peel
supernatural
pray
vishmayo
arizona
indulge
friday
bust
despite
booze
bible
cup
bracketill
cricketer
pamilya
lil
bias
weight
develop
jewish
painful
congratsus
funk
assassination
lahat
destroy
pang
titt
him
hodskin
major
bear
critical
herbal
encounter
knowledge
compare
business
gullus
ysr
possibly
blogindex
lather
santa
midnight
status
legislator
austin
url
rlly
solution
cunt
position
mess
hardcore
kidnapper
blockbuster
character
bank
keshium
flood
quality
tuktukus
handang
religious
barb
project
cameronbuharus
surprise
knock
sleepy
bath
mna
removal
jeff
humor
ghaffar
areece
foundation
mysterious
europe
finger
facebook
space
killcreatively
ill
manufacture
death
malayalam
flytenow
dogar
steam
prequel
mutha
score
version
handa
hungry
licker
hentaus
lightsaber
act
hesitate
scoop
sorry
rapist
message
ivy
aristotle
aguilum
trilogy
spot
brawl
remind
chardgel
honestly
meditate
meantime
meditation
nasty
goldblum
parenthood
badly
transponder
thought
jay
default
asl
reportedly
bomb
huge
onehand
schlonge
imagine
worst
shot
negative
central
war
african
aww
wcf
fkkkken
lowest
guard
dumbledore
bout
cloud
mraja
daily
job
billion
bieber
move
original
gator
album
momma
visit
vega
bar
giant
thanus
yayo
differentbroken
bc
prove
bl
battle
haunt
scare
justin
depress
skill
fresg
thankful
in
director
wth
announce
somebody
byecrystalmarie
lodhran
noodle
smh
lmao
kl
comfort
la
son
avocado
mr
uptown
lush
gryffindor
license
intelligent
zach
slytherin
eqmevn
sn
hillary
monster
oop
oracle
hint
corrupt
happythirdmonthsary
ronson
backtoback
goat
dark
regular
redownload
snail
corp
like
tax
messy
purpose
filthy
isaiah
challenge
unearth
sister
anybody
u
laugh
young
room
block
lame
leg
difference
pain
dad
pussy
mean
shock
whoop
miss
mad
forget
fish
bestie
lose
official
age
nothing
slow
meteor
florida
catch
care
older
rumor
parent
stupid
gang
sea
personality
sick
ig
high
feeling
uk
we
damn
create
ugly
here
regret
drama
nicely
tem
groom
require
latinx
sadlyparty
wind
unrealize
a
address
troll
blood
n
wipe
q
police
throw
standard
kbid
sisch
dominate
til
selfie
yesung
walker
colombium
prolly
colorism
wrestle
spoil
multiple
with
cancer
outlook
focus
entire
pee
quran
hate
gtl
wage
custody
propose
mewha
kinda
hater
cheat
delhus
cop
coz
earlier
employer
stock
realtime
tra
law
everyone
try
lake
soniagandhus
accidentally
intimidate
busy
theyr
burn
follower
probe
ply
cluster
pity
mute
forecast
cud
muslim
austrium
tear
attack
giveback
tamir
escape
convict
sherylwgina
yearold
till
lie
continue
basically
avenue
campus
prosecute
insufficient
guilty
hbo
memory
peru
newton
freak
yea
stronger
enhance
cuddle
shitty
engineer
pair
disney
prostate
hed
electoral
punitive
kalmadus
offence
season
struggle
gallery
supreme
muffin
lazy
angelo
anti
fries
blyther
means
january
small
doom
experience
suresh
ltd
temp
yna
interfere
account
instigate
beef
luv
shoutout
mifeeiing
killer
jump
korra
court
hoe
hop
awkwardly
oculus
outta
nonmuslim
ryan
dig
down
later
underwear
train
blame
endless
mist
ignore
diego
henry
although
asim
dogcatmeat
hus
khale
attempt
soon
traus
text
texa
gujarat
hindu
upset
unpleasant
mention
cult
member
herald
jharkhand
darth
allege
hahahah
unseen
laughter
constitution
repeat
vampire
abou
online
annoy
commit
scream
instagram
crash
patch
jajigger
yashpark
dvd
stepdad
rude
male
maternal
global
fade
dissue
dirty
stiff
instinct
techcrunch
barf
ruin
rough
beast
bruh
wonder
step
loss
relate
mph
vader
fail
tattoo
mate
math
privilege
telco
impotence
loui
zaheer
steal
jealous
trade
serial
polus
misinterpret
awful
sorta
quote
poor
diagnostic
bumbum
internally
rat
upgrade
trashy
community
untimely
guest
detail
profet
retire
sprite
scott
close
medically
weird
severe
ohio
insecure
need
often
jail
kindly
panther
income
geraldton
embrace
identify
copyright
movie
nab
nah
explode
tone
against
rift
mamba
urgently
sarah
ciara
burglary
jenny
tool
ginger
dumb
employment
minute
knavrist
babygirl
appetite
amendment
legend
shift
exp
remain
dispatcherwe
eye
grade
corruption
brooke
accuse
northwest
devin
malik
insane
cemetery
vice
supporter
kick
sarcasm
nake
through
castle
mccarter
debate
openly
mole
worse
rollin
distance
impose
wisconsin
duty
risk
grandma
oppressive
suicide
flake
portion
vehicle
confuse
wee
crus
kill
bore
engesium
board
arrest
constantly
threaten
rogue
microscope
stuffy
addy
sad
clown
diet
san
sap
increase
bae
robot
humidity
raunchy
cosmic
af
yaya
selfy
diff
ranchus
hurt
abuse
bf
groundus
dead
rape
foot
charge
set
founder
sex
medicine
voter
unfit
da
beg
dj
onikan
srgkljghklmarklh
dm
luke
contact
scary
which
ef
em
western
party
forgive
scheie
diddnt
plot
over
oau
implicate
lunatic
easily
reass
dint
jb
hello
ontarget
crystal
leech
ky
fuc
complete
communal
limit
coercive
officially
toxic
spc
ohh
lurk
disc
seal
matty
tiller
jaipur
berserker
of
loser
savage
fight
roundabout
om
on
homeless
srk
maple
stoppin
injure
horrible
gotta
denn
rd
emeto
islamabad
austinbmwrepair
sun
sb
current
si
disturb
storm
launch
craziest
boomerang
single
tf
bug
bum
regina
but
country
commercial
tv
epidemic
thin
demonstrate
deceive
infantry
kangin
fandom
slight
bye
eman
facetime
reach
childish
guyhad
hell
problem
hazard
maxmunus
weather
asleep
karkardooma
sexual
betty
flag
weak
place
aiin
suspect
apologize
hemming
bryson
massive
frontman
date
dress
argument
blow
tightin
tay
fraud
aint
line
aware
can
modulesfor
marriage
cat
nose
factory
confidently
leed
technically
passive
oroblem
racist
3.6957898216889866
3.6139668480851466
3.8684970511072914
4.171339208892148
4.08418965287327
3.5910820238875525
3.8193866364248135
3.5939512963390112
4.026884621975526
3.9128138286090937
3.956836036879763
3.7919964664889783
3.9515858307947456
4.050575658120394
3.5918462651622476
4.118084738886714
4.036960463302624
3.595024013429555
3.6009024955747075
3.6176994199504606
4.730638065075405
4.0081404511568035
4.480510226990226
3.600267587991111
3.6096138705198126
3.902306381796693
3.617864545386298
3.7792029267884653
4.2122488961611975
3.855949457953208
3.7028972864534504
3.608293191551503
3.5752826131636204
3.9200158831395244
3.5898620977529294
3.9658695878390606
3.891135409926904
3.9485435229522956
4.189880644547526
4.008032406490992
4.216672525636854
3.9580573504702588
4.400822735294491
3.9241999280720066
3.60229979724822
3.975571588201036
4.293794812067455
4.11027097587544
3.6066321081948822
4.2485287279073365
4.013172665363229
3.6185397971147113
3.588684675317636
3.9454770987853616
3.862722971026524
3.6191073191490273
3.9016253443074493
3.9407516775687386
4.734541587765801
3.775321345999146
4.332894346667299
3.942275036846641
3.943677547366555
3.967296301466426
3.619112277704696
4.11483652514989
4.428892121610759
3.9648347239437562
3.955101598537965
3.593009623218405
4.123902000802467
3.6180483317530463
3.6082486016238366
3.819216642274679
3.6179482959980547
3.958931414721062
3.830267575091468
3.603659115357851
4.0626906538839
4.127316255825642
3.898880791226805
4.0192913202735046
3.5913346619410724
3.751533676250788
3.7658181285346797
3.618017082084865
3.5987728913711234
3.601139569199961
3.9135551323154614
3.676305102555372
3.617157005300729
4.100419195181247
4.4903976556311145
4.279434029100884
3.9391387722496267
3.9576968938167045
3.620618440679684
3.6172399194201774
3.947431707038015
3.617963898507423
4.232422259318174
3.818943708886449
3.7043208979992923
3.841356521846877
3.7383941480597978
3.5703023792953563
3.958046661258366
3.6116730900376783
4.64117232169047
3.6040387668579195
4.589501029459532
3.605223507925771
4.219880501056917
4.434171634646183
4.17460197012857
3.9990144309558318
3.596230565307021
3.5890333903595706
3.956934086566346
3.946085243123974
3.604578643363031
3.860308919258423
3.7711888120067796
3.9476589760512026
4.019179087047053
4.005927783144442
3.5832097732580324
3.6026235597075322
4.523283877392752
3.9565632169860385
3.9218041351595465
3.5907351615290386
3.9825596682154862
3.573763777236336
3.612046510179508
3.6202342206160534
3.9569374623229034
3.936424462508365
4.199283460654942
4.592240955767067
4.1643089887894735
4.7835185991603915
5.30576009775776
3.7822091757285086
3.603712046868786
3.7745933304979378
3.706865001684928
3.6190826103699782
4.224064419485089
3.603657935824552
3.614498429344473
3.6113403122719014
3.886315743616858
3.9569342013557574
4.307958743482638
4.252462612862761
4.217110376737204
3.9582305901496224
4.673264897122415
3.9305245535745956
4.221130682498067
4.069516232531633
3.6015424521207917
3.5846771966801896
4.389171897358141
3.6023746215357098
3.844745143289105
3.957408138525326
3.75962788649681
3.727447556837922
3.557771640599488
4.25062325533057
3.9579279197396215
3.9569349015451296
3.9016253443074493
3.5932507383826486
3.8825734069533375
4.212789159427943
3.617704907058907
4.2199091288276005
3.605400079964456
4.056845600219824
3.8009257269902266
3.861145903539221
4.1074244649877
3.595505740244695
4.085914316079453
3.602411846134166
3.8683583750001542
4.563421593351926
4.111751087764826
3.967784590952001
4.2109172865507825
4.313516997567777
3.9314680851430213
4.076341882468064
3.596979747065512
4.283222359428822
3.6076591057893252
4.113271232201109
3.9569655439558655
4.124133072053885
3.858607851239884
3.9585733772233658
3.7653560468143112
3.821448534825726
3.9377378018716382
4.290727573669615
4.472747938861225
3.618254187302807
3.6036549585578816
3.5642688799838607
3.6172398585463346
4.5336282250643976
3.6044794003185023
3.5939413083783704
3.957153183772813
4.047660036299409
3.9574890283846527
3.5534407865631294
3.6020907520648904
3.920502098674216
3.960506639667294
3.9567294734560297
3.8479157662724632
3.7642397515937827
3.6002658727528094
4.048093965001167
4.973727281644954
3.618183471837771
3.7170823947621585
3.6624982670839192
3.9297191476193793
4.0715658830842765
4.249296770121335
3.963529899129915
4.017970169991196
3.8585962620247667
3.618283794367357
3.6185769522221047
3.596132013838951
3.7179644832622754
3.72937726481308
4.6885802732452
4.301925034635797
4.1323322809045555
4.435886984288656
3.618253283114509
3.9582305901496224
3.9523147423543334
3.6087900647063345
3.9440431145236348
4.130022063652806
3.604781345585653
4.0679052816519405
4.455430509577733
3.9379059649668253
4.357616676832108
4.2321208380205295
4.225904651000169
3.5985174822071992
3.9507913115958155
3.9582305901496224
3.744840706221131
3.759500057833212
3.6044607890959908
3.9458698750540186
3.9240021706289703
3.8366974318252334
3.934659505796362
3.9926387517725224
3.9589336765360237
3.8318722810850283
3.9630415815301343
4.410611521812512
3.6041558953634345
3.9582305901496224
3.940472600027365
4.553571506541982
4.22503048083865
3.605304145095448
3.958046661258366
4.25303776809725
3.617926698637285
3.60454451576766
3.957134157467397
3.588299908976407
3.6111278909198377
3.911848458552564
3.9573468947435937
3.7935648437585145
3.830267575091468
3.8380057468474216
3.799753013837311
3.615762477094611
4.305136557832938
3.909638255361121
3.853730072625428
3.956937029083489
3.609352749616278
3.6012972328018282
3.6177416736905665
3.950321319493557
3.596291188189191
3.9575054625662256
3.946992353364875
4.106302373542672
3.8382171673652667
3.8433670994963576
3.595382733743001
3.8340037550327435
3.9569341672448717
4.600428583087208
4.0174210678194235
3.75580642436435
4.434245343087411
3.9273480166558974
3.61871551309666
4.0621674894880195
3.7350106668763376
3.619101760906476
4.39570594521794
3.603659115357851
4.195118499925664
3.9314015332862717
5.275358266748239
3.8994999866368896
3.6036904872121363
3.617119471137671
3.9577005738199826
4.345497496851063
3.6172725076749233
3.9275322735368037
3.6041512513660106
3.938027883940232
3.757592630600161
3.5810803188402174
3.6062839262820736
3.993197157536741
4.916821801398171
3.6036600769311398
3.619680705382957
4.106734521065201
3.956934198764863
3.5803866298452762
3.591843467922075
3.602374189446545
4.25849834371219
3.61277009253818
3.5899307552385267
3.9516829192893126
3.9577182920171396
4.405351855864513
4.856694490434499
3.591099945964461
3.61089466738444
3.9456708020229856
4.097608607487633
4.349265579729897
4.241856105914337
3.6191150985069704
3.5969093807668435
3.940472600027365
4.076134115468007
3.6018446986544115
4.024715202127784
3.605871477599627
3.6062839262820736
4.108940414812059
3.596638820057658
4.346467192865661
3.8866925848018155
3.7881872982998983
3.84312730904366
3.9582305901496224
3.7763042537510563
3.6112618008727093
3.619461300025862
4.009261498160287
3.8272085347645475
5.225545484028526
4.512221753362455
3.604143179409984
4.669462273870558
3.7198273312520573
4.513896477930996
3.593758772552454
4.318226332690032
3.947051448071192
3.801783841376607
3.9667404047637205
3.568981192216325
3.606393679356362
4.085553620095202
3.6190823350512122
3.83604759223207
3.9596233704622463
3.9544160806772455
3.958085767673276
3.5597142405153033
3.610085357873995
3.9236081349558134
4.005428990821124
3.9314680851430213
3.9569070608631063
3.608328165976391
3.9569087509127874
4.524227121684674
4.396193729878171
3.6572240320649483
3.5789593746842328
3.884617947629624
4.268418073261304
4.885710470112723
3.5967426104881017
4.326244652881165
4.195018382452233
4.0051367518102685
3.9579504011899913
3.867670209904591
4.844639410520184
3.9679656947743136
4.183000572731865
3.958661635335001
4.150041053588463
3.8979526744463078
3.942874866839964
3.9206786832484966
4.058209376311417
3.6138239178059415
3.7029197988180655
3.967618223604851
4.096649737841706
3.608720092914647
4.036790338171395
3.617792956518504
3.598412443787026
3.6095826622808684
4.04275203028736
3.857374526782994
3.948619693620565
4.080302112340991
3.9754519941610273
3.9114227106462693
3.7387637918818193
3.5595000399981984
4.0155785801781585
3.841294087671565
3.953374529945591
3.8051172645023295
3.9943549371894966
4.159230907507128
3.9567992311266105
4.064623020340097
3.6175212390631435
3.6181256510327087
4.082672630198497
3.886370681147524
3.6137740378039775
4.267287900654265
4.532684082527827
3.9574890283846527
3.958271160861623
3.611408756289043
3.5830335716895076
4.0169316285528645
3.936301548243123
3.9391387722496267
3.9984283312896904
4.103221067387418
4.199283460654942
3.817703996257572
3.5945720159355288
4.064710826672478
4.530174942914638
3.6183835097748553
4.014772173624702
4.097360250046048
4.8619795999718525
3.9569243417294304
3.758828240246577
3.5913272042063356
3.590597536321399
4.74536473790778
4.485287416361176
3.9320898239884703
4.172470098077172
4.756556755491088
4.637039574041615
4.01488896978802
3.603714408651779
3.8540948481942108
3.6488797493031635
4.5336282250643976
4.139980102206364
4.734121674883023
3.9582305901496224
4.177633728335208
3.6014424879479963
3.613167093568118
3.980757361957988
4.025285621930338
4.321087026138509
3.5927364344703525
3.946503910001863
3.926498065646917
3.6183737050828197
4.103719297421418
3.6703516901404054
4.090377846196332
4.582216741104089
3.7571703627901916
3.8389183493201235
3.7320827298906876
4.061357528192899
3.753578022733085
3.5973681041790817
4.995107152645819
3.9579558686699126
3.926398491444978
4.103200745013917
4.123206611057119
3.931450991511309
4.08418965287327
4.275550455083066
3.77035520347318
3.756406554080281
4.557182551403149
3.9573611862787037
3.6059670896445546
3.6186325087767712
3.7938023439749924
3.601797025229293
3.617215265052993
4.054814000391557
4.060952315281265
3.58340680685481
3.752432017185282
4.465080899056714
4.017970169991196
4.076697652816306
3.7944782310644323
4.51989933642928
4.4484462951002035
4.438350465418545
3.858945970235769
3.9583704547984477
4.025419362957746
4.106486371904187
3.604040113987282
4.071617800437361
3.617335614192879
4.158658287863216
3.5812744541186197
4.9398348036014
4.298495231524843
4.392903293194834
4.329902715662682
3.9582305901496224
4.498641117839804
6.104335743098885
4.427619254239052
4.165465142231078
3.8417519009983723
4.733281455818938
3.6066351968778303
3.880965522371297
4.262494139104713
4.080302112340991
4.6921063178930424
4.487273370504825
3.758921357317738
3.6126352219415643
4.238341943609672
3.5965739357489768
3.761053830982947
4.0076033775577535
3.960521344235814
3.604133240764026
4.24037835648326
3.60216347312216
3.617961214654637
4.092455297379097
3.5958605146318408
3.713516731000066
3.9803345690563443
3.612998768750008
5.350712726359856
3.5868491945124124
3.6044607890959908
3.9582305901496224
3.897476159016963
3.933327641540269
3.9314680851430213
4.592240955767066
3.9582305901496224
3.8457375718056666
3.956930793160005
3.9390711522024238
3.619038299166736
3.601856975039506
4.3442216744943565
3.6199016765859424
3.5946182446429207
3.9531561322974356
3.6039943345516403
3.9422596394343055
4.594817208332657
3.9557690200833773
4.290727573669615
3.600596505965603
3.948348582935868
4.754946423947832
3.588299908976407
4.238341943609672
4.064710826672478
3.8208464962710424
3.9582305901496224
4.206652748341313
3.737905540995574
3.9569372444984707
3.5763181619540014
3.956937183195849
3.7405717225711994
4.337103122941049
3.703781210451311
3.8910684856688778
3.585002624495015
3.9574343298624894
3.6049065215663285
3.9297828830851955
3.957304395820022
3.967215166899625
3.6058243762914364
3.943124805334321
4.606875022248396
3.598732745487753
3.948928574770652
3.605717490602813
3.9571850783096303
3.603711979968385
3.587802692030458
3.7466092727425115
3.5765557533174075
4.28055984924536
3.821836950463075
3.9517289109815428
3.602400571238563
3.605620417607124
3.9390711522024238
3.9569128087170644
3.606384311603911
3.6179801682365755
3.79823281946567
4.354963148746202
3.8176841939581267
3.7680171533894598
3.8953256336481967
4.241502737165604
3.6000711670059666
3.9589561582558197
3.8984708199566342
3.602438395433898
3.8590334729342235
3.6043519478118937
3.573522180690781
3.949867382277443
4.7299933703862775
4.580586865444593
3.6105317876117455
3.9269873223011893
4.87260863695724
4.199283460654942
4.003956627148326
3.7430063448524233
3.575354995575434
3.957784826871586
4.744882778181258
3.5876704438252465
4.015778554171018
4.6731483222920644
3.575608279173974
3.9129971824653342
4.03579487937454
4.224326318406166
3.8268484630745494
3.5957770754288916
3.971679784074015
3.5824073086422095
4.369940655175234
3.8308784693581446
3.6181622707408785
3.7526758609462747
3.959103700072014
4.384012660100381
3.838838215899839
4.004674215280899
4.017970169991196
3.5982086384971055
3.654580379753689
4.121322738783158
3.6072250466873923
4.609241668731456
3.9484745669372967
4.576883616766449
3.619028795506952
3.942532285541758
4.302156744917038
3.5899049487538237
3.6194874599477607
3.945954352852575
3.6176878427642642
4.417389863629211
4.79521551936488
4.195018382452233
3.5905205023164815
3.600200082895475
3.5975168006137768
3.935572401709721
4.594208257484527
3.8286576731850617
4.295194098504822
3.8504638113517853
3.6195434401236
4.454582733665384
3.6016279527596478
3.6046820444974053
3.7554383596464573
4.106302373542672
4.719919495154511
4.109498797105446
3.591359668907311
3.6173294013776456
3.960835905346471
3.6172117670736315
4.412409345155649
3.6176910881732267
3.618136586153848
3.7493618286556094
3.9574890283846527
3.9498732309621287
4.423847515418896
4.6331288481187505
3.9389402926072514
3.9993490921089827
3.956873222460952
3.957659333163527
4.427619254239052
4.101509260620914
3.920170736143599
4.136635891576565
3.6181818899077776
3.6037128631489512
4.1415019571771765
3.7793652138020675
4.42969848354069
4.318226332690032
3.8403759395859067
4.769394238383076
3.5975851293146373
3.592992851572208
3.6192389553368907
3.6099073810680906
3.617812270797528
3.956885873517192
3.6126750658787783
4.155757144786996
3.6172885930300396
3.610046260805902
4.191284298885055
4.354436155712275
4.93868892000031
4.169829427894192
3.9569354236762115
3.765054243004059
4.070107112266837
3.6033797393975284
5.224899867013659
3.580324857885476
3.9125742272206017
4.513443202737818
4.319213123198604
4.15186289040379
3.6190186511575577
3.7633201252075406
3.973099520453239
3.5968737536684072
4.17431802582842
3.950096278044382
3.9315945756344512
3.8380092365628022
3.8303188727093556
4.1588228521086705
3.739392938520176
3.6036998256692883
4.0210566817688065
3.9569372444984707
4.8858164034307725
3.958032393707259
3.9767969668084997
3.9360354157810504
3.956885873517192
4.119946708956498
4.718929474290028
3.9442225017598203
3.664680021287486
3.7802640470590694
3.9515858307947456
3.91479755553018
3.9329725939513898
4.176847781057349
3.9569199791967176
2.522092251072675
3.231613611637292
2.4916544325787333
2.488364358598798
2.588774125664049
2.258652040989932
2.971091882570068
3.495438404949747
1.7795711333217752
2.756274469437064
2.2453623315329425
2.507387647692943
2.773948180478078
3.0557969611553184
3.23724645669433
2.44307322209138
2.6754782192696203
2.608332548995038
1.7534722634094622
3.074923018941234
2.7169547057960544
2.585425860402527
3.4846753857787607
3.1111799731774035
3.1287293807242786
2.0805058925417415
2.2450072670275647
3.0263470703026387
2.005364208767842
3.2752059254412353
3.2829159546913464
1.5033345366427848
2.9723153148184513
2.5382175523984194
3.1726793989224875
2.074806475014754
3.2376298194893782
2.1261568856011177
2.1229082548342717
3.0320002499534686
3.2563195589193494
1.9095779339607613
1.3042813241847095
3.339006861784391
3.0243537484143115
2.63539130539012
2.2252279901422956
2.957928953529241
3.5353514627382614
2.6925088559026067
3.423505575447288
2.5192696739792626
2.250247846456251
3.0651607792562596
3.0046142774694866
3.3964465342647605
2.465035884726067
2.6841923339820717
2.4453440017524164
2.7991385189235474
3.2210826945950566
2.6892360263716615
2.5548726344875137
3.6400414277176534
3.3023786569950593
2.095635711094192
3.6297788930628325
2.6150424217332375
3.2296879167783397
3.118583210176484
2.519226884827455
2.726883184541446
3.2058163597360254
2.4675861158009744
2.9021082502261244
2.4070962459912595
3.4992342700763004
3.0231067669305762
2.4052527688003726
3.408661348011226
2.8558361943361703
2.636947896379593
2.8062412461628665
2.696435871363879
3.3545321056587754
3.9005617033252724
3.23493312156375
3.3911330275087304
3.722742512309624
1.215638736576117
3.2965008792481933
2.57035818729426
2.9232481611124665
2.598641584117844
2.751158473018535
2.203942477878977
3.3027742142406478
3.1773863055026705
3.030358812475904
2.88964852696621
2.3247041584593005
2.7503072110047464
2.489288138856753
2.4608986541705464
2.4191712258302913
2.629215541378912
3.324313844132786
2.083479927585229
3.1521059590914167
2.8273106739385336
2.521292960008995
2.4995963732735786
2.773201246151839
2.608308883549201
2.998945161117497
3.1457603825064893
2.84625655787176
2.7709108609019215
3.103476723207777
2.3674227231956464
3.270442129129781
3.3428132481898465
2.9278888615985816
2.7934718432979024
2.336127121991366
3.4132726561324085
2.3819156500265253
2.382131645819367
2.7706750308430763
2.943999675112361
2.6703253079540827
2.4529703586882596
2.302530750721319
2.7030251567955528
2.7214245190776163
3.0480150192569377
3.3702379395556106
2.354851294792984
2.2197064829882134
3.433490840730129
3.012198300203709
2.4045909701712485
3.6169186706787966
3.206748564489365
1.9377772646924467
2.774854869028542
2.6128717514872535
3.144229664030833
3.6181635690794316
1.88848469566717
3.2959001871357065
3.2122421312050427
2.649481827619563
2.167746027791315
2.6409526627775106
2.9522159119636364
2.462326471288161
3.516654481992813
2.658196272422479
2.6465905265776835
3.1447804612867603
2.0408223836587536
3.4892087485879157
2.177158620738872
3.8622778311234334
3.87626919687961
3.260679752793859
3.8046973161390962
3.0881580396955894
2.1575316710399752
2.5079688339057977
2.494712808587932
3.1797119126156224
2.174334626288457
2.1721234067759636
2.9172280393385246
2.7208996484322485
3.118402661351006
2.5742327000268013
2.3693213113656313
2.323026177735857
2.70004063985801
2.775827434880725
3.0101004263530173
2.508413548367616
3.085930672487083
2.3271222806452005
2.7190473678233995
3.319004124810241
2.077937076220324
2.7888771015224556
3.332591315403691
2.2147873362291555
2.7272725464444836
2.8425196579599605
1.9298556278114556
2.3006023039294323
2.6633850559246115
0.34756982154015936
-0.17538186216857055
-0.37824464757163156
-0.17467802669904242
0.11957215737221105
0.18212051103187565
0.7754200494355284
-0.561025474385521
-1.3926128411841394
0.36521618540105993
-0.37385854576069816
-0.2683001159124745
0.15077691261023873
-0.8586223874124707
0.23865138114512274
-0.8391580762109119
0.21369537344949674
0.39499047756334704
-0.4509228214594915
0.4231945978885794
0.042413797747182014
0.09938712887603185
0.10815330529382988
-0.14532537247674437
-0.22674781663983823
-0.457289400176516
0.3701854367759292
-0.4397285566494793
-0.1943914763247837
0.35767288833845934
-0.732333344155635
-0.35772381053420765
0.605946623511342
-0.4734357369963885
0.6824537519408149
-0.9043451358871456
0.34541668028739225
-0.667564588545827
-0.030721090184571698
0.30850205843034917
-0.009652816793601748
-0.6054392673388218
0.033853450206938085
0.43026201613041115
-1.046616750820339
0.5970740896717948
-1.1699799331623408
-0.8712572058003447
0.4347237904220953
-0.1325385125414419
-1.2515989211663348
-1.5919451568607847
0.7076032154085825
-0.7240130723851684
0.17824223911104486
0.1904821681267661
-0.6070474638620681
0.4736500290881356
-0.5801212769992337
-0.4659743248736037
-1.5171637205830082
-1.0811397717905302
0.765199848104506
0.12197554012544887
0.34907638754793724
-0.6072263851734143
0.4699265807414512
-0.2095279798047962
-0.5349478342502152
0.48838220387209685
-0.5363186707191744
-0.3201489232705527
0.5228519044800013
-1.1371979214998849
-0.20782523272523257
-0.38116729188107423
-0.1491977432897562
0.3481174358247128
-0.7829954153272248
-0.48989348561510426
0.7016651034168343
0.09686669448485041
-0.09799758723761975
-0.011218612930581906
0.6264981407961318
-0.41565101555642703
-1.1665029426180054
0.04076418139314408
0.28364906741842233
-0.26653862402748263
-0.1018074190986662
0.17297189897909848
0.30853295516014667
0.33998117532365435
-0.0997589002409035
-0.3890307401182169
0.1741604589464516
-0.3524954668532094
0.06415893906827819
-1.14716153829032
0.04037340013957047
0.3895808284827027
0.6517653813588579
-0.4108717871346319
-1.3812599911300714
-2.040025112365659
0.5998700482085803
0.15726264403275003
0.5017951563362539
-0.6107639422462874
-0.5041172527342326
0.3463637309413661
-0.39867708145469105
-0.12095172999090753
0.34528764867578765
-0.6256683769953455
-0.07238060184322892
-0.49304082432025464
0.14528111044529046
0.3153432357668513
-1.221202735552386
-0.15505779024132715
0.673024673153622
0.4220004475173551
-0.27446827175067257
-0.5161376596337088
-0.10802681205312126
-0.3011060218784709
0.2734114184568448
0.035437036259374444
0.16311843483535715
-0.17439547826264257
0.4715976166597482
-0.15539643756680988
-0.9059238281982988
-0.620423967801622
0.720242097704731
-0.7505061622106756
0.6422269609647896
-0.7831931348752926
-1.3672617106575213
-0.23188885314981977
-0.7563818237895376
0.5441623417333536
-0.06895451193351221
-0.7649486344111508
0.41402105470221895
0.1322269574010434
0.39783726083655757
-1.0689493849477265
-0.4192120997408225
-0.3582898757638677
0.41169034581570485
0.2567089588150294
-0.21973514004558126
-0.16456178250963382
0.028474804201702897
-0.701822514113269
0.304275090025641
-0.3314596986062759
-0.22640588769869419
0.3316845342060143
-0.07047637433690124
0.1607230038420958
-0.011094004921475165
-1.6423939474294653
0.48471807425677926
0.10091672281863517
0.2846099570885863
-0.1712837710705949
-0.23313543242437018
0.5480855562044684
-0.2198226926147474
-0.9016044864262737
0.053793425301036035
0.4651155589470982
-0.6685524143406952
-0.6214899701945071
0.36766989477070994
0.2210265704412368
0.1070788734242396
-0.5549423598374915
0.2301832679872141
0.44513319759615044
-0.5698878515994976
-0.3345157520565466
-0.412376856784207
-0.1636122601095351
0.34351696065826154
-0.4135723304549782
0.6006368449930944
-1.4550224790024742
0.3999027499050003
-0.9382981932216606
-0.06047095768554889
-0.042913916638498084
0.1111368102496561
-0.004502976975797601
0.5977681773873313
-0.802697583386663
-1.4161052177642324
-0.7352969957656114
0.17781188530716385
0.24210117120269437
-0.16613756933497248
-1.0574678257492165
0.5114140587826976
-1.1344465888431485
0.6873808264782311
-0.384886793653088
-1.3045713330974276
0.10904367904962653
0.3766558102488027
0.22027604475194318
-0.4728390974897324
0.17333051944021438
-0.1542952985492051
-0.08280095123155196
0.24000647506817296
0.7085956845577357
-2.1651422487853718
-2.587785777101749
-0.7467775976385775
0.6707315539271559
-0.2908111276579917
-0.6099664841631417
-0.04664941453121241
0.39874821556425355
0.4525265573194861
-0.963781725708672
-0.17266076661548357
-0.6899325053321572
0.6209225225243677
-0.11158281980540485
-0.6484641524656971
0.5741801785764619
0.11359141298445752
0.49843112057102024
-0.6115460158357693
-0.6274960925249061
2.382778503058158
2.3837534987391624
3.4845671531626947
2.564329938317456
1.9164506129414
3.231540491753812
1.971709420953677
2.9859014898675436
2.6853810537941536
2.94832068616828
1.5070299865538896
3.0678180433830766
3.615472681036456
2.894555265059254
2.1653665206593833
3.2471544946119435
2.7068342571704895
2.68817560648782
2.9965561861739127
1.794017152840675
2.175819008452727
3.1568156116327017
3.1924529098461205
1.0680343533803103
2.4872817558957205
2.6374931923272404
3.049213810890434
2.5133331523568074
2.448264258852051
2.9414593669264604
3.147761545694639
1.3668741280333112
3.3155934560660363
2.4082452455228482
2.4347737880850717
2.8127239318011057
1.951750217197349
2.9870139176138726
3.1524941556780908
1.4498937468595314
2.820882894821529
1.8258530257023722
3.453556391033038
1.345098686152276
2.042395056449517
3.1998975159630922
2.0849912796051595
2.8643257210065185
2.490105903955161
2.544748765804508
2.204513747988469
2.6087832684633483
3.3851070534101178
2.9775544461423826
2.369079394366925
3.032054904715867
2.779289152372088
2.2956058638327064
2.90866246629606
2.832457328938321
2.971001471898737
2.4741328496794175
2.5106418920177034
2.490686114736901
2.8283904082664937
2.512536092389666
1.8932923349451463
2.9763611729234345
2.8915752938552424
2.7543130055802183
2.8916178634571166
2.185398777101218
2.8315163474107363
1.5966668769629393
2.813572016557468
2.5038420701061126
3.215338964074821
1.8167190346215967
3.0985581735141965
1.094235211834782
2.3050051062084345
3.3533807913096396
2.8616935841789553
3.4457424136633534
1.863237874886448
3.0786062604605746
3.3023013166378745
2.804732200307882
2.7429237563997866
2.682357143060237
2.883317253884754
2.2772742804036854
2.6990826562552708
2.842140768922553
2.4254748060214912
2.4616906161043275
3.1559841511351694
1.6998529673426799
1.697565774772705
2.7643872895278867
2.7252611078469853
3.5697726219226036
2.5096518266492214
2.498786235243228
1.8749081282433584
3.289867255959355
2.7277797921805575
2.5341530770340195
2.666976498984828
3.1216889411989293
3.2894526868842067
2.955673025024396
2.742272898656024
2.1412178481926705
2.490124296247446
2.5075065663906626
3.0529024591325515
2.662047401930939
3.20066012725301
2.300925930280542
0.9491254077064044
3.4837904342565107
2.4971225596407365
2.4938896380172566
2.844239733033481
2.1827599946781
2.508109775487651
3.039314941410264
2.8975258512073925
2.4995884035197524
2.3590623258256054
2.51617569566417
2.784026541657339
3.4669605729640747
2.102701589003737
3.573652448834085
3.479429928062604
3.085377507825991
2.0355067414125525
3.2477131801944963
2.985602811899564
2.1916828744104606
3.242877514291907
1.3953808579743443
2.8796811572716856
3.000205976780188
2.794683697277991
2.58377849861545
1.9165302804479776
3.089832259605086
2.1093882029978035
2.9471905512821137
2.656541163461815
4.092827685781948
2.1503443758345204
3.1302401340960433
2.480980644604959
2.3022383193926643
2.630956435148224
3.1397525919649407
2.921927678908646
2.975616665566684
2.3165036730395343
2.6138625992926094
2.042083813278833
3.2758863770547997
3.1613241786138406
2.7835871109423387
3.575724473759822
3.0501773195065685
2.9548652298628704
2.4716717892834055
2.244407172832816
3.1973689000670786
1.753998406595338
2.944421121175999
2.9393724948226017
1.6090618314079903
3.116967855770505
2.217423370969116
2.99527551630484
2.2385797432725942
2.3875656343449916
2.3804532120394484
2.6690860772665106
2.492445485017269
2.361484123431649
2.3540374152209167
3.4830996177186067
2.8062389831158057
2.6823542094036976
3.112912717514416
2.686286813725803
2.373690892357626
2.484734392437099
2.831073791003339
3.035688943010199
2.3046846637075724
1.4783066287106312
3.335433912833099
2.75098500728203
2.401996870833718
2.036807191552282
3.078090169162415
2.8262701484317323
2.5955537738890424
2.8222467379435408
2.6918635148768972
2.281889981430426
2.815375190874476
2.7998501955513833
1.7902253807099389
2.975095687076667
2.2086589847299183
2.4267646965325866
2.5796107161207424
2.9088977265375724
2.8579215860605083
2.6032320589692253
2.79575800896453
2.380823311684159
2.3360920928553006
3.1583388480905437
2.620437541221783
2.1147903825772074
2.6353878849030905
2.760545904955685
2.1356015376075295
3.4358725259220133
3.0492313242776756
2.8630832500213415
2.947665449539492
2.9782458603748863
2.324270223495515
3.2290096330599924
1.2551584990264821
2.660760070881836
2.53924995792251
2.115601297355132
2.895731615783239
2.362406688255367
2.378572905647315
1.9570797602977978
2.972701650014564
2.6845637079882327
2.6516920414835687
2.560572009646183
3.0177395380131653
2.4093554601172196
2.8352864527583197
3.1274333554415277
1.8068078067870046
3.2866032135332808
3.3329290880164786
1.6318280329927504
3.184498280961029
3.4742826945591228
2.856401107986639
2.495457185421555
2.492597767639952
1.7955301346127441
3.0431020148170695
3.267854704549012
1.3732990130972824
2.1091241983911835
2.9371682966216293
2.0408463161287926
3.0360346170288817
2.8510773093773043
1.8372943251133413
2.244157512859827
2.7464370966517864
2.5244499334872614
2.501183968974692
3.6187967024113368
2.1280246425041494
3.077123273243727
3.1692327852134876
2.669825953465143
2.677784565555253
2.2282203799737528
2.753366945357345
3.076791334197103
3.069013357168369
3.320619736888248
2.1722392688778647
2.934573456410579
2.053169815093744
3.565270827070323
2.6648807953810794
3.1502174490207038
1.8553218828224571
3.5760928163946994
3.7573357102516796
3.9034789649917703
4.722229190084468
3.9586217421473613
4.247908047398866
4.085297071435459
3.953407525333136
4.761432871064052
3.9586863458130854
3.943335455816788
4.40458313797601
3.6184998091210376
4.001614858093301
4.445181733895343
4.432110326278321
5.088579878355625
3.619346610101479
3.588791427476619
4.606436780321147
4.4375652399978085
5.134047485099009
3.5971546314773035
3.825119726422989
4.087950250109651
3.5812192695841882
4.637670711146661
3.620640050684063
4.178718843174341
4.434570584387553
4.768324876281719
4.407835212181459
4.5256955336216125
3.6973025575059717
3.9483098496932953
4.833724809984466
3.6212253911787795
4.265819999965689
3.9577145259941138
5.081152654457945
3.946709495527597
5.053869951121699
5.157312198991384
3.5605092221142747
4.047781955913475
4.375183897913636
4.1139847359429575
4.186197744537562
3.585816573368386
3.7320211452834897
3.84454007085645
3.6163571938844847
3.5965475942375065
4.195505633546805
3.91227064941681
3.6042951241288783
4.433289153458467
4.0844420914981985
3.6037119212351754
4.994229238472476
4.356010488258799
3.956780813625607
4.017824804517636
4.273422522250836
4.367434044335728
3.603619607424972
4.760778971363851
4.15276845179168
4.4099300557868855
4.093481232538084
4.303416552291778
4.930620850151059
3.938061934743535
4.447143453599876
4.995492733595965
4.212287080004338
3.873732134480892
4.062855689900684
3.5922200836695897
3.588888891737523
3.7887808710722157
3.9465795714394822
3.618159557320374
3.9193181935485426
4.763593860827241
4.6699746839346545
3.934195411496634
3.9569396928064613
4.981018764149374
4.261947871695078
4.796143759724405
3.8408339332689208
3.9423061021021
3.604732532601166
4.518853046752746
3.9169082890494904
3.79730881806326
4.5027383676660655
3.549142088842891
4.199570186128552
4.160022482068895
4.406285029660699
3.604672903195807
3.5915630457137424
3.620449844136302
4.3057272910956295
3.9498164904763264
4.661889895593229
4.090881201322416
4.404352845959264
4.400768109892832
4.246683757707029
4.587928216863603
3.6120812808511946
3.9569342039091158
4.059772950860702
3.663370287030494
3.7412473631764307
3.7433880713790506
4.6754401828126655
3.5901995741518187
4.705516223650967
3.9569342039091158
3.8284297153684848
3.910591311176937
4.103219119656363
5.32520730738506
3.5977635053958807
4.028221679359464
3.5816451053225085
3.9334820396442796
3.855452438004809
3.6172203309624855
4.216857934269354
4.007343172105791
4.251334051415511
3.910863345502534
4.244180150969344
4.235400800100563
4.237891757251816
3.9058461283702495
4.677252728529909
4.323228687652252
4.902661857674913
4.753541113519248
4.153725331525236
4.930866770144707
3.958751566919656
3.8280225750962873
3.9423061021021
4.204920030849086
3.956859808418436
4.565400533389707
3.956933489355084
4.335864127330974
4.373085230531121
4.807598471557912
4.409673680526109
4.640087693270394
4.049881228524232
4.524242142638423
3.617142186133022
3.9604056677075237
3.9433227872151693
3.757676380281191
4.5521222948646445
3.6037203073650743
3.8935317041114366
3.9434763840333944
3.6175557763538695
3.5784383196695955
4.5830357684498315
4.96881151745744
5.0049030057904
3.6077153299341105
4.067167166369245
3.6181846567110187
4.433914026333528
4.261536088967733
3.7529829189031636
4.1424964281286725
3.6195925557069284
3.600121735519534
3.8982266225509177
3.9587348156777598
4.689193541615972
3.998216508801833
5.123458093164842
4.670692145956256
3.751931104096454
3.6037119212351763
3.8827380401573706
3.915981050036175
3.8292224909496126
3.6181846567110187
3.9228363664477035
4.23784940228595
4.018986903847801
4.43557484069591
4.331059743305042
3.580133405849042
3.6196611612717318
3.84329533316755
3.95679343914894
4.5053538840325675
4.664033250476489
5.418853963826777
4.048396630395457
3.943275063572905
3.9253566071070436
3.5972477435643917
3.605778668072043
3.9574454984387097
3.924498724526007
3.5994363597292227
3.9619206766267494
4.0963112985103605
3.72858743666175
3.597710835439364
3.6181358679988724
4.263519822309558
3.9438930835530748
3.947774526049707
3.959005304031421
4.251846313524877
3.9659187207591877
3.9569401154170665
4.437205055017744
4.225946554186558
4.856635262015452
4.416004354954415
4.189757446025326
3.6057110377860213
5.022504839446495
4.180948734360326
3.950384197469708
3.579759480094876
3.603613649481286
4.89179587525312
4.117301612255813
4.02692788289789
3.5824864862699553
4.599815688996388
4.10502746798544
3.593231689394977
3.5916730712620075
2.9636637228570777
3.2698814879103013
3.052683074337198
2.163729343424621
3.437266579510598
3.2863434413037393
2.3748127267213053
3.727549238512167
1.5643068112369214
3.1859548158467472
3.398823233427523
2.3917716134485247
3.445641835687215
2.7920862434240417
2.500707211509231
2.487819230501251
2.837302813797379
2.9845710294116237
2.7371699030039194
3.2121779467507943
2.755761175001435
3.7177872455744394
2.462435358111886
3.1219528321049426
2.8959759135883534
2.4243432716644358
3.552817326187194
2.9370913326135
3.9775056083818394
3.8808285147279418
2.64013837281919
2.417536805365164
2.445560975825087
4.01947779421765
2.361539519669531
3.2974558234037676
2.8426191874111275
3.827414291521444
3.3237146900704992
2.278088507285625
4.314219967992623
4.207220985079841
1.483657656579895
3.405638545085082
3.0299531065864396
3.150685027601903
3.0539048910782554
2.9857684852303263
2.890326508528634
3.297976848988339
3.0025241560404576
3.182445194185642
3.344366571373716
3.8249232001940996
3.2551224210915977
3.403734649280989
2.4826457773795236
2.478596466155987
2.851246161966377
2.801016697025249
2.9632250423868567
3.2461111091553567
2.65091085237032
2.653278426782543
3.775683284542464
3.568953589003312
2.7354619489919854
2.8260889890203367
1.8162476279952804
2.7876094312411857
2.658269006974338
2.330604169935656
2.261958161463364
2.7327959904168013
3.412596320584362
4.357638461831543
3.0213891520908223
2.329094163994219
3.2809531642088348
3.1056792077752355
2.949829072794499
3.361818769930134
2.488175470449077
2.4908284022881735
3.461345947190429
2.9142500997996175
2.7937716244044837
2.717113924453226
2.761019474365578
3.3337475647997246
3.8864236687262874
4.47398472623489
2.898670532896504
3.3667160315959537
3.849497564201237
3.853540854606986
2.482771890434971
3.558954535271198
4.5344883885554745
3.8402038676628636
3.6187614428339585
3.5865171746737845
4.22301745459427
3.844043698813503
3.5871746140665413
4.311052187453303
3.929599913092275
3.5941308997640755
4.001927411820968
4.317607113117404
4.037564083990198
3.6200783035247337
3.9569342039091158
4.18198364674434
4.674887493073509
4.50004671034187
4.304003344690883
3.5989130367573345
4.199104971631259
3.956827589684344
3.9274497489923195
4.4945995918984645
3.575447004962496
3.8393320706063956
3.9668395734098483
3.619734861796845
3.865994447689914
3.5994247696208963
4.391021335104084
4.220364054316872
4.260128765814838
3.9404571076910595
4.568494188054958
4.687891061956348
4.60452922923638
4.423838106875941
4.255997767491003
4.000329452687148
3.6037120517017467
3.617088238378702
3.6181296758759482
3.60278803056578
4.420389756996244
4.100974015444487
4.202986933627352
3.592963655558842
3.870904995440757
3.595197900335344
3.9434617079105285
3.617275356502991
4.939176115698144
3.6037120517017467
4.6806573497029325
4.144389980042041
3.9381338813558284
3.945752865755952
3.584682737905629
3.956933872784423
4.077972114563349
4.420389756996244
3.9578777834837244
3.7090469950040323
4.049094244987571
4.008068064218094
3.589557414246838
3.93294565589859
4.001034410864255
4.953484820043742
3.940512371121769
4.7585020235218405
4.382707212942376
4.008717677718272
3.6037148545250854
4.1511852637335025
3.9531225083584163
4.42902325475709
3.948447276057421
3.583596968626531
3.9233009742141607
3.95677335427019
3.6034387247253257
3.6180896313213657
4.578194208452184
4.556793556872579
4.489785762108092
3.7944178339905688
3.93869753052409
3.9579027490453105
3.9569340623634717
3.922620536746374
3.603712058375289
3.657347856043857
3.6762303740660007
3.6049153066478925
4.348067849486596
3.9404786127097333
4.275884597869368
3.6039417589754112
4.2490012862848
4.5286850394353655
3.9594858076981327
5.348304796615988
3.7590741810476915
3.5930590609027733
4.001927411820968
3.5800174857888987
4.770260753305769
3.6192806311191723
3.956934198597547
3.6191423400965577
4.720340742091641
4.395815052361128
3.60659747019072
4.094304159459635
3.6136843519462394
3.5956786806557686
3.5782473512996633
4.3937001728551905
3.6007180402923167
3.9582587497945396
3.603716991598284
4.195784898025891
4.6318921283347985
3.95889047938428
3.6180576125878305
3.6027141594851018
3.699872793123842
3.815511994226112
3.5670135681225634
4.781630725754905
3.6086630342599433
4.5305902196349805
4.085420463055054
5.204200976414288
3.934430325550355
4.014132280318879
3.6046637866224938
4.147841511813716
3.868246344804165
4.072850079149089
3.962566740544547
4.0572665985095515
3.6037119212351763
3.9505458479277014
3.9845562451769494
3.946726601064519
4.003858528733504
4.841474446957557
4.395258744479502
3.9493593152749247
3.618181763056718
4.098491833465328
3.586060511554882
4.769942649469668
4.140022419169381
3.583492738721554
3.604252910631063
3.5888458628380175
4.4301808196070835
4.018708071647786
4.476406626264532
3.5743671419050678
3.6197634557864324
3.594839280610348
3.9569339599689677
3.836724304356275
4.946317445430602
4.0494587863872455
3.617266343610653
4.22593664159301
3.5772657064511884
3.6869600910150417
3.9903046977127916
4.145601927172153
3.9380887203022037
3.585737916392609
3.9597801658576235
3.6190590419898747
4.554486852862519
4.395815052361128
3.9245680976577733
5.0933007226267515
4.225811350810953
3.6015168744803447
3.9452818603333886
4.314228406974043
4.55084649017902
4.308704410647238
4.3631165195841035
3.5471692120476033
4.2903238337354255
4.946121929778514
3.6790973233770514
3.9381338813558284
3.6172106890609124
3.9574427913210517
3.9684039267856894
3.603712046958109
3.5826725424892456
3.6173276122125957
4.796719618896385
3.6173276122125966
4.769942649469668
4.50852171428552
3.6063435596471956
3.9569342039091158
3.6908267219411086
4.6423601778636465
4.946317445430602
5.012278397187918
3.8871492693844827
4.12542878956898
3.5942638231318544
3.9825632674377376
3.9277401158354217
4.371363802937665
3.565134674226725
3.8996012062044474
4.8785926063545135
3.9340100722276183
3.8820456620582657
4.229034851032602
3.6187780565762924
3.956934198762249
4.140841939747396
3.605246353113158
5.141931806147576
4.104653822346005
3.5985130787012944
3.867053547822508
3.9585868395679715
3.9488264661614343
4.412994347371578
3.9457097054835573
3.95685651164013
3.752946826561486
3.9568112351527267
3.9428875319884815
3.926050294175661
5.063541031054287
5.58118544941547
3.8473885122910874
3.93621107054959
4.670281366480452
4.405965977270697
3.618181763056718
3.6133410120200518
4.531397113755321
3.9185264659169876
3.959056372950585
3.5869959467933956
3.6207612435096577
4.258690707618255
3.591303401616952
3.6191767350782817
3.943090829597174
4.304590451617609
4.4613754340942515
3.5870209904998402
3.6037120517017467
4.134644607757822
4.279657760204262
3.9341425948161746
3.9261892725351593
3.603712046958109
3.6181296758759482
3.9969739717204478
3.9537810907805224
4.187387850487027
3.956745979090657
3.601850712195298
4.400424250835437
3.6172203309624855
4.205828610947948
3.9582339760737715
4.22161662738039
3.9185264659169876
3.5969479684621186
4.552013404987435
3.605479613470659
3.5869959467933956
4.094421874494147
3.956934198597547
3.9585710864096653
3.6181818870961786
4.189254968236743
4.330581675889248
3.6037148545250854
3.596323531710845
3.958180024283055
4.547978114582433
4.264517458748646
4.114386894732883
3.604638046300999
4.442467774484372
4.367016123615991
3.9568505240425598
4.170334111833767
3.6027682949654554
3.8993394034124718
4.185994562990859
3.916279570522633
4.136891969180484
4.592240955767069
3.61176592821911
4.1895599541318935
3.6598814650529263
3.9605582497298863
3.9656277214997577
3.7701100431121084
3.604897984731532
3.9955830824352736
3.6176536462069566
3.559009836792981
4.330581675889248
3.956897098555559
3.60371875931608
3.6037009288421125
3.6193084544806657
3.9322623504927483
4.000203208372587
3.669864500417578
3.6181817630567186
3.5798079714265816
3.9467812580468613
4.661080208856411
4.488192195899039
4.059906290712792
3.958180024283055
3.950050171253872
3.5932586499409407
4.1311703997435325
3.931589567975546
4.2940873643640165
3.95766717208177
4.50273392899436
4.101269071300143
3.771656634635278
4.558072403371334
4.043101876511433
4.026175739662844
4.620706593715621
4.221298967059962
3.95885163356098
4.094947459126941
3.617275356502991
4.092228091142459
3.6045948648011534
4.297822926812509
3.7157537376197687
4.01335269896777
4.34091002413785
3.7454380470699555
3.9467812580468613
4.015028686444748
5.152920095290528
4.547567863657572
3.9495091656966763
3.617308277851447
3.5775239033829007
4.256129855711078
4.070432339188049
3.7785475764616394
3.9389246950068877
4.720340742091641
3.6181815932817907
3.6181846567110205
3.778181552283371
4.442909516747957
3.5989207658284865
3.9118300006229703
3.590062328308059
4.304956720103295
4.218680363239767
3.9578777834837244
3.928521244244525
3.956874813253924
3.8639826321568806
3.956934198597547
4.011805039767669
3.719171118197034
3.9569340623634717
4.296669791620629
4.120387078354435
5.020301842276642
4.071397777288328
3.599904780479285
3.945087221665105
3.5949035084537604
3.9150225206920557
4.036661497009083
3.597589619532767
4.35172261354094
3.934842526912703
5.21749531325216
4.924979613542973
4.8125114826276025
4.288543477658645
3.6037119212351763
4.041779065623217
4.0477942103319275
3.595444087637485
4.2206519673381075
3.5910045060239044
3.6183073214181922
4.078328536993167
4.231442448945182
3.5602680440330037
3.617272584451581
3.9952604685431594
3.9422850472355515
4.592240955767069
3.617279002896092
3.9569341983611874
3.960286933164084
4.0962203268483925
3.929286536797154
4.001927411820968
3.9530943677026267
4.347375020926975
4.117785540823945
3.8563074706129035
3.5898987143068632
3.570449735352895
4.559283104931133
3.9387666767706193
3.7567921093000685
3.6084949299523945
3.767409269054691
3.7626858237886203
4.760223685978847
4.6277200395568485
3.5676824769974855
3.59896445111937
3.9541944595729297
3.617171050917222
3.6059660078986178
3.997587481029199
3.783150139854544
3.9878589313361843
4.006820283930513
3.6076273558945284
3.8569022285108217
3.6181846567110205
4.273046239157039
3.582648554975937
4.219735675451774
3.7492518997638076
4.138171235713939
4.40460401078967
4.4012394949252505
3.9190495805178998
3.963937675456626
4.69987964608344
4.363083915642018
3.6181818870961786
3.617275356502992
3.603712051701746
4.093509011138342
3.588465011747813
4.038354272756027
3.946488199153076
3.602156482867709
3.974399837162464
3.6711621890546486
3.8544647218754324
3.6612826377240206
4.1006933885654
3.9601841148885515
4.389072146311992
4.352850193168196
3.6173245874955557
3.956934198597547
3.877124263264414
4.308288607389749
3.7623452185949118
3.605995772823019
4.374671104391921
3.784178188627959
4.907693125690966
4.143011902605909
3.6018046521859626
3.618610506192103
4.316063904785892
3.999128017990026
3.933922171007137
3.9549600149780604
3.61020011633447
3.7274438177339446
4.397486293175443
4.595874312318134
5.445810016559432
3.602536474735553
3.935284505386039
3.7864971305889314
4.228968822371598
3.6181817630567177
3.68805461581299
3.8366921908362492
3.617275356502991
3.594993276325493
4.873305352630095
3.5833143479133582
3.586966988418494
3.807093760475592
4.0814573043687
3.8154020087006626
3.9866415838756533
3.617272584451581
3.940775897705831
