GIS
1
0.0
2
pos
neg
3
19 0
1 0 1
34 1
54
happy
type
good
vic
oooooh
gotta
work
*enters
tl*
6
7
birthday
love
boss
austin
power
set
people
morn
be
aww
die
hus
feel
yeah
dp
han
day
you
girl
christmas
1
niall
position
hello
favorite
much
color
zayn
harry
we
miss
congrat
hair
liam
5/5
direction
loui
sy
cool
one
i
solo
s
1.4027499040583649
1.070587822110055
0.8755129126487007
1.070587822110055
2.1287067802199893
1.070587822110055
1.070587822110055
0.8755129126487007
0.8755129126487007
1.070587822110055
1.070587822110055
1.4027499040583649
1.070587822110055
1.070587822110055
1.4027499040583649
1.4027499040583649
1.3967663304847944
1.070587822110055
0.8755129126487007
0.8091799995769514
-0.7108061851353927
0.5711971076515335
0.41153757919587497
0.6623926412548581
0.6019748743344433
0.6623926412548581
0.41153757919587497
0.41153757919587497
0.6174285103263629
0.6623926412548579
0.41153757919587497
0.6640523671273642
0.6640523671273643
0.5027035465938556
0.5711971076515335
0.5027035465938556
0.41153757919587497
0.6623926412548581
0.4115375791958748
0.5027035465938556
0.5027035465938556
0.5027035465938556
0.5814542133084656
0.5711971076515335
0.41153757919587497
0.5027035465938556
0.5027035465938556
0.5027035465938556
0.5027035465938556
0.6640523671273643
0.41153757919587497
0.5027035465938556
0.5711971076515335
0.41153757919587497
0.41153757919587497
