GIS
1
0.0
2
pos
neg
3
323 0
129 0 1
183 1
635
saved
year
quickest
boys
youu
without
via
themes
score
bar
christmases
because
moving
shouldve
beer
smiley
sure
af
reva
court
an
stop
plans
trans
accs
giveaways
bc
gracias
whos
zayn
least
turn
hot
youre
see
extinction
connect
develops
set
c
d
ahhhh
k
blood
aldub
straight
awesome
sale
taught
w
days
thank
thx
thaaank
dm
promise
good
wish
du
wise
contact
rare
justin
wow
which
making
tamika
test
smfh
deedeepmelissadsahenettebfl
http
incase
fd
party
trust
young
parade
barbie
watching
ft
sorry
aunt
patrick
vow
notice
over
nightsweet
htt
solo
tweet
babe
unf
heyy
better
shannnnnnnnnnnnn
baby
well
family
swear
makasihh
college
romance
lunch
crowd
exhausted
channel
ht
hope
gosh
maiden
https
wowjust
literally
ever
loving
bringing
driver
texted
vintage
spot
ughhh
impression
john
bull
thats
queen
soonest
world
hopefully
decisions
stand
everything
map
italy
elegant
together
meng
retweet
gonna
filled
bless
off
mbf
pycbunnies
tonight
lo
sign
lets
pic
liked
smile
patroclus
high
ma
homebound
sos
claim
achilles
likes
always
level
follows
followers
dream
were
try
awww
problems
nw
yearend
best
around
times
kak
today
beth
row
partying
op
or
waving
drew
bury
nation
shift
granted
helen
beautiful
worked
dayyy
thinks
based
them
then
piss
something
eye
rude
coex
jbh
rings
doctors
rt
maybe
screenshot
cute
se
came
free
gives
storm
people
such
tf
watch
grabe
feelings
wooow
folowback
sila
till
engagement
castle
wished
had
gooood
han
basically
has
us
last
sucker
look
yall
worst
next
father
update
video
yesterday
hahaha
every
hellow
freshyyyy
again
yet
damn
what
hype
youll
ya
during
movies
anxious
fam
fav
asleep
okay
floral
having
work
come
push
knowing
favorite
scared
refki
grandpa
enjoy
oomf
our
gain
linguistic
promo
fall
copy
power
clarissa
prob
facebook
cool
kill
nice
happened
encountered
certain
perfect
bibimbap
own
experience
merry
sistas
beat
stressing
rain
cave
ill
sent
both
birthdayyy
bornday
ily
ima
send
daughter
dont
who
youtube
amedori
week
headass
deserves
car
mentioned
contestants
win
lasagna
bieber
will
bebe
follow
afternoon
diamond

been
bad
your
would
you
at
left
trying
aw
much
be
how
same
by
after
a
i
the
u
god
do
got
its
she
never
ninja
for
back
miss
hard
just
sir
message
with
dude
he
very
movie
swaggy
thanks
else
if
im
in
made
nothing
tomorrow
is
it
wait
fuck
too
have
man
emoji
feel
second
that
me
all
everyone
already
my
christmas
birthday
no
cause
and
of
oh
make
on
cry
any
ring
about
episode
they
goals
night
want
omg
are
so
think
though
one
stay
th
to
thing
but
cant
amazing
leaves
late
up
this
please
girl
away
we
not
way
happy
when
her
lost
give
still
didnt
love
lol
get
more
tell
his
only
from
day
like
keep
here
why
can
deserve
sehun
really
allah
siblings
half
jahat
bae
hall
these
ugh
record
bunny
going
angry
fluketeerapatl
am
as
biiii
soooo
hurt
isnt
strong
talking
sleep
arrived
dear
emotional
photo
weird
x
sweet
sometimes
joey
jus
talk
female
need
chm
preciate
phoxad
santa
sayin
go
home
truth
ha
hue
fresh
bummer
hi
invincible
tried
hate
being
other
woman
boyfriend
mac
totes
minghao
theres
member
lmao
stephens
honestly
break
could
positive
rlly
powerful
xxx
pitbulls
use
seats
wake
fine
members
nasty
rindu
matthew
new
film
throws
ungenza
flaws
ni
behind
student
working
saddest
ano
cousin
scuppered
bonang
thought
anywhere
friend
let
breaking
forgiveness
bromance
figuring
appreciated
yoonmin
highlighters
feels
slopes
taken
relationship
makes
pandora
call
calm
face
showed
ask
buying
through
mother
disappointed
lit
shoot
ur
those
flattered
wont
opo
jimin
failure
everywhere
slept
know
lord
kid
show
impossible
life
anything
normal
was
short
window
rosie
whole
crush
whoever
hes
weather
princess
van
lose
agree
word
out
couldnt
blocked
great
help
ended
alot
first
date
before
dad
hit
hoshi
discover
kind
minutes
laughed
done
most
ajose
person
drinks
laughs
powder
sad
compliment
said
depressing
yoongi
saw
someone
mean
3.3641812163078355
3.8429081662074696
4.252186433777659
3.3145644230563756
3.3077786965525515
3.701617881241414
3.247924257136561
3.2978872706997926
3.157173349483886
3.565367495213784
3.4875224461180827
3.709066655526148
3.3215668555484577
3.6294790866171693
3.009991018726834
3.2286571134994806
3.6296085530697635
4.357540675050103
3.9124981938103085
3.3054736611960993
3.41368842081711
4.647546607145605
3.312982810006078
3.336889781903727
3.3185684422482065
3.665813832366179
3.3228126499271404
3.019470074244718
3.8751618389095044
3.9958213664708007
3.747284083327688
3.085439244986336
3.7208684628589483
3.2900157978810607
3.6876531578734557
3.5342630131558277
3.7498291425570347
4.5963676471101
3.8628328177978384
3.3319724731148455
3.5654363490990653
4.677450733271213
3.0263697043545807
3.162847882626372
3.421567107371212
4.59789290517394
3.919441706112096
3.482803265258135
3.404225332585166
3.5753440026095196
3.10852748081743
3.593761287807025
3.5628383643222317
3.2452616390783655
3.419201985935792
3.9996141470535918
3.6454870594963893
3.6185121362488744
3.2009572031216638
3.5328674493092853
3.561641871679943
3.222263229820686
3.8869318663919965
3.3145644230563756
3.2232919208076782
3.7565808481102776
3.6992087818460195
4.290616376525136
3.306834955181806
3.5342630131558277
3.7092130710824662
4.18167502873207
3.2856366194950786
3.447215557095077
3.5160790021705797
3.061843704098131
3.262101107452681
4.35513776548575
3.316301148248786
3.307551022177891
3.5102814049489766
3.52938547001397
3.0132672759516748
3.9632804774100996
4.744967371011539
3.4418650546776997
3.318858268340441
3.5342630131558277
3.356179414812151
3.875765586853234
4.1345856426329295
3.5529368234230936
3.912498193810309
3.4507799451713383
3.025375979449655
3.0171635266103456
3.942267756473181
3.5180029926376384
3.8015101425674738
3.2081972174094755
3.5718650679018062
3.307378349622395
3.1907980923854193
3.639439193208154
3.4828424487117924
3.5495466634401396
3.5342630131558277
3.8587057102720306
3.5212238227536705
3.3244899293010897
3.2990369111096896
3.318858268340441
3.7253660985034593
3.0342154428423767
3.5267712426410207
3.326668745294197
2.9925863437290565
3.584030302696713
3.2070511020395136
3.467688858099407
3.280020131681158
3.18417453191884
3.336532763977684
3.3384829319059417
3.2546859435237985
3.048290111514363
3.912498193810309
3.639439193208154
2.9893109580972803
3.309166112084621
3.9759294436167156
3.5799437548067865
3.3646502196119634
3.774160890908348
3.0351261487796517
3.356011749761368
3.509441733892885
3.391138105588852
3.759696003168904
3.6821094502599347
3.3728321858290453
3.549077412611915
3.2086870325442036
3.5695728607778703
3.578453279228426
3.1695769353269343
3.497983692692221
3.438951090213526
3.330590405079902
3.4842306667314817
3.5673661847486815
3.4171058938064744
3.20449446898499
3.421649086044775
3.8128732590726404
3.2212978205186413
3.2525291159137835
3.413126269751179
3.352636156918916
4.085908478722248
3.3078330281322272
3.285940738170032
3.042229733442385
3.318858268340441
3.0073067081862668
3.506611612767945
3.326581595030001
3.5639628816091555
3.276764464487022
3.204631349053823
3.5266017557358165
3.4279488816758352
3.40073058507175
3.328961629255893
4.626779256558866
3.9958213664708007
3.8924063089467698
3.306849500623363
3.0022322458026474
2.9983523360227293
3.1419849668076476
3.7667756269977435
3.5062705827633107
3.552920848498254
3.2955310804687246
3.308291062616214
3.1856649410684534
3.5277724196251463
4.014461592705045
3.5180029926376384
3.0107047540478513
3.127557192647666
3.6296085530697635
3.2140327962316526
3.679559850634757
3.003087349064323
3.1991437929372784
3.983793939671273
4.25459134489378
3.2604962766672605
3.044458236939272
3.0010639635147776
3.4541834895339374
3.3376436840624137
3.9477031771235738
4.2164653181776375
3.0326050317658537
3.337091349084934
3.256328757442256
4.178116996835136
3.639439193208154
4.206669351185969
3.6945772093324303
3.577157226160267
3.7249508372172073
3.2081972174094755
3.2637744853418633
3.318858268340441
3.318858268340441
3.328961629255893
3.9327449107589
3.027594476905338
4.009360679240116
3.570971166315257
3.8924063089467698
3.970077204292971
3.070186186057746
3.9164941452911837
3.460013569063256
3.497017788264501
3.323008757989827
3.7165429490515702
3.5974159061688016
4.45612619524335
3.639439193208154
3.4598096435333496
3.751249548976944
3.336889781903727
3.2678089355585285
3.3376400990640818
3.1996882917209426
4.006748438832243
3.318858268340441
3.912498193810309
3.719252545311016
3.032360265822939
3.7667791911656394
3.6424340237263144
3.7327384097618745
4.133387601449837
3.9598509893699507
3.761453689193495
3.0197410963259945
3.5096032937713733
3.4525754477479764
3.297758368234234
3.3166964522317715
3.711157286390791
3.683465625464457
3.5397122088184783
3.665813832366179
3.022538848039745
3.375835268761901
4.30536255860542
3.5316940351588912
3.6131539052811057
3.572129196830545
3.4640108705808688
3.511118284715635
3.679743873999249
3.220766204317785
3.5020268287366436
3.537810579649771
3.526795584051619
3.339207262533305
3.7823702386492797
3.574394832238113
3.679743873999249
3.6269135799462875
3.0116083900903545
3.9333059181189496
3.2372017175798145
3.63363835923581
3.7092130710824662
3.547519042697127
3.7209201006146655
3.3342703372247318
3.2859291446650265
3.503461477877915
3.53801138301162
3.653095342179957
3.330538032938514
3.392140502295325
3.814016253058925
3.912498193810309
3.7815912367969933
3.5458915080162496
3.502185082535713
4.090340040432321
3.3138040716779145
2.996564355042511
3.5342630131558277
3.5419579929893334
3.3769724622474326
3.8778398345955116
3.645710030185894
3.8303596925708403
3.521549321721675
3.356684804186979
4.025852995309076
3.5342630131558277
4.065588489769986
3.639439193208154
3.482317460951829
3.1806940022191474
4.084686164346721
3.8924063089467698
3.0024989099079837
3.5729197770699797
3.686291975608758
3.618446119642316
3.302471021042116
3.2885299780500405
0.3340380475745821
-0.6896770605659637
-0.04951256169459228
0.05377443072906618
0.08451642835631634
-0.09943655379695715
0.3210469321986529
-0.7213005755017281
0.06452978859715153
-0.06318224023298613
0.2948335245036833
-0.5728846198207653
-0.21479734044953225
0.21706361868535895
-0.3244752625340227
0.3410398210186483
-0.5806196764239131
0.3448583635271629
-0.23186405016418665
0.2358451752691339
0.21528851487249923
-0.32138077912506846
0.12940346019160942
-0.16326865125136925
-0.756314939320104
0.33138468719460423
-0.42712792017663526
0.44950469648836244
0.17088616933988932
-0.16887031350415904
0.3669766057168471
-0.625563173307085
0.016258463235186538
-0.013745496497700405
-0.08983132305088626
0.07976897727785737
0.23778020199084726
-0.4098009682749366
0.36871032384290026
-0.637823455160773
0.3383391237583231
-0.7921712730923276
0.27037947176545907
-0.4478014907204704
0.256545362995797
-0.25051900321582
0.2704660071772722
-0.4662993963617377
-0.38582457878534115
0.41076751138707696
0.048152724408198955
-0.034852219739980206
0.2633324640011466
-0.4787732429095125
0.25597459805672806
-0.4368945219028848
0.27194582941594136
-0.5055132159554678
-1.8878234485097676
0.47637658289659934
0.33500857456497224
-0.8168116303966653
-0.7694177848080046
0.38352291430847973
0.4514022530906382
-0.6197079019657452
-0.03564317211108875
0.03572162004189927
0.10891198503999955
-0.13231528666609704
-0.048874980525919876
0.04984355787524608
0.3414012527523385
-0.46872822104169043
0.07911513312376761
-0.0786611516023884
-1.0915170133173584
0.4892429894120085
0.15220872261441953
-0.2102524478754383
-0.6951325756504175
0.7411923802216751
-0.011161080079334584
0.024998911920759093
0.2965146787555215
-0.6187948048583782
0.22476377921480384
-0.2988304293707995
0.2026533410711009
-0.31466063345152673
-0.043619010614807774
0.04386114384266848
0.33561576142008875
-0.329758463879152
-0.398465082838276
0.40653312935925845
0.2211923934974953
-0.33205765316205604
0.20906447510050952
-0.29707207729853047
-0.3301335216190585
0.339234775557011
0.2976964658297834
-0.5734192592537579
0.3888137081644354
-1.3036137993712473
0.2757942401930342
-0.44517126557828846
-0.2517168614419165
0.2612986532289614
-0.4156417227019473
0.30451587545647746
-1.0128785147629373
0.41822941267456315
-0.29943912405952855
0.3087566680260829
-0.42445871496626697
0.3152816246156589
-0.03847668449022312
0.044410675063681015
0.047277336000211445
-0.0484423625255197
-0.03605109534971285
0.061592191312330735
0.6079334499048006
-0.5763612760792304
0.04611286596621267
-0.04402494048908845
0.05652360902541065
-0.061062315166326986
0.3088123961156388
-0.7527503184556409
0.19003086513317213
-0.2863934297210071
-0.7524844744483924
0.4544655178364698
0.34953968830474014
-0.7719028542890005
0.22481622410523805
-0.32886825159821953
-0.3143819091311376
0.2392865766749983
0.02155389940335506
-0.005314027199017857
0.3629727046377791
-0.9345836580256424
-0.9419341476531466
0.5430194031134523
-0.1766007421473318
0.17822299117140994
-0.16439209208257577
0.16728651365060676
-0.24102539980497473
0.18321286688890548
0.127350497306416
-0.12616489772248118
0.3791461578009452
-0.8293721936867091
0.2871766019793188
-0.39366741387401527
-0.0850003544236525
0.19286606142271945
0.171205592543882
-0.25090461069078307
-0.6699225908582531
0.4930583325547309
0.4580556209727005
-1.630513345358159
-0.07102716060230518
0.07564047850980304
-0.31091571333777246
0.3255217631555557
0.290674464332062
-0.473939943422989
0.4492948712440106
-1.394208133825121
-0.5824065028334835
0.42435293088341164
-0.39316704438376304
0.6456264398455059
0.07441888198835422
-0.08249400148969088
0.19527005231315864
-0.27290764276840684
0.3876253513993124
-0.7675897187337051
0.28825621311073646
-0.3540774309201571
0.2200926232442314
-0.35704833531834124
-0.13601563220662327
0.13856752468904887
-0.6397184044251024
0.4686794443269249
0.4976405838888611
-1.456381370973903
0.059625028221565124
-0.06473652428917465
-1.270749603339647
0.4898361197466703
-0.037308076246129085
0.03844455635157307
0.1817014069695727
-0.25421739294190604
0.4269469761275184
-0.8624417475026644
0.48587768763950745
-1.1389693938279755
-0.3268997746877941
0.3453395112675644
0.395806157961075
-1.8014533667654151
0.0393290472090333
-0.036301842902902726
-0.6581040176549638
0.33282696026168224
-1.3841233021972195
0.5206798515694251
0.1294204886531236
-0.12614749098737787
-0.4330620138590644
0.46134328407930075
-0.20629004741325174
0.15806328926174928
0.30122793574209417
-0.5264782783918076
0.44595210595729523
-0.6184601441693784
0.13682786081036835
-0.1309748601859212
0.41160946672792864
-1.1480485728693444
0.019298888495841826
-0.019200907891994135
-0.39023045231675557
0.2870642809246007
-1.2348485290280728
0.5452268674408802
0.18641231479747988
-0.18435015056099502
0.5486547132700259
-0.9711393722852227
0.3682598110701052
-0.8671240653844693
0.3351589455057623
-0.3279847526182822
-0.0230512367266823
0.033216272215052633
-1.128730584576609
0.4610019316704286
-0.13891931308151084
0.1750271486501006
0.14358540401886832
-0.19640931764929226
0.29316251209230093
-0.2874860925930709
-1.3597184697997051
0.5024893860481311
4.207650427799825
3.6867627297732017
3.600770166062511
3.912498193810309
3.1521501623385975
4.279638356179908
4.169038528119647
3.2781554237588346
3.790998157924858
3.028944610617504
4.635771289737592
4.208359563481741
4.340698413231179
4.478695914888479
3.796721506169849
4.145319589446835
4.047361515871112
3.755538972857258
3.6657487762487184
4.042933493549052
3.509493380643628
3.7959407517070707
3.9008079423777238
3.3388778739541736
4.389526112878418
3.575387876399475
3.433648932247988
3.0286960925033766
3.8459250133255005
3.83525284974904
4.0511174494836375
3.0124652340548095
4.652059955194083
3.6576493551645632
3.5576010529036424
3.9444202828238115
4.1659096189334495
3.636372026995443
3.071843003765994
3.0290773140281493
4.295980455040687
4.259019916331469
3.3683302459446036
4.132258867490308
4.1035699297914725
3.8273913696671253
3.9330234455678905
3.3355441463550877
4.4345093367493025
3.58026684511808
3.851033263346524
3.8091777670322133
4.1497432225250535
3.9330234455678905
4.302714833962478
3.882802860242568
4.2505995402917245
3.3355716546181866
4.652689004533686
3.653711721677974
4.21871002033111
4.749166228809421
4.258008659472771
4.329889253598811
4.086769877994223
4.499017196016377
3.3061279043810177
3.6215701368224757
3.2875157988229566
5.304567702473322
3.999300901250882
4.218469124006449
5.013452570541675
4.168484838058018
3.8168945496671225
4.173336253977886
3.8839140295551084
3.9124981938103085
3.570964034426733
3.56531499100727
3.7752120599083785
3.0618106075423484
4.308970525881083
3.0201286262008256
3.5126597235228245
3.9330234455678905
4.0242671690707965
3.896122052432623
3.5651117105845844
3.8679730358014752
4.334184812179495
4.27584397000444
4.058321065609481
3.511230658879956
3.898971463514162
3.4900785453050416
3.3090338804677892
3.653711721677974
3.943680965451375
2.994168847450565
3.3715328585533917
4.319570051019248
3.570418129271256
3.901663610307504
3.33555267905926
4.40066653754414
4.313075571431192
3.5198617732588353
3.430976292177163
4.023870837386839
4.1199779904497165
3.868134482492395
4.229649772733177
4.060276307755124
4.02920079744803
3.6102003167888683
3.6867627297732017
3.1846665736475637
3.5460648434128865
3.304122282367566
2.9556134386667474
3.014526694623724
3.5293163876952347
3.2899280599275884
4.486152220834729
3.83525284974904
3.9330234455678905
4.0117196101015535
3.8594694051704828
3.5010104753099434
3.329787483785955
3.9330234455678896
3.906165561919795
3.5604050844683255
4.031913955176038
4.220030313892474
3.2982049757285217
3.69607410618302
4.106859452777693
3.9055634045871104
4.374116894132022
3.6788769925455385
4.424731198718739
3.290867057932123
4.310696581086768
3.618776474954875
3.9330234455678905
3.8922029634082715
3.9387872280687537
4.167233030522241
3.1732088950278463
3.4865623869899984
3.988359385091468
4.160633708627871
3.7218565090113387
3.9794568381049453
4.1659096189334495
3.008736896754328
3.3036868165508912
4.5459353621652525
3.7750226058092533
2.994879708663473
3.6294141903584545
3.0176599690935806
3.7871918906296136
4.1188134547989605
4.103209078402671
3.5380642658740658
3.9427377656358216
2.943946302486495
3.595446378072121
4.779979377035762
3.902749931799936
3.897585272398562
3.305932927541753
3.855681699039919
3.875899418845716
3.9171068292032807
3.3002619578052443
3.0090229847583725
4.621372155742623
3.823775798635323
4.100574187190016
